{
  "layers": [
    {
      "activation": 1,
      "biases": [
        -0.2121663514308636,
        -5.59844659193035,
        -0.5688456373192866,
        -3.576531017069093,
        -0.129033884489764,
        6.546651748335536,
        0.42965529553664267,
        2.2617463440594854
      ],
      "cols": 8,
      "rows": 2,
      "weights": [
        [
          -5.8173809016721325,
          2.9101830995202618,
          2.218953927232613,
          4.314290324249215,
          7.20890332718703,
          -10.311064429411521,
          -1.2073505126344275,
          -1.5619416270507487
        ],
        [
          2.190448852788398,
          5.421145294351569,
          2.7408618621797145,
          -0.5282118825616187,
          -2.700019284284053,
          2.504403972967347,
          0.9413634421649872,
          -6.958531778486259
        ]
      ]
    },
    {
      "activation": 1,
      "biases": [
        0.06812627673064071,
        -1.1504735643233,
        0.3515533360750169,
        0.23737254410582972,
        0.5512052529892846,
        -0.15761275012753462,
        -1.7955771178145887,
        1.3605708032229724,
        0.7268484210052261,
        -0.16286089814790292
      ],
      "cols": 10,
      "rows": 8,
      "weights": [
        [
          1.7680530307702669,
          -2.646877214930459,
          1.049379177961129,
          0.5452252852121211,
          1.795857182035409,
          0.15543087171282588,
          -2.77735052256005,
          3.2076634707039453,
          1.3031278077665394,
          -1.5017896653161797
        ],
        [
          3.3226577997568123,
          -1.9023739392551595,
          1.3431447080318604,
          -0.9501524180885481,
          -2.3107393799694647,
          2.4669142295646913,
          2.785153629838793,
          4.68741165511538,
          1.810515212110836,
          2.618521917879969
        ],
        [
          1.7533692011381046,
          0.2120105099131362,
          -0.7287190863990656,
          0.1270943940978337,
          -0.22488455554903078,
          -1.4761285277095324,
          -1.3148970424178543,
          0.3094742693471943,
          2.702151557803732,
          1.3388865895201543
        ],
        [
          2.829203452332952,
          -0.4629497988572167,
          0.5753181230293087,
          0.1001865456922801,
          -0.09802304938262153,
          -0.7569981759586912,
          -1.814116587816267,
          1.6412190115885514,
          2.1255330084148056,
          3.1325080930294367
        ],
        [
          -1.658377734949277,
          3.107586768752739,
          -0.814968763725132,
          -1.0239102585152369,
          -3.3044736038997455,
          -0.4029680080553613,
          1.4048984937633968,
          -3.561952262547485,
          -1.7928000609277697,
          1.650772070574213
        ],
        [
          -5.725016855751339,
          2.6626988051871927,
          -1.1804803589218527,
          -0.11379681023106704,
          -0.37899811425428725,
          1.002699750601082,
          5.099189844328807,
          -3.6595262953519536,
          -2.4381345196306645,
          -5.890771724953641
        ],
        [
          -0.03735266156110632,
          -0.7279452730257849,
          -0.09804342399706696,
          -0.24415895069038845,
          0.5051275687631288,
          0.6765690363733154,
          0.26932141991104025,
          0.8603275836681119,
          0.6972285664919139,
          -0.12054932664749571
        ],
        [
          -1.3755372844021942,
          -3.452131739517807,
          1.4043803094100702,
          1.250498843068511,
          2.601813755982374,
          2.3600470856980675,
          -2.980567682960997,
          1.1533573120759886,
          -4.754506914873984,
          -1.512561704522018
        ]
      ]
    }
  ]
}
