{
  "layers": [
    {
      "activation": 2,
      "biases": [
        -0.12511366438771726,
        -0.2032215251822826,
        -0.11664470980938574,
        -0.2951263901197906,
        -0.19040523380439756,
        -0.22816888643666347,
        -0.1688332574772608,
        0.1721863865484896,
        -0.1505030530275388,
        -0.16173291601190495,
        -0.20945050869269005,
        -0.10327669230871657,
        -0.10435120871276321,
        -0.259362265253055,
        -0.2743564039781059,
        -0.18713112523009565,
        -0.16880433737655617,
        -0.1057778361266489,
        -0.04461173233935878,
        -0.057696807810503715,
        -0.16180417274548556,
        -0.23085616885513469,
        -0.018433125342594635,
        -0.05161610786544388,
        -0.2599633169155907,
        -0.10515370505760827,
        -0.171502700693778,
        -0.18759743253106873,
        0.014277847355732336,
        -0.09131990780069887,
        -0.07962790417960718,
        -0.4097808973011374,
        -0.27900634967251287,
        -0.43934717707124765,
        -0.13823977170200297,
        -0.12853999935565172,
        -0.036430552052054005,
        -0.0948954345582495,
        -0.2349328163184365,
        -0.05271341113095324,
        -0.15301494632569645,
        -0.057008221539187574,
        0.017363407283560638,
        -0.2049346526918836,
        -0.043145887964083,
        -0.13571963386145874,
        -0.056922047424401774,
        -0.00973468538811296,
        -0.3097569047876359,
        -0.18681716803174214,
        -0.09389344553891156,
        -0.4092350622959175,
        -0.19520404490441184,
        -0.18965381236944473,
        0.022674461473296527,
        -0.13265570717212039,
        -0.19914036290117887,
        -0.41582191389922696,
        -0.12679083144553613,
        -0.0640511840925672,
        -0.05163267609908815,
        -0.1077483231805344,
        -0.1725489807101757,
        0.05734983125897035,
        0.04835655800896324,
        -0.06222769221724219,
        -0.2681323156642239,
        0.05159802803089405,
        -0.054202118477551166,
        -0.17929749882413495,
        0.159441926463014,
        -0.058701705295651156,
        -0.14430192782753695,
        -0.12095765722585491,
        -0.1963019602931163,
        -0.21511324666074613,
        -0.2539957262818546,
        -0.2869003473397439,
        0.05497391158612326,
        -0.14420420452065214
      ],
      "cols": 80,
      "rows": 130,
      "weights": [
        [
          -0.18149685147079223,
          -0.0475765287858088,
          -0.12794254545950082,
          0.05422602990759354,
          0.006102507522185948,
          0.29071196759201007,
          0.20631817880071027,
          0.41694419272676964,
          -0.039845877981056675,
          0.42315524046562264,
          0.1116311042099143,
          0.16924153370675132,
          -0.3280295821646982,
          -0.14311635359177735,
          0.119372935767034,
          0.0217424884472433,
          0.2849322138873249,
          0.008765888744620122,
          0.20418069146896062,
          -0.4833149007577137,
          -0.22612430778426035,
          -0.11237595151501963,
          -0.16588709909301533,
          -0.02478875653536054,
          0.19102591593630067,
          0.2216092122862628,
          -0.08462083374825623,
          -0.2223857202053611,
          0.23847500007474987,
          -0.033528219625025515,
          -0.036138193053579876,
          -0.47070238798671565,
          -0.04294501711228372,
          0.046261443212803385,
          0.12554676919123484,
          0.3067620266302507,
          -0.029767774087570382,
          -0.07423662192436882,
          -0.10183108814052509,
          0.3830751661555231,
          -0.26212356575093293,
          0.08719663574965457,
          0.00702938318349612,
          0.1748624135498727,
          -0.16428865067733864,
          0.15589173352907337,
          0.01975233509988082,
          0.25932823526052295,
          -0.02272523353202668,
          0.07239975428547751,
          0.16606237389245024,
          0.0796820725284843,
          -0.1674536638452762,
          -0.3446243279958976,
          0.0419760138128185,
          -0.34287904791202983,
          -0.21725190739392228,
          0.011940915535548829,
          0.08840872384062308,
          -0.12478342801827288,
          -0.2266220867136479,
          -0.01336017526832015,
          -0.21407092343862474,
          -0.2548463981154042,
          -0.1862681360040225,
          -0.03420855925730264,
          0.17577340215169507,
          0.20514445775828813,
          0.17172741639772057,
          -0.0017078455064126648,
          0.30579591456669775,
          -0.15418166551634493,
          0.21292685574231365,
          -0.003497612966696643,
          0.27762176061885097,
          0.07727832394174565,
          0.09469188384320242,
          0.08645063265317825,
          0.13602518685189996,
          -0.24842100712820075
        ],
        [
          -0.13227194332441589,
          0.16094114895654135,
          -0.014882952185816763,
          -0.07821003819910939,
          -0.27427034374485504,
          0.08341729107133938,
          -0.08601208212729544,
          0.2563764116909172,
          0.09642810070321635,
          0.04359759031761566,
          0.07062886074429703,
          0.012256726248411735,
          -0.12799003765241818,
          0.10223948349546273,
          -0.14267665346110647,
          -0.0303042974803228,
          0.30804192602132213,
          0.05821579357568323,
          0.33085069230587005,
          0.10992533784008039,
          0.417358533168156,
          -0.1285223151626854,
          0.163449881832928,
          0.2571332626612395,
          0.019828678905014066,
          0.09851886311222562,
          -0.0516587966989532,
          -0.24505591450246542,
          0.18372225122110783,
          -0.09620083226104445,
          0.24508406259122675,
          -0.29143643911063527,
          -0.18296177841722042,
          -0.0817511134541791,
          0.1338602905968104,
          0.5172265474840051,
          -0.12776614431780947,
          0.008902215830859777,
          -0.1692940788775785,
          0.27306293188363007,
          -0.1809967798959481,
          0.26772283189317136,
          0.2661883336444592,
          0.024223460087716767,
          -0.28760153065791955,
          0.1683998653189261,
          0.36032846606322955,
          0.5951120358839841,
          0.12972086895700666,
          0.042094076114754346,
          0.23406704190020752,
          0.020674180130356542,
          0.07273314819216796,
          -0.15577040917188237,
          -0.21901736168939703,
          0.22071828817317563,
          -0.23261616642545707,
          0.3863066279198308,
          0.24573825213593817,
          0.46892887721559606,
          -0.016674310582947285,
          0.1284801999145967,
          -0.2952136679387362,
          -0.2610790743742876,
          -0.07673485734976887,
          0.40867633054456126,
          0.06575217020232554,
          0.31899399525199845,
          0.28455569803549813,
          0.006136883670060831,
          0.4368345964645851,
          -0.13142823568197196,
          -0.2662181277148673,
          0.22101490038408622,
          0.26928703966898093,
          -0.2902732266780212,
          -0.027513704003499565,
          -0.1032982166132964,
          0.3448679603347848,
          -0.16308257792249403
        ],
        [
          0.13985573479585023,
          0.08217169360227919,
          0.02136942377066117,
          0.15909681873756737,
          -0.24605719137749354,
          -0.05082715056460211,
          0.095623403704874,
          0.15754152266234725,
          0.05812495181183358,
          0.2407404152864006,
          0.1483254022870257,
          -0.02359569080738219,
          -0.05112074637113219,
          0.09973126882961142,
          -0.10513688024287039,
          0.022772346460642096,
          0.25756519218205154,
          -0.0462527320580077,
          0.06092835057942378,
          0.1691227821038616,
          0.020439651285008482,
          0.21051800430450365,
          -0.02188975267112447,
          -0.03625028772511568,
          0.28703733216249755,
          0.11574242966879497,
          -0.05874901627349507,
          -0.3193619028009923,
          0.2520631292670083,
          -0.05989228126529031,
          -0.04457492305323142,
          0.03054718094003461,
          -0.09763586147678602,
          -0.20690818103117947,
          0.07123031676227155,
          -0.39354974078307386,
          -0.033254433929065616,
          -0.010913314212888816,
          -0.07118577113929762,
          -0.027606771688093237,
          0.16006116398968162,
          -0.28522327229209493,
          -0.19095486121715946,
          0.3143500010615018,
          0.06944491764281012,
          0.28933806735186546,
          -0.009038072983581407,
          -0.3218199255317612,
          -0.1451810216502203,
          -0.14342825084889532,
          -0.15683972064661222,
          -0.01694633603241461,
          -0.05310743971182117,
          -0.11528375857881848,
          -0.1066691222112139,
          -0.18001573595592485,
          -0.00027178690829022227,
          0.0038980731671640644,
          -0.17333128850806226,
          -0.1757805250999339,
          0.1305122813048538,
          -0.2283548807740542,
          -0.010050446011306254,
          -0.0820765559513456,
          0.03818619833097589,
          -0.10091689087369156,
          0.23914793716071994,
          0.21152187852588739,
          0.08179463105720969,
          -0.04124767243878081,
          0.08471104698561589,
          -0.06387973819360804,
          0.04669563694142817,
          0.10832710514525207,
          0.1329310351320289,
          -0.4140000914990475,
          -0.291641204005934,
          -0.0715298612660778,
          -0.0903933078922602,
          -0.25037204204534497
        ],
        [
          0.050307627832923654,
          0.021870751107347083,
          -0.19179441395556304,
          -0.26198163449887674,
          -0.16777674687523653,
          0.10109028267404649,
          0.014054794472365077,
          0.22875417850741114,
          -0.05709624235520009,
          0.1319554963129264,
          -0.18170652670962953,
          -0.35802886272587536,
          0.006615265804376618,
          -0.10299309417765341,
          -0.22368247040193076,
          -0.0749938148137647,
          0.08853321748043173,
          -0.035784684773347536,
          0.02103037221477951,
          -0.18786738088855331,
          -0.2644733774561565,
          -0.0022037430295922624,
          -0.35336128238135234,
          0.2476679629174815,
          0.0010101886508757682,
          0.2449394319237873,
          0.06148726146574451,
          -0.06877260164108573,
          0.1602762070744524,
          0.17934434075574535,
          -0.20876231210543586,
          0.004462259101945685,
          0.1899614324909142,
          -0.2463941930768101,
          0.03103659985798342,
          -0.2631017662764502,
          0.04352106965727706,
          0.2538749461339506,
          -0.2840382618119421,
          0.30641125433970934,
          -0.06523122385399047,
          -0.15304404925756726,
          -0.20099192628073143,
          -0.22503757165862645,
          -0.017152719079619464,
          -0.050895742514460295,
          -0.0990370456783519,
          -0.00642332862866862,
          -0.2775613938990569,
          -0.17574956313817697,
          0.047462359912586606,
          -0.12844451634025608,
          -0.10269149517943656,
          -0.06266451951394714,
          0.16882106351288087,
          0.168365264838678,
          -0.13518215410282533,
          0.2900581683702697,
          -0.2382023253406202,
          0.1503465415725149,
          -0.08671335625866074,
          -0.3057813088047002,
          0.06540624090668153,
          -0.011922348653087717,
          -0.0021858334488028004,
          -0.29820564611542477,
          0.02413729219966828,
          0.07696435535328243,
          0.2875033980006122,
          0.16268471556765013,
          0.13035799976856002,
          0.3855835327743831,
          -0.05568339208595165,
          0.09311149496915663,
          -0.08452955265275604,
          -0.11888313820730391,
          0.03360520687562303,
          0.23309063182685943,
          -0.022137834499096582,
          0.03524723042290858
        ],
        [
          -0.1151454334517801,
          0.3127459811526885,
          -0.20874160101934416,
          0.07008435114558628,
          0.20184467412915388,
          -0.19638490153949603,
          -0.020379420744344488,
          -0.012828053684344972,
          -0.13390357874194103,
          0.24791394495784602,
          0.07717973381754255,
          0.06955857755319213,
          -0.06170906794385485,
          0.07922104798731841,
          0.05273282658659737,
          0.0801116221904427,
          0.23228899419459942,
          -0.025882650283912807,
          0.07285053103810367,
          -0.148103562236828,
          0.015335236318806714,
          0.2687629223692292,
          -0.2673853965636834,
          -0.35230164549366205,
          0.09626431324938313,
          -0.19168026816125658,
          0.1142478179680317,
          0.18475895194024736,
          0.04546607927199789,
          0.03894348886915005,
          0.047739788143104686,
          -0.033826125717395024,
          0.03192165883071451,
          0.031311362744768326,
          0.10491677634739391,
          -0.23679611694167643,
          0.34340879317104955,
          0.16954494241550488,
          0.4129411105392332,
          0.06376093414150877,
          0.16095734231180098,
          -0.040909548948289076,
          -0.11940563630801358,
          0.09354084460515974,
          0.029953792155849687,
          0.03662938310454535,
          -0.018566123985802103,
          -0.1537252556471871,
          0.17561257192716395,
          -0.17435613017554086,
          -0.027678630241015533,
          0.30364520055403954,
          0.014733154883257132,
          0.19810651265346108,
          -0.02101190726794347,
          -0.12238729372037772,
          0.15719659384267295,
          0.0453472618082621,
          -0.12762361605332367,
          0.04590661271221236,
          0.15880308092623485,
          -0.1994732572168472,
          0.149163571553381,
          -0.12901255617042337,
          -0.04406630074914217,
          -0.0184839286400471,
          -0.1714189607108828,
          -0.23490585845591072,
          -0.30967425910746743,
          -0.11140093620127427,
          -0.17306306380150432,
          -0.017360584926354672,
          -0.05137696200245058,
          -0.1922903518514356,
          0.0732870211004593,
          -0.004999036153068873,
          -0.06475283886127516,
          -0.019831388873402796,
          0.07009665865758445,
          0.24617380203332068
        ],
        [
          0.09188843473332953,
          -0.07429420823153467,
          -0.03637081928165649,
          -0.060500945062081764,
          -0.02725464726955522,
          0.08731948636023035,
          -0.14661899635765807,
          -0.2383386022697574,
          0.22298149309214868,
          -0.15922708455628715,
          0.03568177123018289,
          -0.019759568687665263,
          -0.05520012329454951,
          -0.0289823641119762,
          -0.22043725457272886,
          0.12284876130922795,
          0.00021055015331903815,
          0.12248872380131896,
          0.00914223174319596,
          -0.05610592882321501,
          0.1720758570319408,
          -0.16438708521549697,
          0.06093346380232438,
          0.17629567120745007,
          -0.3696198832329013,
          0.05279613751318248,
          0.02228067192026744,
          0.03414600145931122,
          0.1948551956289495,
          -0.07297809863965561,
          0.0036192159501145012,
          0.22775398318750326,
          0.06383154867423227,
          -0.010725073123193535,
          0.042674794591863414,
          0.2523481690565148,
          -0.28022308225750425,
          0.10517824485800915,
          -0.09427886345263803,
          -0.0966644363641301,
          -0.09200933127605165,
          0.39636689956016774,
          0.11232230432239461,
          -0.03183009475276547,
          0.1455317676895746,
          -0.14088317641882445,
          -0.07495793036348411,
          0.011015411284895393,
          0.17074792212565748,
          0.41887486419499187,
          -0.08730065717970895,
          -0.1583410594036357,
          0.2941688086284231,
          0.17106604472808346,
          -0.18336276908611868,
          0.14243474190106073,
          0.04916434175330823,
          0.08694077573539469,
          -0.12589257828086642,
          0.051310203257697994,
          0.03106701935314448,
          0.23305354737013764,
          -0.0664014702695902,
          0.09540241615109117,
          0.33600555754675904,
          0.08181535668325908,
          0.1685757262713865,
          0.06255716709231988,
          -0.10687187012060989,
          -0.022707866483311117,
          -0.05684685851718566,
          0.08077752690782104,
          -0.0524218688103844,
          0.01893426705795359,
          0.004627805037779079,
          0.11761069990530577,
          -0.029179205004011086,
          -0.33219374327766205,
          0.10260049791332922,
          0.18116849496250098
        ],
        [
          -0.08271082635951299,
          0.2628981260623849,
          -0.050822272499672305,
          -0.03051780625712447,
          -0.1610235807803799,
          0.1434964742622431,
          0.05729195534727074,
          0.008802418150164623,
          -0.10845021287160826,
          -0.3374599458088462,
          -0.11378972057301887,
          0.021798621652638513,
          -0.012399795120583578,
          0.1117695276317964,
          -0.17499435754036,
          -0.19793190546981335,
          -0.17188675736076536,
          0.09056928636363727,
          0.11748820648082785,
          0.06610773495894534,
          -0.11305067125687121,
          0.07580323882518127,
          0.009285371415618927,
          0.18873971538941028,
          -0.14779318116314297,
          0.07174402493192934,
          0.021562100291943144,
          0.07016806253389289,
          0.22769543089997446,
          -0.049902116012099824,
          -0.06692971544929234,
          -0.028206277631894764,
          0.17783751120357588,
          0.18954208751047086,
          0.08099394944286399,
          0.09691792203698203,
          0.24726549680601603,
          -0.05252811250363989,
          0.4426595871109967,
          -0.029205820655641836,
          0.15720654266829237,
          0.03704768487242804,
          -0.03559360667727739,
          0.19239656355983326,
          0.041528392744112394,
          0.15943655656877434,
          -0.027730449740824198,
          -0.067361899265588,
          -0.4129981528139017,
          -0.21302561661496205,
          0.0413150551341265,
          -0.7048804454680117,
          -0.2794529200332379,
          -0.132263316508549,
          -0.05312617500014346,
          0.06761729321174975,
          0.3045830466511136,
          -0.10459940098402046,
          -0.014436947315921487,
          -0.07830224413336878,
          -0.12266346175045334,
          0.04762090310915269,
          -0.007657858043088192,
          -0.11127198339354068,
          0.15018829518688814,
          -0.028071764998549714,
          0.11436455746959423,
          -0.24186454485322137,
          0.018890439889226528,
          0.1492539092584004,
          0.10135103664550346,
          0.0653263859156603,
          -0.011232721938432898,
          -0.1953638130760083,
          -0.11890626715310461,
          0.15781065454360194,
          -0.1892581317993058,
          0.16761351535144106,
          -0.10386961762162965,
          -0.2134602346615124
        ],
        [
          -0.1885661280806665,
          -0.1573143217542296,
          -0.15257946747691006,
          -0.21539977543290548,
          0.13131278495077586,
          -0.08191986274228237,
          -0.020355084910656292,
          -0.10140322932142917,
          -0.1179955610248649,
          0.09298703976868841,
          -0.03518828173578236,
          -0.06148598187323869,
          -0.1265093752369591,
          0.07240653713833818,
          -0.1296799134381546,
          0.02068711872201687,
          -0.29085193668452347,
          -0.013566482295222997,
          -0.1027881238349592,
          -0.12337246036351286,
          0.164628869653143,
          -0.257088307700763,
          -0.030695231106874308,
          0.05182478639060878,
          -0.2785592127168376,
          -0.11474287447538375,
          -0.18283364866620447,
          0.09672414459452262,
          -0.08508832043757052,
          -0.06776092818155241,
          -0.006487100413817265,
          -0.09796104936879813,
          0.21175777021514125,
          0.009290871361876802,
          -0.10697783124599737,
          0.015996970396011577,
          -0.02164670995554126,
          -0.04991031693104154,
          0.14596642945121496,
          0.013194174400346988,
          -0.137779555732308,
          -0.020664460585184598,
          -0.08026391830526777,
          -0.11373304183708734,
          0.044491260700914075,
          0.1523439747026405,
          0.023145736103242453,
          -0.03450355646355279,
          -0.33427511512805136,
          0.011570298978416299,
          -0.05237039884441612,
          -0.31338502055322875,
          0.0017587456273028277,
          0.011124871587540944,
          0.04737449672239022,
          -0.5000532446211765,
          -0.16558804912154498,
          0.13675903986497734,
          0.01937827999881971,
          0.02234866452663051,
          -0.03314668684048683,
          0.06957054541926172,
          0.022707569206620676,
          -0.1842756817739826,
          -0.13209223400035766,
          -0.05023092121404062,
          0.009631457837085682,
          -0.11161434416255625,
          0.006673109627704838,
          -0.032396257678137926,
          -0.13155298573498708,
          -0.1019281318467238,
          0.0430882120726772,
          0.032145626346033206,
          -0.32976629135188984,
          0.15646961175672752,
          0.08438833647674299,
          -0.3296110898452071,
          -0.14753336349503815,
          0.07057010167270332
        ],
        [
          -0.22528796514538516,
          -0.24994181263753731,
          -0.07382222448897986,
          0.1460515130221557,
          -0.027863482085677158,
          -0.050297112576953414,
          -0.04426481873015498,
          -0.014088770448035057,
          0.04999371697092133,
          0.012840872046901507,
          0.12016702724972055,
          -0.028048959888973896,
          0.05246607916172888,
          0.15672731332464954,
          0.24843355408228046,
          0.02733204464485579,
          0.041331704764933454,
          0.09607856994579078,
          -0.068747007921109,
          -0.07018141070653695,
          0.0715435284179885,
          0.2903245865386722,
          -0.018305082506363337,
          -0.031639990504049254,
          -0.10075430728704234,
          0.0992068096718026,
          -0.05065729586657834,
          0.1099911032047887,
          -0.05163509264660492,
          0.15541915823696104,
          -0.07679591686937011,
          0.3884248248844198,
          -0.00020363458826548738,
          -0.0904378908290971,
          -0.2025692759351362,
          -0.08792768530680928,
          0.0728624888264472,
          -0.06270708278282268,
          0.04186983900453029,
          -0.19238591337743494,
          -0.27278222935297686,
          -0.10466617803357785,
          -0.37389163389081564,
          0.0260745690055612,
          -0.2281514116605844,
          -0.15055043290833686,
          -0.029847711800456686,
          0.00933344970190544,
          0.10743146401274699,
          -0.048142938528884606,
          -0.12546121891441436,
          0.10589271486535541,
          0.10934342016057409,
          0.05919492188823455,
          0.005685662892471523,
          0.22013198704005252,
          -0.05329654823319965,
          0.13616051525373113,
          0.08157287382044913,
          -0.04101819692307536,
          0.030679313404698587,
          -0.05273888842129254,
          -0.1367860409885175,
          0.011182371879052478,
          -0.06164888736326821,
          -0.04458683748202393,
          0.07323782172784901,
          -0.025667028393314483,
          -0.09109989520802378,
          0.05133603261433613,
          3.154628091758913e-05,
          -0.030190918419953416,
          -0.07534167564466854,
          -0.04650560346848049,
          0.07547259467401707,
          0.0805456590771627,
          -0.11878024369930068,
          0.18637076423247198,
          -0.047564165051036986,
          -0.23081204441198197
        ],
        [
          0.18147595385969942,
          -0.0873521756438551,
          0.27543232459091954,
          -0.09852897719067485,
          0.021579286021909876,
          -0.08738887411309933,
          -0.03946230384371387,
          -0.05855487111609219,
          0.14590788100464405,
          0.11991016104923255,
          -0.008243267324989584,
          0.120350265284521,
          -0.08642920978891956,
          -0.03264109604598303,
          0.10973516328895028,
          -0.20020234010367738,
          0.03839408583930968,
          -0.09941992441240488,
          -0.05426906562255216,
          0.09840500303223343,
          -0.11536679147582801,
          -0.07284126151440004,
          0.012077083558417828,
          0.09121124491302052,
          -0.04074529069654219,
          0.26316583965164336,
          0.13754237983957682,
          -0.14744735878421222,
          -0.05939917946966395,
          0.047400528830445966,
          -0.09187253879986315,
          -0.12118282762208747,
          -0.12039050027907897,
          -0.22619694834270299,
          0.06762655244513938,
          -0.34715231477720404,
          -0.3796038401848754,
          -0.24340653402012669,
          -0.10976143062136111,
          -0.04942026975396055,
          0.3217121669141213,
          -0.07617414708990847,
          0.060359696276301195,
          0.1080746134271218,
          -0.12887304420189452,
          0.17021540851565128,
          -0.01463220653834315,
          -0.1633471775066507,
          -0.1260658296221051,
          0.030714307327175804,
          0.024560343010332067,
          0.2887102465851577,
          0.21079327725810737,
          0.20651007164823837,
          -0.029604009304708315,
          0.2940288257942922,
          0.1374551067321416,
          -0.23934262838217626,
          0.01155663995384932,
          -0.07087575790412784,
          0.09112837085954181,
          0.21585446160105434,
          0.20298101310263966,
          0.17476227465355776,
          0.07924868718283012,
          0.0081774227623421,
          0.21581292260726845,
          -0.3218834225294099,
          -0.23467740813379215,
          -0.03276592514520831,
          -0.06012220987068922,
          0.02164528659041667,
          0.16115933924902118,
          0.08466586375497316,
          -0.04199277100481646,
          0.013409327977853687,
          0.09749561833535555,
          -0.12903035178291763,
          0.022382214570918973,
          0.2801113407387907
        ],
        [
          0.015293704294714468,
          -0.26929746412028327,
          -0.14774154493911382,
          -0.07499061073224379,
          -0.019410262928212938,
          0.23825137059852994,
          -0.27486935903502674,
          -0.09510119139617575,
          0.11560079851134114,
          -0.10865610381559174,
          0.1941109494451628,
          0.02125280358195115,
          -0.03029499567705438,
          0.09118743722418762,
          -0.40353652885485514,
          0.046976241424589844,
          -0.04952851645591736,
          -0.026823586310149847,
          0.11938801434984121,
          0.059383552822397184,
          0.10527201881342192,
          0.028750891610611368,
          0.2521042922089858,
          0.1854456239129859,
          -0.11774373983939868,
          -0.20553740951140506,
          0.10065194712977389,
          -0.05846126544247806,
          -0.15245570503155378,
          -0.0597376647420444,
          0.12738045276551824,
          -0.09814704202144849,
          -0.02253994178202582,
          -0.015518862104650642,
          -0.019274570977730568,
          -0.08639144347743541,
          -0.19156596757106384,
          -0.048342121395418554,
          -0.21574104219504464,
          -0.04147809351990035,
          -0.0906628583272629,
          0.22901595461341206,
          0.17006087610839132,
          -0.14038236988526695,
          0.11074771539837634,
          -0.1986150043624997,
          0.24134561780994157,
          0.0369021943501459,
          -0.026710638844238157,
          0.01928358307971462,
          0.007125062483447702,
          -0.048288896994683965,
          -0.15000100195963478,
          0.003915290604555162,
          -0.05380561936483996,
          -0.08136563459819562,
          -0.2621924419512503,
          -0.3054794387224562,
          0.20404528977704262,
          0.09128783526135881,
          0.2567793875344921,
          -0.28065397986405793,
          -0.23133091016287316,
          0.02265834950365079,
          0.3069472299627407,
          0.1340822749223397,
          0.00823143161569304,
          0.3709040783117664,
          0.09188763182949305,
          0.037947599582658136,
          0.18856359966524994,
          -0.03822073648006754,
          0.03647723730695844,
          -0.07098154757584002,
          0.11767877485786034,
          0.21524291056855177,
          -0.026796711433078966,
          -0.12797948756720573,
          0.043304747191227955,
          0.13816176885340817
        ],
        [
          0.006180159647780474,
          -0.08827087142799041,
          0.1785375712655996,
          0.32735349281364107,
          -0.12616986482875098,
          -0.14504665615329185,
          -0.1362280139539763,
          0.10969893478706975,
          0.15603385089290098,
          -0.03067907114462542,
          -0.08481148781072807,
          -0.0033986708752273974,
          -0.022245720900029325,
          0.32652083049802455,
          -0.2172773707747728,
          0.013639804690987528,
          -0.005547410601213855,
          0.023447076416228913,
          0.024706097543341386,
          -0.1288581254386629,
          -0.024217093014557517,
          0.1635074384189903,
          -0.09931661000475331,
          0.035437139558903825,
          0.030509189267593516,
          0.06448267741634561,
          -0.13660391120500906,
          0.07288879026990547,
          -0.2944651999991409,
          0.024189178150632967,
          0.06244864164509348,
          0.10072145105480826,
          0.19507839861228957,
          0.14188846347770223,
          -0.163855502768351,
          -0.20747534162938788,
          0.19333019287485714,
          0.054801066066335107,
          -0.02283609395930762,
          -0.1047902114882552,
          0.15041878214695786,
          0.01394399289391376,
          0.00845385833901038,
          -0.014605983752269461,
          0.008182484454635302,
          0.04484352559763995,
          -0.19608937027559523,
          0.11570532158772066,
          0.13377460715502426,
          -0.0010188351196444454,
          0.14361573662741495,
          -0.02415896085931798,
          -0.23068322639778646,
          -0.11650674833443082,
          0.14142007214379762,
          0.17109525095242722,
          0.12835575367222282,
          0.03171829177401267,
          0.00901266976248448,
          0.15050013618262983,
          -0.23672728252884442,
          -0.15172430427837735,
          0.2521290847145796,
          0.03763783846759464,
          -0.07048872208012764,
          -0.13619318254720403,
          0.11037624300380865,
          0.05857243670400522,
          -0.024027447699594983,
          -0.1147512475869712,
          0.04859824568445155,
          0.037691872933591594,
          -0.00021031003279743955,
          -0.06635689051758635,
          0.10036801970571887,
          0.18612440995755072,
          0.18018070096958427,
          -0.14791670596938689,
          -0.0626145611921454,
          0.002720862240485421
        ],
        [
          0.05995613295069303,
          0.18239018294249806,
          0.061005986087893475,
          -0.050369100876233946,
          0.030750078833355735,
          -0.060384207499565405,
          -0.12785726413004564,
          -0.10815288059537422,
          0.22724493991756683,
          -0.22016997418511317,
          -0.12185195177329401,
          -0.17550961157317937,
          -0.04097542182029789,
          0.04270139320270674,
          0.21865919713332851,
          -0.007130494294575514,
          0.2851232575543832,
          0.017781228485029894,
          -0.24416142917952502,
          0.09183261686484583,
          0.15827661243794494,
          0.039062441472583996,
          0.17200176877306278,
          -0.20555913588483588,
          0.08373884245100922,
          0.03681853726093069,
          0.07109316570689142,
          -0.0991136813061008,
          -0.04952930898326993,
          0.012357019823638203,
          -0.1328827690539528,
          -0.028153361528560704,
          0.030817515731544072,
          -0.08147829059037583,
          -0.14184659520554585,
          0.16044305237470224,
          -0.40932902387956127,
          -0.011375852362633618,
          -0.10641495405291489,
          0.17660646621132112,
          0.09226951443126791,
          0.16829797646077674,
          -0.17288988526858518,
          -0.04119861055577797,
          0.06621769297403153,
          -0.031428546559305784,
          0.26206152691114737,
          -0.17490771648799996,
          0.06271104955690177,
          -0.07673618977170124,
          0.0965289130164088,
          0.3392748616682068,
          0.12240797272592417,
          0.1249465383711784,
          0.012935165628472993,
          0.13393332886179327,
          0.07174069607119903,
          0.05741014351640241,
          -0.24342664677036602,
          0.04501561096987707,
          -0.07733824036159771,
          -0.2922763706392136,
          -0.07148652713332672,
          -0.06068876930264707,
          -0.3141850128109282,
          0.19116760029213303,
          -0.11868600422309833,
          0.2821572804708602,
          0.23732678899470813,
          -0.1308959367646632,
          -0.1338264391646968,
          0.09885838898307545,
          -0.010131273345308224,
          -0.13904248848674167,
          0.026144150298274542,
          0.01835345088058494,
          -0.15328608152197384,
          -0.029048434523173145,
          -0.0891186891031786,
          -0.04576393204192579
        ],
        [
          -0.08107678322176354,
          0.21457577391183152,
          0.047927886318340746,
          0.14175180992849623,
          -0.26397435361059945,
          0.11597004377204873,
          0.034335601596245345,
          -0.20537662822949215,
          -0.12349988532639225,
          0.03813349239727539,
          -0.042450906319773524,
          -0.12307261495036433,
          -0.06557947326004979,
          0.18167869860827174,
          -0.15453953762399772,
          0.10846404882910896,
          -0.1698488368723442,
          0.053022837594226796,
          0.04453770624043622,
          0.005138489626976293,
          0.061427573589259606,
          -0.13618963156436734,
          -0.07616031882001131,
          0.37794870995232993,
          0.013245629048888909,
          -0.1474617030304135,
          -0.09096133967372429,
          0.07807230872192258,
          -0.04618625536622307,
          -0.04437581748066958,
          0.047644739708648944,
          0.33160858031457785,
          0.10331751311701234,
          -0.0301640720145189,
          0.025553329058531422,
          -0.4045211058199915,
          -0.25855645762149065,
          0.08159733550048091,
          0.11978590423106637,
          -0.2958613433617659,
          0.36315399447513996,
          -0.08517502109278338,
          -0.0521334701487681,
          -0.006055665562109358,
          0.2033498621817887,
          0.08885422328343212,
          -0.05080592148881532,
          -0.3232349162190479,
          0.21233729824372352,
          0.13673890997943672,
          -0.16007838515815553,
          -0.07748047635747309,
          0.05587519261835697,
          -0.1264394401636,
          -0.0953468727793377,
          0.015425558759948608,
          0.2632594168888477,
          0.20845475994854662,
          -0.05338690738765889,
          -0.15275926046114877,
          0.15837350629994815,
          0.10005016052544384,
          -0.11752824365868197,
          0.08167739028248021,
          0.035095791066582706,
          -0.07685139382664329,
          -0.017017805879116558,
          0.06782673675785349,
          -0.32061528480192647,
          -0.13855710595117493,
          -0.21043212515679896,
          -0.03495538847280411,
          -0.027373588539981144,
          0.1287874271545097,
          0.1015124309480165,
          -0.0938229015063132,
          0.016257435228536947,
          0.014411986746953997,
          -0.05249436660105526,
          -0.01815246229203038
        ],
        [
          -0.14261283353841364,
          -0.02504605872428727,
          -0.09411463090272565,
          -0.06506359610089443,
          -0.061288962360739496,
          0.2148179538004598,
          0.16023385555494643,
          0.0703967547086505,
          0.15542723770222794,
          -0.12507611137930022,
          -0.07500492534640675,
          -0.04034144088118749,
          0.027148408910949568,
          0.01928601065822291,
          0.0750571799035622,
          0.039409233083129276,
          0.018718926221553304,
          0.0018338130310352602,
          -0.0012632537757131766,
          0.005715265419664398,
          -0.21036080079180833,
          -0.10937035271328308,
          0.18072672058315478,
          0.3510067470733184,
          0.05626337496588317,
          -0.01931612257536967,
          0.007827644714465985,
          0.02960050815219261,
          -0.07455783545019684,
          0.0830415104939459,
          0.028353370741059744,
          0.10433348821076036,
          0.1329673597971383,
          0.17530106151688105,
          0.15767162555935568,
          -0.1766847064349206,
          0.3193162408216105,
          0.06827811010152687,
          0.06413527300312137,
          -0.05611161787887805,
          -0.001701607712033185,
          -0.031829452040023305,
          -0.21437760682014348,
          0.0032398666741812543,
          -0.03664471455337336,
          -0.12365443755145664,
          0.26986938518080006,
          0.15312040021154674,
          -0.03311400459437009,
          -0.013465053527454762,
          -0.08595739420578162,
          -0.06853168385299416,
          0.1355119837141128,
          -0.19637868253410504,
          0.08034687985606997,
          -0.2115187307424615,
          0.17427053402532539,
          0.16477247397265574,
          0.18116611304453903,
          0.04531042281247949,
          0.041535004138495146,
          -0.06015055332231478,
          -0.199229952383804,
          -0.08688687645067021,
          0.013917089536746714,
          -0.13462895601736202,
          0.1230769255426455,
          -0.13212291901701279,
          0.0930241929277694,
          0.02087786623255998,
          0.04441060958069569,
          0.04627743662429986,
          -0.12538825494079447,
          0.05057464734273937,
          0.007440736448471849,
          0.06887865038956953,
          -0.12655388625973396,
          0.016605400629073237,
          -0.14878232513986842,
          -0.2276968744163165
        ],
        [
          0.22324794261802863,
          -0.18091753046851056,
          0.021037508517127507,
          0.04664726241013378,
          0.22157229377675494,
          0.14486765312692076,
          0.10357539252608008,
          0.028842391331506047,
          0.1938487176075063,
          0.07550105423093842,
          -0.03298537070784408,
          0.36052181064107963,
          0.08167116829445174,
          -0.12561238808947947,
          0.36920210115994095,
          -0.07915361201802802,
          0.26527986944872867,
          0.14552361330005162,
          -0.2527695402774143,
          0.03203591918615835,
          0.11034513700548298,
          -0.03906580290957858,
          0.028687057113978797,
          0.09292554605091843,
          0.16915734609473448,
          -0.12614273417191563,
          0.10880546684625186,
          -0.10672755623715872,
          0.14189380210454025,
          0.10892073768119725,
          0.05541604445373605,
          -0.1395338330421998,
          -0.09001266002443561,
          -0.08793273504358377,
          -0.017721204573786255,
          0.07638970732891788,
          -0.05793498689255274,
          -0.05956279628045249,
          -0.27056969258060437,
          -0.04984733684539938,
          -0.23952136430717227,
          0.16096628429375348,
          0.22610141519007473,
          0.09521583955138882,
          -0.1389681968224316,
          -0.09237513360076932,
          0.09392704675429346,
          -0.10182901981735355,
          0.12258857785442351,
          0.1748040666368073,
          0.07746660779011329,
          0.14951683402794566,
          -0.14059605210811027,
          6.200322587069285e-05,
          0.02420703004829824,
          -0.09091054395831075,
          -0.040886253067770585,
          -0.11445785909599689,
          0.006303605943744058,
          0.04831925064367415,
          0.0165615327861362,
          0.1730571437790416,
          -0.046780705457235276,
          0.06849021082512012,
          -0.033069963792255005,
          -0.07394806903423723,
          -0.2228894275009592,
          -0.05680960056781225,
          0.17913223632573,
          -0.18421134003515474,
          0.05890471625852831,
          -0.04884708430351513,
          -0.0025821050733999887,
          0.009514370120127043,
          0.26558987568046405,
          -0.13914546994329424,
          -0.12746663679512937,
          -0.050598038035161705,
          0.089479863545067,
          0.17299223575870804
        ],
        [
          0.034380885868659575,
          -0.11700165664542016,
          -0.07687834437878989,
          -0.25807941310812516,
          0.28111794052654665,
          -0.041424525509413106,
          -0.04720373647822833,
          0.01918567720105316,
          -0.03437359721927043,
          -0.22990949372632247,
          0.15069024903812417,
          -0.11804604205400988,
          -0.19420880584745137,
          0.025063894613935774,
          0.19546662198133044,
          -0.05080057861331902,
          -0.05506868915312967,
          -0.10914263283671578,
          -0.01447052355485423,
          -0.06756571105519311,
          -0.09598518890338743,
          0.3099487012934365,
          0.0013579604402347773,
          0.2604462089096386,
          -0.05009400077118543,
          0.10070935153473756,
          -0.09038416454893743,
          0.044245346560492026,
          0.009100306854597591,
          -0.15423687074723022,
          -0.010367950442482813,
          -0.11379614903560525,
          0.08880925303460535,
          0.03719440221790319,
          0.18497088756832522,
          0.06310782841429069,
          -0.3121024264875455,
          0.023793868762705003,
          0.11560852316328314,
          0.25019204913471527,
          -0.04098712908620705,
          0.009214519763170179,
          -0.09214180468982143,
          0.1749365073781481,
          -0.05185070831456393,
          0.09448748977733568,
          0.23327671021786725,
          0.05016484539196469,
          -0.26397974707653926,
          0.150778462187791,
          0.03763779575417159,
          -0.20433712299853474,
          -0.0013575566654211396,
          -0.2282297131629393,
          0.02922174423788986,
          0.1505614227991183,
          -0.3780871812944461,
          -0.10619735712539267,
          -0.01435428167182558,
          0.14449136942878663,
          -0.004770780775384359,
          0.17018278228126166,
          -0.14960967193953018,
          -0.16304557160754485,
          0.04019373010286504,
          -0.02559915699793494,
          -0.0920160648166734,
          -0.21068006773543216,
          0.13357925407859217,
          0.013599792550821664,
          0.11887487923682143,
          0.06015766655299212,
          -0.06404732564061531,
          -0.12682293356024216,
          -0.13449590136303335,
          0.21461451801746995,
          0.1103870318444832,
          -0.28413412807943395,
          -0.15075263125612892,
          0.030339536018200164
        ],
        [
          -0.0001515280054235359,
          -0.043871074812193704,
          0.0015132912935319248,
          -0.12727256702341352,
          0.021495528341569318,
          -0.06591545064941874,
          0.056130534591003804,
          -0.0456532093170826,
          0.13817222177497662,
          -0.15899155582363647,
          0.19464515467812335,
          0.2841084822293854,
          0.006762116388197944,
          -0.009869864585087403,
          0.09317545356676943,
          0.07128371662544988,
          0.05278886159608305,
          -0.023481027935279262,
          0.06751006626815612,
          0.08908161144212844,
          0.2463411947467883,
          -0.13779413110699296,
          -0.08200641522850777,
          -0.041564938440459206,
          0.11438278687399248,
          0.17575314282944754,
          0.005901745759087389,
          -0.05967672573762293,
          -0.07845580603030734,
          -0.10811295698930094,
          -0.051994022414241566,
          -0.006681298165126211,
          0.13134867414291185,
          0.09458008488142695,
          -0.006206450637294079,
          -0.16392536971339217,
          0.016606209784185453,
          -0.13663665258926935,
          0.038035384814524634,
          -0.15024010284401879,
          -0.004991523822290514,
          -0.12527740883109015,
          0.22150993707172031,
          0.08239724652590619,
          -0.045340575722837825,
          0.15842603527467025,
          0.003522203558345961,
          0.09640332985986234,
          -0.2597771667574258,
          0.05671116710795507,
          0.00559954445661102,
          0.30855551562708045,
          0.15976047821018083,
          -0.06662111831139847,
          -0.16837929670935947,
          -0.026225184056860907,
          -0.07513596991793148,
          0.03971907249322572,
          -0.011732054045177541,
          0.15261339299475934,
          -0.0352630628608344,
          0.0909910771316195,
          -0.10807371248581524,
          0.06972987222717025,
          -0.08613616143285112,
          -0.08568389405567937,
          0.06169963848858126,
          -0.2063523379128966,
          -0.11479187783722943,
          -0.12911803057120574,
          0.06575257521652005,
          -0.17228168722795079,
          -0.05413742904763602,
          0.09065766013966582,
          -0.0303249861311716,
          0.13081641217331305,
          0.07117047142956738,
          0.08091829164709152,
          0.059190133288949266,
          0.01977889334015996
        ],
        [
          -0.020555288284437517,
          -0.35137966164001394,
          -0.08155050999535737,
          -0.04595079808155091,
          0.05910685425537279,
          0.35793350053913997,
          0.10421981374453196,
          0.2420148214067103,
          0.07536737552314066,
          -0.03440451053353051,
          -0.041799346094831456,
          -0.144359194784233,
          0.1809530811529477,
          -0.1389586364328589,
          0.2294180681008213,
          0.012365886894891114,
          0.0932574409947668,
          0.19289532282651192,
          0.016625467880039674,
          -0.2140024224458623,
          0.006965947528591184,
          0.30500530008896454,
          0.1274791008222375,
          0.0030396396063247736,
          -0.13587548228506738,
          0.17629911643510404,
          -0.003011901904970253,
          -0.1167187794770969,
          0.11471965358411831,
          0.08185197780153573,
          0.06858709739524281,
          0.0774829153936589,
          -0.06794042706798736,
          -0.1698582037460994,
          -0.16006898735198455,
          0.16192040751498052,
          0.04712182231202346,
          -0.11929448530346315,
          -0.15457392076593973,
          0.2928957084677407,
          -0.521324687806574,
          0.0904634885003731,
          -0.13450273801862825,
          -0.25477092897055453,
          0.07073112783593484,
          0.0782421538192077,
          0.14623790195819558,
          0.20730379904335228,
          0.13849670571335074,
          0.06254195811500707,
          -0.08477098725493562,
          0.04313409643847635,
          0.3356564048969097,
          0.1251642441973519,
          -0.02110246280923054,
          -0.11565021233781073,
          0.04554829959145716,
          -0.03275846454079076,
          0.09335464400711822,
          0.016376883613983113,
          0.10239477890581676,
          0.08676880701316314,
          -0.12624597271679466,
          0.07375098529569608,
          -0.15219452639752246,
          0.09329268154231195,
          0.21676767192629076,
          0.07621262380244584,
          -0.16305555283242967,
          -0.09511944374627107,
          -0.1343953617781277,
          -0.01601791047611975,
          -0.053082373710393926,
          -0.1274445631814579,
          0.22188500684065407,
          -0.23360158556143823,
          -0.20305559404019802,
          -0.21031761317894945,
          -0.14296884757262168,
          -0.11281717421647124
        ],
        [
          -0.14111177870365413,
          -0.03368920083855705,
          0.03639531030759874,
          0.11605805224648208,
          0.106934668555901,
          0.18398173369103338,
          -0.06762635172762718,
          0.13823058650264147,
          -0.12208698556758309,
          -0.08765173788384963,
          -0.06920858220982552,
          0.3563573810022125,
          0.1684248692359967,
          0.057320306946176174,
          -0.24704190599476777,
          -0.10612526794560448,
          -0.14250089462512186,
          0.0026572685285251073,
          0.05262504566302827,
          0.09950285825777815,
          0.00262118005628386,
          0.1312537479220241,
          0.06391506124801774,
          0.1880519385809233,
          0.2730159092164089,
          -0.1925911100889461,
          0.12348805408779936,
          0.07336494270148732,
          -0.04890474729570317,
          -0.005035824078454079,
          -0.04324189770322539,
          -0.2616242213241657,
          0.16503682201803976,
          -0.4613348995789837,
          -0.08343517368447928,
          -0.11265392484944015,
          0.2634116495635359,
          0.03695826624702261,
          0.1976374076675075,
          0.020054843778267824,
          -0.1924407845146679,
          -0.0792543298062233,
          -0.023958751896089304,
          0.17028718220815584,
          0.017457957748679573,
          -0.2682473862327886,
          -0.03801231767152939,
          0.19752567962727383,
          -0.13623883331723063,
          -0.2693424929977303,
          0.15638082475050932,
          -0.27780199286330154,
          0.006026377732510339,
          0.23943210941209112,
          0.14123179272986772,
          0.21213252179355202,
          -0.07226921071661681,
          0.05839994856447092,
          0.004808915871954983,
          -0.058535325766279525,
          0.17551332575478812,
          0.14712009186597758,
          -0.044195032021301414,
          0.021048665009330468,
          0.248270498422527,
          0.08771209929751357,
          0.18348233088037474,
          -0.02019994081344611,
          -0.3342548998399159,
          -0.10754283958969732,
          0.05257265906898366,
          0.05510555085216643,
          0.13923444376537422,
          -0.03203228872909175,
          0.1058681719270602,
          -0.24052449925176797,
          -0.016255302905987357,
          0.1627291613395213,
          0.18294380520678463,
          0.11769684268454142
        ],
        [
          0.11024897599002202,
          -0.07538516780991418,
          -0.06614813277037745,
          0.10380761538815636,
          -0.08598853760891961,
          -0.020364070624549837,
          0.27343394253583087,
          -0.056077992929084004,
          -0.17966454784054695,
          -0.21444538619868006,
          -0.08973684787118937,
          0.03999258604206103,
          0.2067110462249723,
          7.426411182338568e-05,
          0.16352113459326953,
          0.015399154559275787,
          0.23686641520286603,
          0.0008384870654666732,
          0.06929874358861268,
          -0.1447963354571313,
          -0.01595763912743262,
          0.01633488324078443,
          0.026065347061464798,
          -0.010373036671945904,
          0.04626738459880573,
          0.16088251917374086,
          -0.018689174383468073,
          -0.08092233139594855,
          0.15097995922492705,
          -0.08192730895739249,
          0.0557911179678175,
          -0.04314370370922556,
          0.19465345979297102,
          -0.030717511730415748,
          0.013727127485501492,
          -0.031766400683014666,
          0.055614949261244516,
          -0.22531360647922183,
          -0.05542728001521259,
          -0.1868114499486665,
          -0.07959015907248693,
          0.20772874144881956,
          0.08206697982032173,
          -0.05321209901158199,
          -0.004428768999333309,
          0.027171632455692173,
          0.07870414525905634,
          0.20498175922052622,
          0.1469730577806062,
          0.12621018184460137,
          0.10780475822197133,
          0.28861074823954347,
          0.057816624870657,
          0.0681911904282728,
          0.16591270976935843,
          0.07965760451355249,
          0.09930420232109456,
          0.2325990260757194,
          -0.027800518862651273,
          -0.07517758869495494,
          0.04393930910926226,
          -0.023778633491694703,
          -0.0342354921680775,
          0.08596127732806162,
          0.245588865065464,
          0.21496542734778076,
          0.04213420813086436,
          0.11599144993824045,
          -0.1273155612841561,
          0.021698048778547464,
          0.1581295618911119,
          0.08630200042273084,
          0.04113052695803734,
          -0.04043490086928775,
          0.03217184710770939,
          0.24938518589811326,
          -0.008081361526852461,
          0.31643917770949054,
          0.051142877461324114,
          0.1391338776175136
        ],
        [
          -0.05750395127050677,
          0.0358360807888405,
          -0.2247008437626752,
          0.12795750552636148,
          -0.056601610806586225,
          0.024109834773387375,
          -0.026786471916188916,
          0.014538199501452149,
          0.11296743866520582,
          0.12730985020729296,
          -0.32221635345306215,
          -0.18827141521802737,
          0.23002745335241317,
          0.028816250362181293,
          -0.037320717942621436,
          0.1592265204177709,
          0.14431175010075206,
          0.016000239383440588,
          -0.16294757517442524,
          -0.08594181953719707,
          -0.1972577892684601,
          -0.26142245610243586,
          0.014516552878105318,
          0.09339526496226873,
          0.02925515302147386,
          0.02970748723033696,
          0.10994730461588251,
          -0.03124854910309397,
          0.11295854989682261,
          0.16093561342650495,
          -0.03230536484363724,
          0.0776340521803672,
          0.036685259577882635,
          0.20487616164332847,
          0.0540385771680774,
          -0.39136556871511796,
          -0.10246656018451998,
          0.07103547224876672,
          -0.11954143959469193,
          -0.03720497056649194,
          -0.1696356572935914,
          0.09408666934631196,
          -0.07150159575479446,
          0.06599083673830534,
          0.004557063802906336,
          0.08960080089620746,
          -0.12332932481206314,
          0.025998246518628376,
          0.23498949457413104,
          -0.02465895740258918,
          -0.007866691622228344,
          0.1243464619970312,
          -0.08350832583455547,
          0.15210173022923432,
          0.13961074300097992,
          -9.617182114343036e-05,
          0.1878123345166124,
          -0.15132851684910167,
          -0.09817108491658026,
          -0.11730526307639784,
          -0.04550876848620218,
          -0.39332362279545763,
          0.05660592416729064,
          -0.0936079131380257,
          0.0554951223559095,
          0.13882542832931885,
          0.13037976264477974,
          -0.13285328680574765,
          0.03911076022103352,
          -0.21222394930314623,
          0.3106771060316382,
          -0.1770868814684305,
          -0.28112839976240417,
          0.05758273508086069,
          -0.02732799907188311,
          0.044795774133376556,
          -0.007648709653120621,
          0.07077713621995879,
          0.09612230469224438,
          -0.13062745264084497
        ],
        [
          -0.07683170196287845,
          0.20458619388256105,
          -0.014854406148021195,
          -0.025744810805050332,
          0.06706312895856303,
          -0.08701354143665604,
          -0.01619585684903933,
          -0.3130371936660329,
          -0.061791888696866686,
          0.11037318894376281,
          -0.389936606288755,
          0.12691052035576258,
          0.3063945535372828,
          0.07139822757558445,
          -0.1934375719641835,
          -0.08242082293369714,
          -0.21134804915234404,
          -0.0897449832135827,
          -0.15835137459819393,
          0.14607345457726353,
          -0.4460904255049024,
          -0.13947871518682087,
          -0.010876901452597915,
          -0.0775420386842852,
          -0.03668134330258881,
          0.09640346950189213,
          0.15170818564713698,
          -0.04633018972974863,
          -0.03422950923294574,
          -0.07379323594924286,
          -0.11307338518157206,
          -0.12854176049733507,
          -0.11938349709919918,
          0.013724201175960687,
          -0.2060503350186381,
          0.062473938592980185,
          -0.055912575062869126,
          0.0031974005132543375,
          0.019860649602568902,
          -0.18205717759033527,
          -0.2935220173378208,
          -0.08654026976366544,
          -0.4771227446041496,
          -0.14239910027261862,
          0.268017306314477,
          0.0977763137524572,
          -0.41553128220532487,
          -0.15619844833091712,
          -0.07918652180420258,
          -0.12814448494010705,
          -0.0009793510436315583,
          0.014091129979896913,
          -0.1495176344332854,
          -0.19689987866893807,
          -0.2657459779163288,
          0.13970378482902016,
          0.383296151487172,
          0.1393258089563507,
          0.07988890974246343,
          -0.1499431674485159,
          -0.009375931994431758,
          0.051717131303164486,
          0.2755717816193603,
          0.1899578078965726,
          -0.011046613977239682,
          -0.2158564624579771,
          -0.10000284363075573,
          -0.058192937769019466,
          -0.308295321273641,
          0.08204742255242575,
          -0.1818575767365432,
          0.08005714689862907,
          -0.20594388982540188,
          -0.2635757707700371,
          0.11697271831272284,
          -0.11116347051001949,
          -0.16480091604910507,
          -0.32198873729094496,
          -0.014123184545120886,
          0.19042608043841727
        ],
        [
          0.008897380319802643,
          -0.025671913639143645,
          -0.16950775356651052,
          -0.10648387274396229,
          0.08665136853712613,
          -0.10394892540353041,
          0.12492742198576201,
          -0.06841100378324015,
          0.06992471595171473,
          0.0967554505626744,
          -0.2557129208170527,
          0.0493688632829654,
          0.039252239838182906,
          -0.017096227038022892,
          0.0783634350933309,
          -0.0355739763117025,
          -0.1559044438372351,
          -0.3059026052910723,
          0.08320118316358699,
          -0.22470973764508148,
          -0.06574150550516608,
          -0.07635485319182406,
          0.0021107713738602115,
          -0.020646138113266137,
          0.19498780799471735,
          -0.31719033090159676,
          -0.08222948813426785,
          0.040723237139994366,
          -0.038256009813833494,
          -0.1989202277380719,
          -0.15660234939588746,
          -0.10965802114469757,
          -0.12108196776257303,
          0.246336574749943,
          0.369393054439586,
          -0.027720608647688605,
          -0.07868004111536435,
          0.05715428373206182,
          0.0762441805811498,
          0.03733721421671782,
          -0.3875888510128258,
          -0.06059442754742414,
          -0.016494159878510956,
          0.00035834093760170755,
          0.24590866925700028,
          -0.04336221313939067,
          -0.054996215987447014,
          -0.1615339724279085,
          -0.09920481991061546,
          0.09403563323495409,
          0.4033921927173286,
          -0.17135278978950566,
          -0.06544999307024323,
          -0.1519395654209785,
          0.15151684772591567,
          -0.11980488339003117,
          -0.023577840765093852,
          -0.006369006674212591,
          -0.01599315882541022,
          0.0061333597548195555,
          -0.04158291317016079,
          0.031511743129479734,
          0.019186584872561935,
          -0.025773417003455,
          -0.05800023869358324,
          -0.07942987665648138,
          -0.012861960009257354,
          -0.3253475498583481,
          -0.26385844423563276,
          0.11598288056532406,
          -0.2972499801590282,
          0.32263013339694757,
          -0.03705979433916906,
          -0.08787772260831543,
          -0.1919109835897344,
          0.04975055160593507,
          -0.16624910269356602,
          0.20243699635530096,
          0.0685359215592443,
          -0.12922115106372536
        ],
        [
          0.025215341791600572,
          0.08954692426078129,
          -0.042990037062142245,
          -0.2183947471491113,
          0.44418328276970553,
          0.007198798274508762,
          -0.04512073920712259,
          0.2420517001992934,
          0.21112682066100444,
          0.14758831509854056,
          0.13522252304520113,
          0.19907758395270542,
          -0.004122303590595599,
          -0.02840677410446689,
          -0.3088952968210325,
          -0.12414787395549003,
          -0.06625945614211876,
          0.05054859280817467,
          0.13319661699578808,
          0.007829634609543234,
          0.10515759475458761,
          0.2845637462020382,
          -0.023022137119771954,
          -0.15665575769387452,
          0.23002053755765967,
          0.09077991348292429,
          0.042018175995842934,
          -0.17447860652451516,
          0.10611534365903734,
          0.07205364830788852,
          0.0846793397923737,
          0.2662487330313145,
          -0.13813274032881878,
          0.08393876094558869,
          0.11053971425277594,
          -0.042068895400125386,
          -0.08207101265677459,
          0.18985632682039943,
          -0.33321139287385654,
          -0.013214362540643806,
          0.09001519329547852,
          -0.08416605993036319,
          0.21864531908542362,
          0.03938015397458987,
          0.08721802692008421,
          -0.12020795717005227,
          -0.19655063926947514,
          -0.11288475350611121,
          -0.2233882413446958,
          -0.07044307533329959,
          -0.23100526577781788,
          -0.1805398104683912,
          -0.030824258639986054,
          -0.03313876092809652,
          0.04293289949808085,
          -0.01440624044872682,
          -0.04313851342017916,
          -0.16959482763433623,
          0.20147215256347573,
          -0.10074371128507267,
          -0.18483503077568286,
          -0.06457847593788396,
          0.1760261630851222,
          -0.10871396325625136,
          -0.1458224040453481,
          0.025667585247686916,
          -0.20157278028365186,
          -0.3638951256455692,
          0.06082306703150836,
          -0.06305066075915014,
          0.2755706095172339,
          0.1934557712210862,
          0.23570092031246345,
          -0.06279640585336475,
          0.14720162645262594,
          0.08759954617689786,
          -0.06799665546148995,
          0.08770433593821747,
          -0.0057903422340798445,
          0.16312018697207628
        ],
        [
          0.015490377827378742,
          -0.0562349483128214,
          0.0671385794389466,
          -0.026240546099973384,
          0.19290745135060852,
          -0.04163574095901181,
          -0.24041620317152937,
          -0.11160764283591748,
          -0.10454194226490987,
          -0.022922540901407537,
          -0.02059378896997991,
          -0.24812663203250365,
          -0.1485160292161702,
          -0.012079635683241979,
          0.2076320309501449,
          0.19986378016040302,
          -0.015448105957996262,
          -0.04157987337288229,
          0.09345964941199662,
          0.16865816156588542,
          0.0404941326875798,
          -0.12050097276801444,
          -0.16336637316388974,
          0.0075617088111368325,
          0.16545622278858607,
          -0.2788507445452475,
          -0.1612777169333266,
          -0.14798362431179565,
          0.1978941644050984,
          0.031088999013655298,
          0.09533199567644982,
          0.08698068907317365,
          0.30187178622972255,
          -0.11128233775961048,
          0.053581667622533795,
          0.01058413306739516,
          0.08324810808456312,
          0.07061650428487613,
          -0.19003544639816353,
          -0.043707098749866814,
          0.005408754003343124,
          -0.05148795561733614,
          0.04358838148184667,
          -0.11494133105488026,
          0.13736695358774312,
          -0.07763898285349233,
          -0.2897639843676193,
          0.043550029978500625,
          -0.37165859108332294,
          0.11708344493196883,
          0.21550481299950613,
          -0.1351682264762377,
          0.037760796290938564,
          -0.10960586194330146,
          0.10256609773861469,
          0.16979348604694403,
          0.03582012915733813,
          0.02783919465467341,
          0.03727356520694457,
          0.07824885885079863,
          0.05986184435079284,
          0.09802842238038326,
          -0.1869007038887881,
          0.1153131697196493,
          -0.08578011324833845,
          0.06874192180656796,
          0.11928523564621737,
          -0.3086544374930539,
          0.005610582638520012,
          0.15374462999191107,
          0.11713072788460717,
          -0.02008426577195597,
          0.21731011819875481,
          0.08107914421061709,
          0.015518674574964584,
          0.09180913727959944,
          0.18629644832993944,
          -0.016780879556489197,
          -0.154323255292203,
          -0.11988724726382517
        ],
        [
          0.02411684056386726,
          0.13908619170936046,
          -0.04637017337854167,
          -0.19591278730571554,
          0.12323755784829019,
          0.025589715356758365,
          -0.012825263401885409,
          -0.06704561896019687,
          -0.11452453747886253,
          0.056675660478742784,
          -0.04259759095750935,
          0.20111926694117718,
          -0.02884399561812955,
          0.10539696239185611,
          -0.1620480164658532,
          -0.06720143915285562,
          -0.2183465735550017,
          0.020568846137518425,
          -0.18888700034780434,
          0.03624828508895141,
          -0.15118933856426728,
          -0.038475290358353585,
          -0.21988801568523522,
          -0.10811040013384793,
          0.036857276121628056,
          0.03480672988835837,
          0.18721155200415365,
          -0.14201654813258097,
          0.1535107929503399,
          -0.113377519710631,
          0.2673961577997265,
          0.03341192840277615,
          -0.13704087632118947,
          0.056938542351670965,
          -0.14361025915986583,
          0.13488946307263108,
          -0.019783177546821587,
          0.087573083041387,
          0.0767197727364446,
          0.19880694477172126,
          0.31983168685515634,
          -0.11316969591327403,
          0.42423737314720655,
          -0.05733716487091524,
          -0.028113200851099578,
          -0.12916251832529066,
          0.1471913624999632,
          0.0779589465081337,
          0.1904231565356123,
          -0.3029724439140838,
          -0.4044339139472635,
          0.08516325716512706,
          0.004847731048266673,
          0.14000383097968203,
          0.016154141211894527,
          -0.11786307367120621,
          -0.22716104603678466,
          0.02195106738823681,
          0.10998986806297853,
          0.14451876101005814,
          -0.05616858826253022,
          0.06900372845370023,
          -0.026219537089456693,
          -0.1755975014049766,
          -0.1495175619550594,
          0.31359042732291553,
          0.08444022083872459,
          -0.09972723061737451,
          0.34428847296076426,
          -0.05803936241409472,
          -0.11598165684754697,
          -0.12107580907519634,
          0.002715156054003093,
          -0.15305874743645528,
          0.1468536535030854,
          -0.2017303161035444,
          0.19047819276601888,
          0.029367428041429795,
          0.07235435470395489,
          -0.00896544836093173
        ],
        [
          -0.002554917123446528,
          -0.15010813671466705,
          -0.14405780935654888,
          -0.09409173149209261,
          0.2104845293100717,
          0.10707586180453632,
          0.19513478613457708,
          -0.035116488260705694,
          0.11549893428972809,
          -0.006484206139434,
          0.19800429554848148,
          -0.03551043866918948,
          0.12769073403839987,
          -0.09933068098262242,
          -0.1936220307716059,
          0.01044108387700777,
          -0.07361470278819882,
          0.17708744196291598,
          -0.11931240039234975,
          -0.1451868746588112,
          -0.033878579497924784,
          0.14791109853484202,
          -0.05575388013958787,
          0.011925106499565517,
          0.08056636750906081,
          0.1285043718926844,
          -0.1888595921503356,
          -0.09025964907604145,
          0.019855378241751112,
          0.007448339418829508,
          0.07141241915167791,
          0.04639107667368743,
          -0.10107966170424919,
          -0.011884568177226464,
          -0.14627188009847059,
          0.2946975950014314,
          0.08202849392279869,
          -0.19278950007176046,
          -0.17818416542774654,
          -0.018950605271753438,
          0.01664087505364658,
          -0.20731885786526916,
          -0.043414403164513435,
          0.03661805825504428,
          0.1510061745995277,
          -0.03974076229473358,
          0.3318304228389098,
          0.1380680431189728,
          -0.24837723411652687,
          -0.19889665856342315,
          0.11135989486228696,
          0.05909093722237989,
          -0.004484292513487155,
          -0.07362363678409259,
          -0.12712206756440483,
          0.05415862833132608,
          0.24863221195594137,
          -0.15563015271838324,
          0.10947414443541933,
          0.143812751989871,
          -0.288077907084141,
          0.09285665474811898,
          0.2681155672483314,
          0.03174819763205953,
          -0.23663908128037808,
          -0.033147162753581094,
          0.2541268004104864,
          -0.1378171407460884,
          -0.10954970878383562,
          0.16261539471572656,
          0.07288571982822133,
          0.12241960793325081,
          0.07937705385045708,
          0.02569297908052401,
          -0.0866380513279154,
          0.22459508530597852,
          0.09240984857654247,
          -0.28182208770695727,
          -0.011289806892278641,
          -0.018442433974110654
        ],
        [
          -0.007931970337781724,
          -0.05539046719577422,
          -0.07906834927005832,
          -0.025824128458907452,
          -0.2079021861122922,
          -0.3133727453695932,
          -0.2875303250773398,
          0.20374195891254035,
          -0.12373105970079955,
          -0.11889288224605196,
          0.275587232793984,
          0.02018805088141063,
          -0.022137643175010407,
          0.2192152540058106,
          0.18504242986618202,
          -0.15810596510963978,
          -0.04997325605972926,
          -0.1129955817357085,
          -0.1312284268918141,
          0.05486343032371198,
          0.02175793882556825,
          0.28834110708399396,
          0.2147950379901694,
          -0.11148207806854481,
          -0.2010383898760393,
          -0.16685658943488627,
          -0.048811020017122224,
          -0.040306667857945185,
          0.11934339025716041,
          0.08276154719522938,
          -0.0523546080124962,
          0.18044954744508532,
          0.08179631047475364,
          -0.20722235989856322,
          -0.1453411757315385,
          0.1689023812181498,
          0.21602079323213683,
          -0.07529413274356084,
          -0.16821979460291567,
          0.04416680011458717,
          0.039332942363656934,
          -0.05471976911648344,
          -0.038511810909318545,
          0.05280799505492408,
          -0.14464588676578083,
          0.009938745647418992,
          -0.05299728245753102,
          0.05886651534345014,
          -0.16133428954569834,
          -0.22254754823372536,
          0.021207032164429533,
          -0.12083910743901245,
          -0.036501325897356336,
          -0.22462733472571197,
          0.029202797926773834,
          0.056511926864175714,
          -0.09058026724744005,
          0.15253642328948133,
          -0.00012185368456803286,
          0.06271569830670481,
          -0.1232798532602257,
          0.07743777634036765,
          0.009588256500044997,
          -0.2160653472510821,
          -0.21597603669851592,
          0.23539233108585517,
          0.1624865216229649,
          -0.3604734786274839,
          -0.12864851235223818,
          0.11484187969608402,
          0.26802004834084847,
          0.08947168108591476,
          0.07932810765473039,
          -0.059456467602424165,
          -0.07832889240985634,
          -0.1740758993998858,
          -0.03466607555634381,
          0.04517317031173891,
          0.04661315956335241,
          0.152643354173416
        ],
        [
          0.04814447056498626,
          -0.03915288078121239,
          -0.046352841998257184,
          0.14119998586326463,
          -0.09902590863032543,
          -0.12110631520680648,
          0.02307048171802005,
          -0.0019432775054225768,
          0.15584767303040245,
          -0.19599392467445234,
          -0.092480386929693,
          -0.09067901464199679,
          0.051454051607349324,
          -0.04477010869915535,
          0.1758127466675987,
          -0.11966037359663549,
          0.26845326917467593,
          -0.16204224832949923,
          -0.12230763998879901,
          -0.1924142084473059,
          0.23760710184385805,
          -0.1118314119180313,
          -0.15274590758713696,
          -0.007184766417709038,
          0.23749819563740723,
          -0.04761350061728351,
          0.06719437832090625,
          0.12062293789923884,
          0.14717717782174294,
          0.10478210764782382,
          -0.07022853685130874,
          0.03083358553838822,
          0.20577767844005854,
          0.18915253545516492,
          0.11999940961728102,
          0.3358056217432242,
          0.03034338715598267,
          0.07311757126434382,
          -0.04695623218553482,
          0.254812434352454,
          -0.04067503260567509,
          -0.0047872849044577155,
          0.04106256042610963,
          0.1925122220935543,
          -0.25762364722687103,
          -0.13747077761961757,
          -0.17990355903836494,
          -0.24001188939551568,
          0.05258683133117635,
          -0.36818220641248345,
          -0.05576586417310694,
          -0.015927190069054933,
          0.1618978283789111,
          0.12810249679496405,
          -0.041414995705895866,
          -0.10149398542295757,
          -0.030533633763532284,
          0.1972001883491252,
          0.3378310263979079,
          -0.020220334344193548,
          0.06531544958050223,
          0.09675521458927638,
          -0.25733953150387623,
          -0.06036036736270529,
          -0.22066480739331742,
          0.012368794676989397,
          -0.16690416372130826,
          0.1584516731571222,
          0.1471571267100114,
          -0.14058895492560947,
          -0.08431212807854856,
          0.10911066922027116,
          -0.008032314418458246,
          -0.11146614031955242,
          0.1663373235882174,
          -0.08649168177797588,
          0.22497978666577578,
          0.09092415807062308,
          0.04284031779356456,
          -0.01653000286293288
        ],
        [
          -0.08172820430257692,
          0.2008373065078823,
          0.00022446841428485866,
          -0.24901466027552316,
          0.21954695381308828,
          -0.0825183637003578,
          0.18697842661403621,
          -0.18933523753516798,
          0.14843107006053566,
          -0.08397457166716867,
          0.20718041539930718,
          0.21517206475818534,
          -0.09456301563405295,
          0.106044712279807,
          -0.03166430446579191,
          -0.12216578676925433,
          0.10226704713987775,
          -0.0767494702917736,
          0.1054869768741837,
          -0.004765519827143098,
          -0.04306238974301033,
          -0.19613949050824317,
          0.04935022895169165,
          -0.09553722306019781,
          0.1628750906993901,
          -0.04383017692463546,
          -0.10276192098673556,
          -0.1499163317435006,
          0.0799296500537056,
          -0.020724968880306404,
          0.08663699204226037,
          0.17227938470671855,
          -0.2652445999505732,
          0.061930528965074255,
          0.044781122115085406,
          -0.12122995120985186,
          0.08132370880228462,
          -0.012522701931809904,
          0.06436228397681101,
          -0.24259712450352333,
          -0.26742983933918446,
          0.20343214857438405,
          -0.21337222878873832,
          -0.03164240812529118,
          0.36361491043286753,
          0.09687971892240294,
          0.0906479602079144,
          -0.12161037796031117,
          0.0549644103484242,
          0.043624480815090544,
          0.07154856868742969,
          0.06733458936809872,
          0.15539053302389613,
          0.01482136385621177,
          -0.20024218608892475,
          0.003872464754300031,
          -0.05785889895155968,
          -0.20122315400535654,
          0.02444668920147041,
          -0.007865505511854737,
          0.31657918224237935,
          0.30782752578404693,
          0.19725941153649354,
          0.17719056963405613,
          -0.299359986220993,
          -0.23057839852732387,
          -0.05502819747193601,
          -0.5169735196220625,
          0.048157391064569004,
          -0.13228767640597722,
          0.06651627650976598,
          -0.01840721694215404,
          -0.19271996024852944,
          0.10784406490627158,
          0.15398741834202848,
          -0.060989515394575776,
          -0.025896364590861903,
          -0.04246713087396813,
          -0.1181395716287539,
          0.18794608858196604
        ],
        [
          -0.007225978584076362,
          -0.21108448175153463,
          -0.16558301393662617,
          0.21805712360129947,
          0.2442296076741034,
          0.3684748707493653,
          0.12701278802965568,
          0.017203051463802792,
          0.05650507174389457,
          -0.12008534638629842,
          0.15291346401126502,
          0.002796228821119979,
          0.0592512585962733,
          0.34422690991887306,
          -0.05185498500716126,
          0.01813027524964653,
          -0.13857726085999358,
          0.0408837065651366,
          -0.13920548053676285,
          0.11733437690930655,
          -0.27420851460934587,
          0.10125710825351951,
          -0.1800417409799049,
          0.18731067372536864,
          -0.2861002635742455,
          -0.1296792781401029,
          -0.037757972872185186,
          -0.17326967225623843,
          0.054777908247582156,
          -0.127887111991837,
          -0.08506279792951167,
          -0.2576597213146794,
          0.1172493648925639,
          0.11848671861071784,
          -0.1667553960997485,
          0.09457051852145791,
          0.22445629060534186,
          -0.15723663022941917,
          0.382903134433976,
          -0.051999274065843364,
          0.1180306663803615,
          0.1224633399420375,
          0.07805497402797729,
          0.1186691265955313,
          0.05491117039946854,
          -0.04286194536053438,
          0.21901978070215913,
          -0.03244616810434813,
          0.23292242545875003,
          -0.07847972940871913,
          -0.10253413465103177,
          0.027973178152375124,
          -0.009947715548365451,
          0.0490240493334956,
          0.12893742455589186,
          -0.006321724809712344,
          0.053638937406834584,
          -0.10970769008780619,
          -0.1146348697865337,
          -0.1549356728984364,
          0.3112332768818833,
          -0.22307775220888726,
          0.11161443181832877,
          0.31183897080858275,
          0.34917636348576725,
          -0.07446442723810591,
          0.04648556411213856,
          -0.0293507432683572,
          0.32844242756959735,
          0.012980066337023425,
          -0.057842111002899634,
          -0.11852813004503397,
          0.034696803386262874,
          -0.19592220897157178,
          0.031657209432833754,
          -0.2343821361691118,
          -0.01822599982057616,
          -0.17109797070043828,
          -0.3375863945092279,
          0.08830702970432307
        ],
        [
          0.25705806388126723,
          -0.22833946648906905,
          -0.01428190837596031,
          -0.2503445182818164,
          0.1272745587062612,
          -0.13047059171764333,
          0.1732903933422026,
          -0.022464302534458892,
          -0.006538753667124313,
          0.04128535828225579,
          0.061649236386646065,
          0.4563617667177924,
          -0.11749518508871427,
          0.15073986184640586,
          0.25286788552254813,
          -0.055826638891609326,
          -0.05140627953545715,
          0.04967115705603021,
          0.21061546543150517,
          -0.15500241461619457,
          0.18859711324144304,
          0.22207699021295324,
          -0.035352080995683766,
          0.13706716701259739,
          -0.05978009653801527,
          0.22430716332386363,
          -0.05428467551520348,
          0.00893705249997561,
          -0.016061091580575483,
          0.021263292856103806,
          0.09670444553143466,
          0.3014774902039451,
          -0.004734150685972473,
          -0.15660796481799572,
          -0.26390938535638825,
          0.22707335368165277,
          0.10419939185451421,
          -0.030320506569064296,
          -0.05500292883881044,
          0.102681643822994,
          0.10286556306223187,
          -0.05416282263761165,
          0.046688218147847786,
          -0.04128764217976951,
          -0.030056058632242318,
          -0.004150438227201987,
          0.060794662306972176,
          -0.10569171186096318,
          0.06769346431818228,
          0.08985917833667553,
          -0.11701103112442057,
          0.14956018413381866,
          0.0645384494299026,
          0.044668379033005454,
          0.11032459596278604,
          -0.07980965465584072,
          -0.11170563326228669,
          -0.3275645497987678,
          -0.08887231143364627,
          0.07915637008457066,
          0.04421450155108856,
          -0.10217839495759896,
          0.03497060625153088,
          0.14525535035142,
          0.08884614735736804,
          0.1636649541158333,
          -0.006492781255537265,
          -0.05688632113584064,
          0.07477686634128962,
          0.00835686427078952,
          0.41401118846224116,
          -0.13729407447846892,
          -0.08764314296169858,
          0.04959454141463589,
          0.08229990622971206,
          -0.032389396616540306,
          -0.04502845327419615,
          0.02071153201077074,
          0.11654073086224215,
          -0.06377400793069783
        ],
        [
          -0.10504828416180964,
          -0.11156195870288221,
          -0.013456175057655936,
          -0.16380039760371867,
          0.21417277657467412,
          -0.04232164010397076,
          0.014248964655753147,
          0.016544613714902144,
          -0.05315132328329254,
          -0.03753822938960162,
          0.05377474725406117,
          -0.1610590640895793,
          -0.10754614664003063,
          -0.04014151697307729,
          0.11421650638433495,
          0.03493091712961906,
          0.11099065519241043,
          0.057896555591373605,
          -0.15499023743929374,
          -0.015052357262645632,
          -0.2725908087720583,
          0.09454406099030944,
          -0.11728617560630072,
          0.08371889205593644,
          -0.20519571259674138,
          0.23649363773209747,
          -0.11717448070708845,
          0.005534684540835549,
          -0.12099428265830052,
          0.1308240030796515,
          -0.029048189574808356,
          -0.06974659745070406,
          -0.15320040072862012,
          -0.04045401638983539,
          -0.028691876466023277,
          0.16036251344066377,
          -0.08174435894414295,
          0.17654397817946807,
          0.14536503040443247,
          0.3475375488040534,
          0.040646105051704115,
          -0.2660397854101112,
          -0.12385932404258468,
          0.015594825183462467,
          0.16408804567241536,
          -0.0015274089546062103,
          -0.17350746046534374,
          -0.2566801869005488,
          -0.2158987650045397,
          0.18627782268146983,
          -0.050430928549427954,
          0.19999744300426772,
          -0.0015939276102753753,
          0.042783740406141406,
          -0.047628676714764014,
          -0.21459974834173975,
          -0.0547952609963491,
          -0.2605713991348529,
          0.052536338522404635,
          0.10531226308538101,
          0.04857201377021507,
          -0.3217924241272446,
          -0.0635394473489593,
          -0.12362144313751604,
          0.22201967224524014,
          -0.014355076842351279,
          0.1868218520122655,
          0.23711573493820132,
          0.29313456518305764,
          -0.3243611977266724,
          -0.06493574224491502,
          -0.3151106222651516,
          0.0508649904428136,
          -0.14058016288429692,
          -0.260544775649276,
          -0.019484459062748677,
          0.1432767651961537,
          -0.01967809899704789,
          0.02364422116929519,
          0.09448834287818027
        ],
        [
          -0.1813422433836474,
          0.015332592498672125,
          0.09809256107275202,
          -0.15671461306153997,
          -0.2562425423697392,
          0.13791047619921554,
          -0.034318786674284736,
          -0.1315595310040851,
          0.1489010925766071,
          0.3302626016064582,
          -0.15038956683549995,
          0.10332019485565662,
          0.20901649389632318,
          0.12970158878031615,
          0.05611527791935169,
          -0.018523242065540534,
          0.024003904690810984,
          -0.313959050746093,
          0.012502208882562708,
          0.001605932189528022,
          -0.022541324653587363,
          0.15479082234911656,
          0.05452121976938817,
          -0.10247768278930226,
          -0.1556749271002741,
          -0.027442191851922978,
          -0.010846514951570015,
          0.1159252305164937,
          -0.1932607610629602,
          -0.13592926189843335,
          -0.1458023863029671,
          -0.056697605469791294,
          -0.13556074018334366,
          0.2594714300511417,
          -0.10286879927974064,
          0.21571775251669634,
          0.0038085251475664787,
          0.061876375426200614,
          0.07832719841694216,
          0.08906248560830471,
          -0.08880246977434018,
          -0.06352101058325305,
          0.0020544225237281305,
          -0.0650327199318252,
          -0.016601471215415303,
          -0.045204662426363965,
          0.20773053859342008,
          -0.28111001381224804,
          0.0428086635928107,
          0.038388334517331583,
          0.04045025528600245,
          0.13259138832206793,
          0.04080084206529655,
          -0.10577541328330875,
          -0.014820286050614138,
          0.036801457938622106,
          0.2617419944969208,
          0.15021844381643853,
          -0.054554437732089546,
          -0.23076647370702275,
          -0.06644332382493259,
          -0.23699179839548162,
          -0.028395472688962666,
          -0.01659946530336357,
          0.21659092898503554,
          -0.08834425779054224,
          0.0018346732323127688,
          0.1959832094629391,
          0.16909733338541474,
          -0.07607998715990567,
          -0.4734278978032621,
          0.01101757513969335,
          -0.01815774051875844,
          -0.16230014068641194,
          0.06624735380105591,
          -0.24065057850218458,
          -0.30407189077978214,
          0.0031193681532469095,
          -0.3065522596106306,
          -0.06553034915080029
        ],
        [
          -0.09029838385702645,
          -0.15282949497421042,
          -0.07215151648067118,
          0.03463850966831844,
          -0.11957184662117248,
          0.08135483079875494,
          -0.08145956704588075,
          -0.05253379093134964,
          0.0504592206359559,
          -0.12731926888785028,
          0.2394621089535454,
          0.1019450438379782,
          0.13457853882265067,
          0.1285359616320228,
          -0.06662206059035986,
          0.030118107659984027,
          0.0929730112499125,
          -0.22445095277849547,
          -0.009892951462534775,
          -0.05552510345229976,
          0.025740067210701614,
          -0.07677854849420493,
          -0.19517912062877937,
          0.15705823302182725,
          0.2122416700076162,
          0.1467629529581789,
          0.052958219369781595,
          0.025575626671915375,
          0.2081179575605491,
          0.08951374278830848,
          0.12371207537507704,
          0.2787375881466154,
          -0.13595959565965623,
          0.06345525870734738,
          0.028281286313520247,
          -0.125856536469431,
          -0.11749605166533687,
          0.02652877869960924,
          0.24400916118845734,
          -0.23933005613179156,
          0.2866595792623248,
          -0.032184637524387445,
          0.18198750755657198,
          -0.013651571004625527,
          0.14394014125009585,
          0.1791585038823681,
          0.24558515114460644,
          0.15405032013335448,
          -0.16661466925394144,
          -0.09732649960706474,
          -0.13183119555639566,
          -0.02083026468844577,
          0.05630971498666282,
          -0.25873855831276815,
          0.05041571561314073,
          -0.0679433556036524,
          -0.06569049556490815,
          -0.032703236909177466,
          0.014794936463780245,
          0.1416198515455867,
          0.2080451885514456,
          0.10357284416224338,
          -0.056412088479369134,
          0.026940752253172138,
          -0.019559019659567595,
          -0.13186147882434882,
          0.03394375550384953,
          -0.24872323867247256,
          0.15567345471007893,
          -0.19907564965645855,
          -0.06727949978349654,
          -0.03108383918335028,
          -0.12715025400526203,
          0.13068740672014506,
          -0.13606248108749114,
          0.019841706010622198,
          0.12143941350750777,
          -0.04311107532633876,
          -0.1842059957988901,
          -0.012555809519772908
        ],
        [
          -0.04955237937985827,
          -0.019539924883206987,
          -0.09669031246315475,
          -0.0495315542973164,
          0.4086002605365907,
          -0.17972912714759703,
          0.0753660300137805,
          -0.03918365154547278,
          -0.020612318786586023,
          0.04639277053617752,
          -0.22803488132541425,
          -0.11900378827522916,
          0.1325772106512125,
          0.17145050019461502,
          0.10345390298019719,
          -0.1242702314595894,
          0.06313629590557784,
          -0.1449847090894882,
          -0.12514070445502956,
          0.15173071636480734,
          0.08839069548300924,
          0.2992715802782774,
          0.009746608106975972,
          -0.324956832575625,
          0.2629651451113254,
          0.0438213861046985,
          0.09854688504453418,
          0.0725227563723997,
          -0.052722515401393534,
          0.12370895773766467,
          -0.04327742766696486,
          -0.06678093142462885,
          -0.16452148600106967,
          0.047756875088520404,
          -0.15715971362878375,
          0.34527425529394185,
          -0.053590408476118276,
          0.20193549478690828,
          0.08082485476715878,
          0.29270221266503654,
          -0.09306564320191624,
          0.011709146431519718,
          -0.14552289316476905,
          0.03296165043139924,
          -0.008934163962657346,
          0.03255127284944867,
          0.34070590144251284,
          0.008166950357268978,
          -0.24291906208788547,
          -0.2559179745895627,
          0.1463179882570646,
          0.07846065651857467,
          0.09905086227455723,
          0.16336219566769564,
          0.01634118393952622,
          0.07213209997870512,
          -0.10672101865983782,
          -0.13092155054397617,
          -0.10407442111454075,
          0.14621327770823767,
          -0.07438440384546753,
          -0.08542444637586513,
          0.03807575709720737,
          -0.19429631584519094,
          0.013401245124758897,
          0.3952493379431639,
          0.05898046240738811,
          0.003701211148818395,
          0.14493764469675124,
          -0.07894520356792059,
          0.3154693880943247,
          0.22074227275028277,
          0.015032863770068648,
          -0.06436351128890377,
          0.13498610610332468,
          0.025182174674700797,
          -0.177388423759913,
          -0.03807171079776913,
          0.03420385028344035,
          0.025932997233934555
        ],
        [
          -0.20966027647251237,
          0.04210560834312438,
          -0.04588538899616332,
          0.04800204639708967,
          -0.2781292170337502,
          0.525455864426051,
          -0.010035239479408044,
          -0.2755701428122855,
          -0.2871790190829598,
          0.032054910575493215,
          0.008368227718629702,
          -0.1094025204999458,
          0.08127122478699553,
          0.0856080444084426,
          0.012505228364716571,
          0.020900320762695074,
          0.10292165244504142,
          0.03979099679850362,
          0.06667778327567173,
          -0.25722438221362365,
          0.029539464149967318,
          0.19425125467335358,
          0.14304299475382826,
          -0.16036602714533757,
          -0.06481453640562028,
          0.18836910294113218,
          -0.09384780565798952,
          -0.07115373359682785,
          -0.1281232913126423,
          0.09319889759972803,
          -0.04725021235286681,
          0.20037868911537654,
          -0.09177997942619885,
          0.07399573199571866,
          -0.05046296192635664,
          0.15698897951956106,
          -0.024084171668375245,
          0.05180250503706814,
          0.12199047199599197,
          -0.3204817076274828,
          0.1676299547841531,
          -0.017293358989702433,
          -0.18705437502481942,
          0.08438155002445615,
          -0.0927293792736269,
          -0.2827928506349281,
          0.09686584907222627,
          0.2992617611570568,
          0.2774529326208196,
          0.08929491477002627,
          -0.07121979221633787,
          -0.15660673535278455,
          0.04137854194042697,
          -0.13124126172947806,
          -0.025880949020410115,
          -0.17103592910369286,
          -0.012005244387775548,
          0.26068112453142045,
          0.07154152271776004,
          -0.0480249240573098,
          -0.03550217092611652,
          0.1039749483839788,
          -0.11850652326929309,
          0.019686072394877407,
          -0.022978497448021398,
          -0.17364187146541793,
          0.3292068851714433,
          -0.13000663672357946,
          0.06293486962719042,
          -0.034082808113580665,
          -0.06655973042167794,
          -0.2559927803989303,
          -0.031125576090198632,
          0.04294542963071225,
          0.5133334760362763,
          0.02544522730719692,
          -0.2955723097942639,
          -0.3113502169620197,
          -0.005690825266679972,
          0.08387169488179981
        ],
        [
          0.06116731870544849,
          -0.14040973418344718,
          0.12750217036545744,
          0.03856457309549063,
          -0.3253386221403043,
          0.055556299132219454,
          -0.21120014798460435,
          -0.06285013033607219,
          0.0681141142834157,
          -0.1973683495070499,
          -0.1898613796486636,
          -0.08830210070627283,
          -0.09301296478824639,
          0.10466774721427197,
          0.026132079077773075,
          0.08267472245318795,
          -0.036059282460167236,
          0.20423833146696335,
          -0.03524078219866042,
          -0.3361115098889078,
          -0.04288802915315045,
          0.004560985811034958,
          0.002396805697868065,
          0.0466841911800748,
          -0.309695116093027,
          0.18328917073757178,
          -0.28441965111172735,
          -0.05128936892129187,
          0.1586669599207427,
          0.1563712967998817,
          -0.023389377305073462,
          0.14717296373500108,
