{
  "layers": [
    {
      "activation": 2,
      "biases": [
        -0.3417312417877025,
        -0.3680651303342187,
        -0.4864186607832531,
        -0.041484586439436096,
        -0.5833582746642123,
        0.2819720755458058,
        -1.7116925614192169,
        -0.4283513193503197,
        0.5495790696428173,
        -0.9787332344791206,
        -0.05133546792281973,
        -0.27815639988183805,
        -0.7678650584570624,
        -0.95873393099131,
        -0.5010359235362063,
        -0.28916317958564336,
        0.25370717044257685,
        -0.3060256916520546,
        0.09362550565115861,
        -0.9611160871816493,
        -0.6072954708823483,
        -1.1989665296002583,
        -0.6739078984722904,
        0.6985964458198308,
        -1.5104918693072031,
        -0.24758463904317954,
        -1.2758100636496617,
        0.22488066282974725,
        -0.8294571726216359,
        -0.14248421875012443,
        -0.22421285645876182,
        -0.6695541764291653,
        -0.27646297519814694,
        -0.5888329078808455,
        -0.023909434946922808,
        0.05552311314622599,
        -1.0779908345505336,
        -0.501534305074421,
        -0.6184292354228287,
        -0.22976686153554796,
        -0.26846094516615154,
        -0.08634134661936042,
        -1.5401062011656437,
        -0.395077603460322,
        -0.1385549254951057,
        -0.3858480217097237,
        -0.37056028761200915,
        -0.33626183469687526,
        -0.6488565012302943,
        -0.45265468114448165,
        -0.5334936482714263,
        -0.5057432445371339,
        -0.5127994336771367,
        -0.6844626425132997,
        -0.37643705780192943,
        -0.12153847437574387,
        -0.2976490965773764,
        -0.8519523882641736,
        -0.026294580912633005,
        -0.2876996679451876,
        0.4121663963582322,
        -1.3644481967292665,
        -0.518932420445466,
        0.570789283831379,
        -0.6167335299520479,
        -0.1891439454211147,
        -1.2906506174986656,
        0.3051348858936892,
        -0.5736635523620143,
        -0.34099696141889446,
        -0.02239679253360507,
        -0.42251571595679716,
        -0.3129336850353193,
        -0.35261581655698826,
        -1.5890790904981902,
        -0.8258914738593914,
        -0.3580868971017755,
        -1.353773904174895,
        0.04855771534757211,
        -0.9589211286173868
      ],
      "cols": 80,
      "rows": 130,
      "weights": [
        [
          0.14854607238600373,
          -0.422884867188596,
          0.18502818336636143,
          0.05074719434266742,
          -0.2616388979468379,
          0.3305170747278561,
          2.6514151440610947,
          0.0013527817530578409,
          0.1129453575470604,
          0.14902804811944764,
          -0.2549439488182088,
          -0.09817194808896042,
          -0.0027805328779465185,
          1.5066884958950018,
          0.9040519557464478,
          -0.20862956767896626,
          0.47762890649667017,
          0.3870301397845245,
          -0.2943118055825917,
          0.22335406585066853,
          -0.10653820429540675,
          0.5285285966919011,
          0.42978917878557926,
          0.6759997752451309,
          0.3494462179512219,
          -0.27798966516145107,
          2.08952548477914,
          -0.5108365755146875,
          0.976239320119473,
          0.24661761453473852,
          1.0823897567649312,
          -0.019204873617336277,
          0.21728262063903192,
          0.10061150622861657,
          -0.23041017931504224,
          -0.772621485255562,
          0.5428065749306167,
          0.29593386933780824,
          -0.195451529664012,
          0.10261550840318882,
          -0.1849765991338297,
          0.12354026366108611,
          0.17935426061958223,
          0.12255336741915591,
          0.71817063302815,
          -0.09965529770408146,
          0.3477125460327773,
          -0.24597972744493934,
          0.04109287746981209,
          -0.38130370154584087,
          0.19458437362141265,
          0.375712196578916,
          0.15259728933342817,
          0.8932283988878791,
          -0.4467180522304815,
          0.367788859959214,
          0.14165677630707954,
          0.3014051250893951,
          -0.3161297671955278,
          0.12123792172458246,
          -0.06238394090851688,
          0.8197891103157516,
          0.27736174787421486,
          0.2148891680534184,
          1.4390702179358665,
          0.11906281909515216,
          1.9717418234744963,
          -0.43396792794331673,
          1.1715508588542451,
          0.1141569079162949,
          -0.2714099367180125,
          0.37472077111349716,
          0.24890669620685052,
          0.10452971259759042,
          -1.006629022576542,
          0.12569402184976367,
          0.12719792968276974,
          -0.2061605573142747,
          0.19148345207914683,
          0.17567730521447758
        ],
        [
          0.711248194437046,
          0.18784979282955774,
          0.0029959705737015578,
          -0.21629084283690697,
          0.029766548074547542,
          -0.23529001101014116,
          -0.20232473295047984,
          0.07385643596007654,
          0.2839582081796423,
          0.04628054326887739,
          0.15056291763365248,
          -0.1809582501365693,
          -0.6404237286669419,
          -0.27351162118392347,
          -0.042898244539402254,
          -0.018840867708617468,
          -0.17409196356937343,
          0.16126006323538097,
          -0.26645905144821236,
          0.7522823339323348,
          0.4000245725452656,
          0.005430320571818866,
          -0.01941630357978551,
          -0.3539134099706115,
          -0.12317633048292129,
          0.46042576442385597,
          -0.38598592364833406,
          0.3987648041534014,
          0.010448951153543815,
          0.06028389361235595,
          0.06477840650921944,
          0.010850271946566568,
          -0.011067988861893833,
          0.6985951659564831,
          -0.11790250681898679,
          -0.41736506387454775,
          0.1541854559333496,
          0.2047102084247923,
          -0.03699526488527705,
          0.12833265129087848,
          -0.0869635333243867,
          0.9667197549138284,
          0.8805377089906841,
          -0.0934915845383448,
          0.3798002223824855,
          0.635555592698013,
          -0.061446476940553815,
          -0.26084661749767996,
          0.11140728747801802,
          -0.20595326594895913,
          0.31659251432700647,
          -0.08580467250352314,
          0.5310863741616915,
          -0.15950662548150146,
          0.417024630251812,
          0.4461883642990181,
          -0.4160094372336704,
          0.09018601283013263,
          -1.1792422854744884,
          0.022351408319284307,
          0.46215926973638444,
          0.31523217485446725,
          0.15480891233229346,
          0.17471496073576326,
          -0.31280748982843065,
          0.16739476663844288,
          -0.38929761210151376,
          -0.6973011136728327,
          -0.39766604995957855,
          0.5636656541838463,
          -0.05776713797588981,
          -0.18680673767767925,
          -0.3930922295719123,
          0.461574536293574,
          -0.7172478494116162,
          0.49502306306249316,
          0.22451343374651922,
          -0.009547047694497044,
          -0.01076908006301527,
          0.25112346895162757
        ],
        [
          -0.1329839276734077,
          0.20379710072239707,
          0.6358953855111636,
          -0.1267044392211644,
          0.05167234619775845,
          0.5716783870298411,
          2.584555605832825,
          -0.11296833786791112,
          -0.29108545049196544,
          0.19122737606442627,
          0.14713764195664084,
          -0.5493923990768214,
          -0.7692309585153623,
          1.7456308633924054,
          0.3420199046949254,
          -0.08600658125968479,
          0.7848716897768181,
          0.387982572148645,
          0.0007983810324890656,
          -0.40916679046476007,
          -0.4171135832039088,
          0.8126178727816503,
          0.5026910193039328,
          0.21532177217031842,
          0.6319147643415797,
          -0.2098403750168195,
          2.1233215399639196,
          0.2060690637069477,
          0.8501565687150449,
          0.32921118724856296,
          1.1177100461529184,
          -0.09861325619716234,
          0.16801413533495999,
          0.3937315970020983,
          0.22763733691043267,
          -0.5510594309816286,
          0.35998792469481666,
          -0.05631783749306957,
          0.23488155582637424,
          -0.06054035133392363,
          0.5379003479492377,
          -0.3702258696075183,
          -0.7073300247640756,
          0.23060046806267737,
          0.18002645215497237,
          -0.3038294543950636,
          0.5618767838642895,
          0.01578433798142592,
          0.16193542347515671,
          0.7838317986577754,
          -0.008736920250731032,
          0.3816954976676944,
          -0.36947686459696094,
          1.0800777892223532,
          -0.2312677186862322,
          0.17772754102633145,
          -0.4493422324699647,
          0.04134990520674524,
          -0.7720515432235311,
          0.3061117012092897,
          0.037685641325538796,
          -0.17537666002078592,
          0.013368359686209958,
          0.02796128918210713,
          1.5240592422734716,
          0.08908167785411687,
          1.870713234493807,
          -0.21971291723438868,
          1.0136731426742778,
          0.2295237680097635,
          0.21339137626474797,
          0.3091968550667587,
          -0.25605874756760433,
          -0.012747954357777175,
          -0.09470336282530675,
          -0.14934803804190203,
          -0.29841925533852287,
          -0.7536385602080871,
          0.41488113243815533,
          -0.04054254976940359
        ],
        [
          -0.1431840001454295,
          -0.2342775371128219,
          0.19088066908396892,
          0.19293062224166474,
          -0.172027137476594,
          -0.16617475935195683,
          0.3710299300749994,
          0.5736267658444584,
          0.3219315527504168,
          0.06357197541820009,
          -0.11441874107530735,
          -0.46292269368678063,
          -0.04300156480426613,
          0.5055196882217725,
          0.41500266667688573,
          -0.025156877758781778,
          -0.021364944640601475,
          -0.058987782842712305,
          0.2921830658856625,
          0.03505789449404975,
          -0.33752234323242414,
          0.13196586325108037,
          0.3247126891897644,
          0.5549378566330838,
          0.5545819213323351,
          -0.10630737172224533,
          0.2063582897107996,
          -0.1135496210423113,
          0.4730756568381024,
          -0.02394745804890001,
          0.3911722723137122,
          0.2145037105299946,
          -0.12958463907964154,
          -0.510787284897083,
          -0.02935420944051175,
          -0.6088586341839564,
          0.6749841322434015,
          -0.11645614883050236,
          -0.0063626204267045626,
          -0.027375740623143283,
          -0.13656899327240243,
          -0.9464078054858857,
          -0.04860518838658732,
          0.20342336465761202,
          0.0999376728336261,
          0.20137505996261398,
          -0.0006977949502489657,
          0.5079846624212728,
          0.3060742621109849,
          -0.20498302885043176,
          -0.17956264327406604,
          0.047866165700618184,
          -0.25977222499824143,
          0.14503747405864464,
          0.26338640017907333,
          -0.37152327290802123,
          -0.048941548397188485,
          0.39238157759967096,
          0.0008104025559159119,
          0.0024128435005830637,
          -0.08972837794892408,
          0.20642888031448361,
          0.10266168347071808,
          -0.1219403479953337,
          -0.019671795322191075,
          -0.16386161612947497,
          -0.3560396033057716,
          -0.1466355685211965,
          0.06845245269585284,
          0.653194446239547,
          0.1380484898940114,
          0.08855247101019027,
          -0.07984227173625691,
          0.21770162530608606,
          0.9898573340354926,
          -0.10048483268042618,
          -0.08552966776044993,
          -0.7830685633415158,
          -0.11357626865399315,
          -0.39564420836394454
        ],
        [
          0.09596235588236844,
          0.15896486562135279,
          -0.23496871500695013,
          -0.056863011174081185,
          -0.08047276871056973,
          -0.260877856581864,
          0.44958502216563545,
          -0.20752649300986803,
          -0.06641922996292234,
          -0.10043663925019426,
          -0.15790239665886202,
          1.1598405278530364,
          -0.41942011623752096,
          0.12502285962756232,
          0.06143105560958993,
          0.10654011640360048,
          -0.06766634191585072,
          -0.1874044563958333,
          -0.1887024249530026,
          -0.27303354271530533,
          -0.055696381826697505,
          0.48292778321569796,
          -0.4312464384201875,
          -0.29380255852295367,
          0.49923540832734864,
          -0.09284598198850887,
          0.16008283252905883,
          -0.18483369018273305,
          0.0473411022353677,
          -0.984628272442688,
          0.09710916721269466,
          -0.2708081547948162,
          -0.09750998359727625,
          1.6581991069655653,
          0.05335828038220042,
          0.07323916850584933,
          -0.0036482084954540996,
          -0.20098373089506083,
          0.04178795611702186,
          -0.4736542973683296,
          0.2421461667973695,
          1.264738670276127,
          -0.17227328852416232,
          0.09736117578382758,
          0.4627817430035721,
          0.020964061938578596,
          0.5007459192983341,
          -0.10541924176258684,
          -0.5796191553184786,
          -0.21299292336676182,
          -0.0542229557995698,
          -0.20624376591855498,
          0.13143069636361066,
          -0.16091103344300614,
          -0.22789629235541325,
          1.2001855199382336,
          0.027572629761088315,
          0.22505567558426837,
          0.11204455594923,
          -0.4419132822131542,
          -0.015237405903546553,
          -0.03274777928228057,
          -0.02765390906855758,
          -0.042601828876926554,
          0.021763078463977115,
          0.11072285410427962,
          0.3018359698230544,
          -0.15255845379595653,
          0.14550528577957275,
          -0.06273782109234081,
          -0.26668164441056674,
          0.0024670024403986874,
          -0.26664159080711675,
          -0.044630766414605734,
          -1.6541256976645478,
          0.040411617677710156,
          -0.0843278306041456,
          -0.4665315465556992,
          -0.3072008052291009,
          -0.44278298973242286
        ],
        [
          0.05007444107858888,
          -0.04379899966494851,
          -0.0066679097275893695,
          0.48586809147162513,
          0.0746053442516376,
          0.7188001229158816,
          -0.06050480103956765,
          0.02591273712910553,
          1.007078868592229,
          -0.004481879267398308,
          0.030878017982114002,
          0.15882713673634885,
          -0.050809659657004326,
          0.06764860500982707,
          -0.056298709150685314,
          0.01742810264183708,
          0.1244332280866118,
          0.3140798887216322,
          -0.2904089373473887,
          -0.5572815300793367,
          0.3497825440139078,
          0.5099965238332245,
          -0.4488503758236961,
          -0.011754729301046424,
          -0.004930306921019429,
          -0.03680316958217898,
          -0.24246534381959073,
          0.31513120852724835,
          -0.11822465611423291,
          -0.5482691323057708,
          0.021320384375882108,
          -0.9182026431537942,
          0.6866800186687873,
          0.1400356405856414,
          0.13136143338082937,
          -0.1314307977970856,
          0.09802869978464705,
          0.12005635004135308,
          -0.20191496399194667,
          0.5287504826698037,
          0.0601165871779127,
          0.03986948632693963,
          -0.8464308971832408,
          0.14226669761902927,
          0.01744938143235979,
          -0.4773238362901974,
          -0.5699980965322903,
          0.6110542984460686,
          0.42323882156273573,
          0.1482507457640446,
          -0.4610435372236407,
          -0.2238722202094556,
          0.09763066850433495,
          -0.048705664748712796,
          0.03979406980383909,
          0.3710504434547899,
          0.09120004504354699,
          0.01976343872382106,
          0.21921933803394264,
          -0.13451450390623565,
          0.5409898156615776,
          0.3431657820919807,
          0.11525571220537192,
          0.6817903184088225,
          -0.12670695045950583,
          0.10821350378031952,
          -0.09784492153539837,
          -0.05068955425270073,
          0.11648717781276323,
          0.43627884180840143,
          -0.09293912715959811,
          -0.19404046802152153,
          0.43099462216462614,
          0.23295682028681763,
          -0.3541322694186297,
          -0.2771832056476355,
          -0.08194571426159308,
          0.19955863650997513,
          1.411890385572614,
          -0.3129267433832212
        ],
        [
          0.14079101143245476,
          -0.15874837643725326,
          -0.07991773958432419,
          0.17085959426123712,
          0.07353719436083858,
          0.46583015521888305,
          0.3167800320432352,
          -0.037831976648564324,
          0.019934536940477757,
          -0.1371656910889352,
          -0.005242543285581601,
          -1.9687906378157096,
          -0.16247845203319544,
          0.2425620545095198,
          0.2135163153554347,
          -0.08156032554119824,
          0.14996537911674174,
          -0.021269072300590823,
          0.3274595115269074,
          -0.08675269623396038,
          0.1175050116766953,
          -0.9345108961790832,
          -0.10017589970018245,
          0.347504682075633,
          0.22721568312510393,
          0.052520417073049816,
          0.2246148606083159,
          0.13034704870936006,
          0.15647240235189977,
          -0.34912176186246124,
          0.034447415663890237,
          0.10498297513053356,
          0.3723792206977361,
          -2.0973547192879627,
          -0.12144156208119074,
          0.09463947649517092,
          0.17103918481469352,
          0.001874314518562535,
          0.15505823795228094,
          0.5321606202334581,
          0.22958295104771362,
          -2.326917746034545,
          0.25941707364151245,
          0.017470573587878416,
          -1.8508505693314592,
          0.17424539214670634,
          0.22666246295567904,
          0.16144410421482364,
          0.016851152792910676,
          0.1810424977037466,
          -0.07272480255425666,
          -0.032998711878625346,
          -0.11283259681823586,
          -0.16299499574745493,
          -0.04470887159984473,
          -2.0243118387894934,
          0.5678000906636623,
          0.15513867189055386,
          -0.09643571542585831,
          -0.19207107238715054,
          0.74448976014798,
          -0.16076160144407767,
          -0.08378397359770523,
          0.6047043245348407,
          0.23809011866905158,
          0.4001144207494163,
          0.24053377155045083,
          0.2895332541354785,
          0.049010317566838595,
          0.14518029539566724,
          -0.0818772391427897,
          0.24004315812079294,
          0.21187244887251738,
          0.012120749467139966,
          2.3404507909622447,
          0.07191622355683332,
          0.08183383750146984,
          0.09988799710681905,
          0.4516511329017064,
          -0.037333919796072715
        ],
        [
          0.19976310490625832,
          0.4915196280905183,
          0.1298959900164763,
          0.1038026650226215,
          -0.15777977415643613,
          0.07386140125047749,
          0.3476575888326334,
          0.040633030454163895,
          0.022528790132994022,
          -0.12228047913140005,
          -0.06456187613596856,
          -1.143650592828876,
          -0.07953457792261243,
          0.013333970890362314,
          -0.004342130425784119,
          0.19850120538893085,
          0.12179086310255045,
          0.006308797228499165,
          0.1877516107349802,
          0.12298501276387959,
          -0.2761315548164456,
          -0.6292464195181632,
          0.15137160267014466,
          -0.11276258575792367,
          -0.1591978856201921,
          0.018367995058264672,
          0.26460373189319253,
          0.23602685283067706,
          -0.0911555438870802,
          0.01317680410409826,
          0.13193977281209804,
          0.22643011868670693,
          -0.03317567879519319,
          -1.4355098880897155,
          0.06576556514684243,
          0.20002005089000743,
          -0.2109829952102725,
          -0.04739261857736143,
          -0.10905526070817206,
          0.21202706500320762,
          -0.18899435255931288,
          -1.2317494507304452,
          0.32896296674226566,
          -0.08461551299246223,
          -0.7644593183059766,
          -0.03649406515006753,
          -0.35404185782296027,
          0.1884666116737152,
          0.04588065111996036,
          0.03120952367097636,
          -0.22808589045943087,
          0.35415252641404454,
          -0.22098171786591478,
          0.33793499782602987,
          0.3197553972425319,
          -1.2329082011499193,
          0.1694841472359644,
          0.05359527298794227,
          0.018977447418120793,
          0.20515308635992888,
          0.247049799654776,
          0.007928113573819208,
          -0.17564866830704728,
          -0.0544153777207125,
          0.03944891641167836,
          0.12399393389957244,
          0.16559470268666462,
          -0.11975137737219121,
          0.07174943761342831,
          0.18063959599678026,
          -0.08973415255479655,
          0.09181702325919618,
          -0.0716818125588754,
          0.13543175298323398,
          1.2080858791353895,
          0.020958760156110565,
          -0.008076856395516202,
          -0.0025612384511208893,
          0.00011572644867505513,
          -0.19871725011843197
        ],
        [
          -0.20985484019797696,
          0.024673726324110645,
          0.10438618873310013,
          0.0545057152037496,
          0.2160467193540206,
          0.18923922973376028,
          -0.492118917297245,
          -0.059703827017932774,
          0.4931717382017432,
          -0.02523775279267514,
          0.15435295289805248,
          0.5592535329347336,
          -0.0004078332636854199,
          -0.5111209479612001,
          -0.19794805997119808,
          -0.07222196253085167,
          0.023332024669326015,
          -0.04978708515412329,
          -0.1304850818570976,
          0.028922179242878588,
          0.2426909168475347,
          0.5458987387317134,
          -0.02153369025797222,
          -0.2983304212278228,
          -0.2795348896528321,
          0.04284702753346491,
          -0.3416369516326149,
          0.5018723531711247,
          -0.1699646386240779,
          0.5232577269410004,
          0.2428853204147327,
          0.36096282560908377,
          0.2441314300696772,
          0.5878923190228815,
          0.4105783626037654,
          0.4306636878219636,
          -0.11249194029405166,
          0.02890119471890425,
          -0.02972938801157808,
          0.5154016334575613,
          0.711915218462036,
          0.3018965188165062,
          0.4148491010423754,
          0.005087258049183651,
          -0.03089143362729828,
          -0.14329138835104416,
          0.02936481614809943,
          0.045923800320881634,
          -0.5044105823412384,
          0.19252207350309647,
          0.216202285740326,
          -0.06583063453457182,
          -0.2838302991367916,
          0.10575063391763705,
          -0.17608477171734016,
          0.5376544719524533,
          -0.636609844158321,
          0.12359160359343585,
          0.07768604000166718,
          0.35795478618150284,
          0.29857318516117287,
          0.16792369004706828,
          0.08378555464387466,
          0.3074039374674653,
          -0.4128925126318973,
          0.2567768161879544,
          -0.32677452054161726,
          -0.04954011073470391,
          -0.024679102646371257,
          0.28335453349247963,
          0.3470171367153937,
          -0.01947130734776305,
          0.1966643136235637,
          0.054729809730275046,
          -0.2810014444406776,
          -0.2608763468666938,
          0.059600913420367684,
          0.025633290620511243,
          -0.3146823128849075,
          -0.45912444289501486
        ],
        [
          -0.21168941652429124,
          -0.003985888634514785,
          0.3239852948757953,
          0.18122284654717571,
          -0.07107262731337302,
          -0.15592042020707148,
          0.2205409585611722,
          0.0017676425910325153,
          -0.45110421920259114,
          -0.22476831339045528,
          0.06451511345529845,
          0.5000232930769933,
          -0.01756163205679133,
          -0.19623870016645056,
          0.20939616694846383,
          0.01786234972289818,
          -0.20606385857712634,
          0.254964985445509,
          0.5385384852200981,
          0.29434086984466235,
          -0.19034932697874363,
          0.5868375886027293,
          -0.13884875170058475,
          0.5283810952612791,
          -0.08225669942702771,
          -0.2207855139236775,
          0.271576560802471,
          -0.07007342343593403,
          0.18640794728574483,
          0.17755036420213519,
          0.06569719832360216,
          0.08551891841869257,
          -0.5385372700197554,
          0.4800751048736459,
          0.07021519338105754,
          0.20524807730766403,
          0.3220959166976931,
          -0.029110791306247365,
          -0.1771238671000554,
          -0.7072474799984514,
          -0.20279887639329816,
          0.38741006754739155,
          -0.2410033223780831,
          -0.015430622682209958,
          0.5423251006026513,
          -0.040687926155914905,
          -0.23488102021357024,
          -0.033011398723193745,
          -0.49772263779698456,
          0.03837877974415951,
          -0.3392380811999698,
          -0.34684023536270997,
          0.05897789583015935,
          -0.4806953622018038,
          -0.05438912220326166,
          0.4910419595107668,
          -0.05251642656412827,
          -0.08757527098927138,
          -0.2003919477556602,
          -0.041803843240711513,
          -0.4151615193447517,
          -0.035547112979643546,
          0.12458905791209718,
          -0.3612512127177216,
          0.11112264716790538,
          -0.0877156504851039,
          0.20647557937135608,
          0.3531901064551963,
          0.3044861936868956,
          -0.0860371766506105,
          0.06325132690508747,
          0.12680865650429007,
          -0.0037056907253593236,
          -0.13696124309784258,
          -0.6551949639744762,
          -0.0629281258353163,
          0.06033198552672493,
          -0.2957046688779363,
          -0.8061968962014447,
          -0.26684482994494513
        ],
        [
          -0.06965080271432628,
          -0.23352965217317326,
          0.1945864910129429,
          -0.2662714301361205,
          0.1641544718511336,
          -0.24595207568795094,
          -0.5585061059471274,
          0.09737420136574802,
          -0.474754756143612,
          -0.21707885756477585,
          -0.0734027971676417,
          0.6809135389614109,
          0.09919340556491331,
          -0.4339898424208619,
          -0.14879342344899055,
          0.003372110413047284,
          0.011679911380982068,
          -0.10224339506810393,
          -0.30519016699157087,
          0.2594204456295432,
          0.2280688389472106,
          0.4794333713642668,
          -0.033281720816433935,
          -0.6744849409220959,
          -0.33212174608886513,
          -0.016915770624235445,
          -0.549991008027739,
          0.20963007077333354,
          -0.3182620527474455,
          -0.39036246184163936,
          -0.6690503438013289,
          -0.4866240332519411,
          -0.10535816178858776,
          0.8721815733816324,
          -0.12723476718060675,
          0.05056685709113338,
          -0.15977778047770805,
          -0.1839996510246405,
          -0.03149774027175107,
          0.1957006198159721,
          0.17113131254759603,
          0.9372135112527529,
          -0.1163264986333381,
          -0.1629467914939097,
          -0.10369475555580461,
          -0.2998183356677869,
          -0.09401643963694473,
          0.047879642694146615,
          -0.08887511775763123,
          -0.186266200467617,
          0.20308709875851005,
          -0.12208764727713267,
          -0.08505366039262131,
          -0.3064899207053093,
          -0.3841250626172483,
          0.5044986403975866,
          0.1463078381891105,
          -0.10042962040125171,
          -0.20277549469504055,
          -0.18680244890182887,
          -0.02350004686088558,
          -0.18401634134034534,
          -0.27805368652549467,
          -0.33990014157896675,
          -0.3951661684562517,
          -0.3920909020954986,
          -0.4591563686641287,
          -0.3139218622117432,
          -0.3482554784276556,
          -0.0011886524511454896,
          -0.196830938480682,
          -0.36720548383233576,
          0.17978386508853408,
          -0.13761835159241118,
          -0.7837096049630319,
          -0.3185912356446585,
          0.1413556061758688,
          0.3173666575659527,
          -0.27928572827821285,
          -0.12224612103481451
        ],
        [
          -0.12126081151548986,
          -0.03890281967260354,
          0.07158730021547101,
          0.06341204572913009,
          -0.0748208171958033,
          0.6362532864079465,
          -0.8614402018031982,
          -0.03459254120218416,
          0.8493557209757637,
          -0.23443409816779825,
          -0.02278452891222849,
          0.031550665559641256,
          0.4791385377538998,
          -0.2884604154645811,
          0.12581808913929135,
          0.08234841302062818,
          0.39033763199552296,
          -0.19755416960010586,
          -0.0007941982943949874,
          -0.09670135467970918,
          0.37138713269421697,
          -0.2499732936929387,
          -0.13551861414002814,
          0.19071611340020378,
          -0.2714074538496371,
          0.013550790064461018,
          -0.6246437974573172,
          -0.06490873725889659,
          -0.22676056409566786,
          -0.43948273740231847,
          -0.38585703220916046,
          -0.13616403390806617,
          0.24949818896101383,
          0.42454634432017224,
          -0.2505761977144921,
          0.10103218759755465,
          0.13757281655055162,
          0.0050924854185581585,
          0.5200553249124495,
          -0.10893349643732082,
          -0.08634809740127528,
          0.04302571820328487,
          -0.568871108957849,
          -0.11339737012609612,
          0.24908311985438367,
          -0.3453915987903924,
          0.21524790640092692,
          -0.06396723238487222,
          0.3711630441067026,
          -0.0814250047194656,
          0.036078566639923905,
          -0.2727687417989723,
          0.05315460216373239,
          -0.17707160566361724,
          0.034520951808466406,
          0.3212532461229158,
          -0.3166130869505492,
          -0.0344843335266827,
          0.13275502972571768,
          -0.058274088427219546,
          0.43487018116167586,
          0.083141283345028,
          0.00532075881875018,
          0.2495132933863153,
          -0.6472098185654194,
          -0.19440008946781942,
          -0.6650724007215574,
          0.5271650179104229,
          -0.7518136898597956,
          0.020406938427262326,
          -0.05393804274807639,
          -0.1899851962556147,
          0.021708382819371302,
          0.11795159042266783,
          0.023267926687417492,
          -0.19139279237355772,
          -0.06514412765404251,
          -0.03511773089019855,
          0.17957715622493733,
          0.10842140942296358
        ],
        [
          0.08958769620586181,
          0.009763158790263146,
          -0.15477491500010696,
          -0.845684611178585,
          -0.06630509888381875,
          0.5810409122322419,
          -0.04767673135455101,
          -0.08281725531588836,
          -0.19666542978833965,
          -0.12645502249648155,
          -0.24029049519515316,
          -0.4540378559994387,
          -0.39166710196722926,
          0.015562796647318293,
          0.0094095960069915,
          0.08459960648876665,
          0.23518203487064054,
          0.09846762657517454,
          -0.13928276191804292,
          -0.07459084132471681,
          0.17080936907730795,
          0.1581631974126493,
          -0.18201129022697177,
          -0.16658877749584936,
          -0.058148413572598485,
          -0.06384690857120469,
          -0.1331503353202476,
          -0.048410928077723805,
          0.03581841984032819,
          0.1330775247168246,
          0.038555619637211686,
          -0.3145028101124002,
          0.292371840864627,
          0.5906436226977828,
          0.08776006650418461,
          -0.5232087013687496,
          0.03255011323825316,
          0.06895479968191906,
          0.6161396248224671,
          0.421515613841605,
          0.054665463697606255,
          0.25564517227172723,
          0.0073682917959185835,
          -0.17846909485391693,
          0.47311964572604803,
          0.05574478584304185,
          -0.6979852921791847,
          0.09625309142537951,
          -0.001847360877690013,
          -0.0024157636457041434,
          0.332951652158717,
          0.04997898360265705,
          -0.13086190141153056,
          0.660323739992729,
          0.03897543640559831,
          0.6155527184674492,
          -0.0877595031279658,
          0.049740268054142646,
          -0.6241466943017568,
          -0.8713768218630409,
          0.19663334679082048,
          -0.18214814893461787,
          -0.16479133578192073,
          -0.45581438884249825,
          0.01652065076392648,
          0.3679971503778225,
          -0.07293573246802988,
          -0.21743609995402766,
          0.16747009267039983,
          0.18064935102526242,
          -0.20830050312084236,
          -0.461973469447517,
          -0.036021289833532436,
          0.1102965944020352,
          -0.16141894353099293,
          -0.5497059560653126,
          -0.4157993302920408,
          -0.15973661584495766,
          0.19090746845295628,
          -0.08377162880082956
        ],
        [
          -0.22643867114454327,
          -0.0452057870051174,
          -0.25267488515860936,
          0.31421262438456293,
          -0.046673104311881916,
          -0.024691054923031468,
          0.23362892223601409,
          0.015310223639608468,
          -0.41114106339825895,
          0.36897583951974805,
          0.11692838582796944,
          0.66542804605143,
          0.1093126952244873,
          0.28377794598732287,
          -0.00046027069549396725,
          0.07384807024652731,
          0.06894218948261953,
          0.03504965433176571,
          -0.41353198115933193,
          -0.11693386883722244,
          -0.33210971521407234,
          -0.4411357957022799,
          0.6009897662472639,
          0.023540061288200163,
          0.32420139804693376,
          0.07343464921372521,
          0.16351409414539167,
          -0.31163744128587234,
          0.09241641018738192,
          -0.09926804164903254,
          0.17289969126684124,
          -0.07709044209794139,
          0.5841990829289533,
          -0.4574198696700291,
          -0.09096556935308843,
          0.12331682834097678,
          0.23427990751308395,
          0.05092760856747183,
          -0.10022724433660278,
          -0.09311348688697069,
          0.02755589715146559,
          -0.12582069018572353,
          -0.005388494563670375,
          0.23839199286843962,
          -0.21733586964122378,
          0.12823834073547402,
          0.08089326115165013,
          -0.12830560122907478,
          -0.1779837226169627,
          -0.10075734184162576,
          -0.016880543726195636,
          -0.05758616822576009,
          0.16603000255574965,
          0.004200955122585416,
          0.04058508094803007,
          -0.3660014510551223,
          -0.17948376507188776,
          -0.06459309524462682,
          -0.3025229063732847,
          -0.0070985445634722776,
          0.2236978818147381,
          -0.07404782529147114,
          -0.09090714050561972,
          0.031964347520105484,
          0.3005241604231612,
          0.01719582490387263,
          -0.04360872308709005,
          -0.025383465372787312,
          0.042275117481824165,
          -0.2559596327221843,
          -0.12630335239415255,
          0.3619180371067503,
          0.04293236765548673,
          0.408661016984944,
          -0.3303032832235242,
          -0.09305546106495668,
          -0.3778583492941389,
          0.6152387139004766,
          -0.13426638833768686,
          -0.15909443803267434
        ],
        [
          -0.033371142283959744,
          0.162195343095404,
          -0.04808804572383872,
          0.06792716933538695,
          -0.17388928621315436,
          0.2460656484344142,
          -0.10981423737500443,
          -0.041466118380508864,
          -0.36955451916411536,
          -0.0653636305554178,
          -0.009476438583654012,
          -0.5716117917082155,
          0.3281965261327421,
          0.029056336617521578,
          -0.13412401526506493,
          0.04485504662290204,
          0.007905204468010865,
          0.24797348562876628,
          -0.2953133082701883,
          -0.23735455632048158,
          0.3480866287901557,
          0.03704429640367117,
          -0.029531162364593345,
          -0.18095364498929667,
          -0.014971745033410826,
          -0.07322201205342309,
          0.13838649000210487,
          -0.3760158108154723,
          -0.15206772440856225,
          0.03939018896305554,
          -0.11671190852712478,
          -0.10708311873068524,
          -0.0028059387011861387,
          0.0029298395323180374,
          -0.08700786254018039,
          0.2055847757525664,
          0.0901454079753763,
          0.1386628432919451,
          -0.14023105334300817,
          0.16072177857596134,
          0.04971431386960643,
          -0.27145393550778657,
          0.04132649080520768,
          0.05124503737522725,
          -0.1192664688341889,
          0.031052387847578567,
          -0.11570371928492625,
          -0.20389702478191946,
          -0.10204072929642939,
          0.09909588316587507,
          0.45717613624416376,
          0.28867590037029245,
          -0.18787725602330277,
          0.15201112301867828,
          0.04271379062499146,
          -0.24232738289778216,
          -0.07061726343556399,
          -0.027773340728778566,
          -0.038842046568909876,
          0.19721193063380196,
          -0.4031358833041438,
          0.04106326254834212,
          0.025574592344849333,
          -0.24585854535554683,
          -0.05739406247357217,
          0.04853970182116944,
          0.2690972300861881,
          -0.07263951471146864,
          0.07429705252520018,
          -0.05057608545415976,
          -0.11444374553149406,
          -0.07592759382559104,
          -0.04856528555220759,
          0.12629894820031423,
          0.17590082429222179,
          -0.19608658673515017,
          0.005067466347714975,
          -0.22352237550959286,
          -0.3545788735137986,
          0.05407352869424211
        ],
        [
          0.0820148540894797,
          -0.006269765874672698,
          -0.26995845806544255,
          0.19680302312504386,
          -0.029865403627348453,
          0.5672852714259357,
          0.382832100667717,
          0.17478291962233145,
          -0.09494392540142343,
          -0.03206031137544556,
          -0.16514693721147108,
          0.28232134567158274,
          0.2927224039597006,
          0.05982771424871968,
          0.1971981467370633,
          -0.009618536323975153,
          -0.11409777507454325,
          -0.09718719863992559,
          0.0455924335738441,
          0.024271613085594883,
          0.132920064259235,
          0.28627671598584103,
          -0.17939803223185566,
          -0.21374505928673557,
          0.1379826188958615,
          0.12270183056940656,
          0.3151119073641756,
          -0.3589982713814355,
          0.10727454386906453,
          -0.10527134891933347,
          0.08205527635232722,
          0.6130502028039285,
          0.23102564319720664,
          1.0535294593306774,
          -0.4753447370317578,
          -0.2896629548106397,
          0.3292172854900599,
          -0.11628867736547303,
          -0.005498571510105211,
          0.0397419050661249,
          -0.22459844773382756,
          0.6217466785578659,
          0.2659864769916442,
          -0.05008928498992833,
          0.3558401259689409,
          0.03560240950008538,
          0.2522223186200301,
          -0.1387301411644585,
          0.018950044806876655,
          0.10066349264236053,
          0.08043808102031426,
          -0.05754978375882204,
          0.15535180534659904,
          0.24559267091893014,
          -0.031655066070437096,
          0.9303415521603134,
          0.008081112152152644,
          -0.03072529112090685,
          0.2000679813927465,
          0.31170207913422054,
          0.2894359241160026,
          -0.17046209280230917,
          0.02373893981237114,
          -0.009531307790060405,
          0.04934009886177472,
          -0.3567615440527282,
          0.24333717693009824,
          -0.14288448919667046,
          0.14178697221374753,
          -0.035995611346495524,
          -0.2629631336134558,
          0.3623579659542087,
          0.12133283552561781,
          -0.019020254423081306,
          -0.45767537276047804,
          0.13252316171217565,
          0.149371542146446,
          -0.11849054208432348,
          0.0465239969120929,
          -0.18977059235798382
        ],
        [
          -0.09284907782623994,
          0.07721325355020545,
          0.17913728876910973,
          -0.02006241279765813,
          0.059296891389035634,
          0.3592323053046774,
          0.2781936325983655,
          -0.10211043360106324,
          -0.4791955297393368,
          0.02035922356637289,
          -0.047968348975155596,
          -0.8485217374654829,
          -0.27391287320810237,
          0.2529881291935483,
          0.2704223449789219,
          0.16306636480309433,
          0.16783317977273862,
          0.14125894912428757,
          0.10732082573400527,
          0.026416386527928232,
          0.028944724609360005,
          -0.49349793774525696,
          0.2693359531274124,
          -0.18571596636297816,
          0.14221868917214733,
          -0.0753892616999324,
          0.2753310191859656,
          0.06831704783916302,
          0.1590586527031853,
          -0.20323224854903552,
          0.24683880156971158,
          0.09355107233407726,
          -0.13128210050323316,
          -0.2224485576752206,
          0.10858226406266613,
          -0.4296550540412218,
          -0.03564194297004672,
          0.2087357855140304,
          -0.20932534325058166,
          0.5123642303637334,
          0.06934382008937234,
          -0.2531519234974825,
          -0.13242532712078595,
          0.11252322838453874,
          -0.15006801095626285,
          -0.03923558319584849,
          0.24960392835858888,
          0.1835778321667871,
          0.03861604585721615,
          -0.15916394942927364,
          -0.1354711263379017,
          -0.31468005997076937,
          0.2846633575642223,
          0.26509550425438255,
          0.1245901997157996,
          -0.18873436932712748,
          -0.32748082500336706,
          0.006168339276733945,
          0.5411714724585969,
          0.09813642152526683,
          0.10614842261374623,
          0.12133494395741684,
          -0.019266630316681407,
          -0.7004334343210955,
          0.19031486260915684,
          -0.06375309409658107,
          -0.017651745463798652,
          -0.34846780273831357,
          0.20572056353387413,
          -0.22020828001301054,
          0.12101561330592557,
          0.11259627225277313,
          -0.09365932470486912,
          0.14524221704104295,
          0.15018009631314402,
          0.14706535882953503,
          0.16851716340138242,
          -0.3289590239742771,
          -0.20860396427771657,
          0.3829506561706416
        ],
        [
          0.2481565705192852,
          0.10403220237003355,
          0.25233125345588236,
          0.21524870355035203,
          0.11929567778665554,
          -0.24008785310008354,
          -0.09455067032886756,
          -0.10493338396376437,
          1.0891574468219158,
          -0.1791420958567344,
          0.18570370545902637,
          -0.793010656389856,
          -0.35913829465716146,
          0.13356441883576914,
          0.057426708684221776,
          0.04163194399747246,
          0.368366700995951,
          0.023838240793011743,
          -0.12175795255677457,
          0.07509408942504593,
          -0.027819972109880176,
          -0.7765435222304683,
          -0.10163078634713131,
          0.6057123819203953,
          -0.24187808303486885,
          -0.07388511294475922,
          0.04366427722151548,
          0.1618716978731591,
          0.008371918121347266,
          0.1286924259149438,
          0.09400447187076197,
          0.15940343160914783,
          0.049092692347431466,
          -1.9625312606942593,
          0.1289833890089148,
          0.5639838928101925,
          -0.016672144150876356,
          -0.23351432665620417,
          -0.022423913791847484,
          0.06541405750194385,
          0.1679129421384736,
          -1.1531384809050502,
          -0.06705291728877122,
          -0.056271156752983366,
          -0.5429646490598451,
          0.29312208319689775,
          -0.13932993896642334,
          0.6130167977847713,
          0.3043889936836323,
          -0.27629909508193273,
          0.0021964500209407547,
          -0.05999324372989781,
          0.17884361154228104,
          0.177691982802013,
          0.045330477708815146,
          -1.0509525788966219,
          0.06848128113739603,
          -0.034671150195463137,
          0.12367463525543751,
          -0.18094965157753048,
          -0.00569428779260812,
          -0.23444310543622923,
          0.2881237383287252,
          0.4601757563536701,
          0.19450648874908183,
          -0.6326757556794123,
          0.17837563520015723,
          0.4102048979380075,
          0.1728816734988204,
          0.40528559782981355,
          -0.24886403399912582,
          -0.13442734928413141,
          0.051623651443461614,
          -0.16559917009061903,
          0.37710440679106194,
          -0.12724851292858386,
          -0.10084357761530298,
          -0.2914714826296124,
          -0.41971901535909484,
          0.40106008878286004
        ],
        [
          0.020437764195169527,
          -0.24618420773234195,
          0.15284050077589464,
          0.3225525923613523,
          0.01545402072771088,
          0.22770789611367007,
          -0.3385372410120237,
          0.05668579470520954,
          0.47979716795039307,
          0.40468726922169407,
          -0.03981110103601714,
          0.8167119980235525,
          0.15420446418750186,
          0.0053767455834863335,
          -0.18984763640482197,
          -0.1896722919119061,
          0.06610028497895681,
          0.052471467429464486,
          0.008598978582156393,
          0.22524232881387937,
          -0.07398444874810249,
          0.5663698660679694,
          0.19806537010103953,
          -0.0731926064258385,
          -0.18085071769895877,
          -0.10056605761589657,
          -0.2199722935736435,
          0.10416457709634738,
          -0.15734838686447536,
          -0.3614404391730275,
          -0.2503449085577416,
          0.005312736921034561,
          -0.020170047450186714,
          -0.2484634247375956,
          -0.0808863186469828,
          -0.31776765945182156,
          -0.019943728773842033,
          0.24676870138640772,
          -0.07677556369442315,
          0.013498912268314742,
          -0.13978997642827767,
          0.38484815279499013,
          -0.13908768108701106,
          0.025042824847560863,
          0.010418154560641551,
          0.09583480224541252,
          -0.2186106395831758,
          0.29811987853436067,
          0.49464195810072087,
          -0.11438679220605434,
          -0.4402324984310969,
          -0.13414770669306697,
          0.17070215760091104,
          -0.3422725576950765,
          -0.40515069669599235,
          0.5943237355405041,
          0.2697553460884414,
          0.11547300130049241,
          0.12266101366906067,
          0.062373184301566104,
          0.3653625872669223,
          -0.23424311718185192,
          -0.10495203668742374,
          0.0030897870117391492,
          -0.2475891373449454,
          0.3974995900978726,
          -0.19101209663567562,
          -0.026210112309451927,
          -0.3402954823215064,
          0.31762668797037286,
          0.06507031868033564,
          0.014978358358309496,
          0.1581366886483683,
          -0.095841839379842,
          -0.5590832171302093,
          -0.11079828544160704,
          0.12078684394031974,
          -0.011252734935948583,
          0.07737549213896504,
          -0.03509870900847639
        ],
        [
          -0.14856928635933211,
          0.11479137328762314,
          -0.03672406898302482,
          0.09708973989716153,
          -0.13612808219225486,
          -1.0799359549130392,
          0.08369184526267046,
          -0.23201098666371306,
          -0.12220881602813088,
          -0.09169703551434788,
          -0.09067534954098819,
          0.557679501848675,
          -0.09409429145877302,
          -0.15023523974193484,
          0.14906292944690638,
          0.0360705685366638,
          -0.12223684467565647,
          0.10933078481941495,
          -0.2901532903418991,
          0.11404741748451418,
          -0.1891575181289968,
          0.8833690973061731,
          -0.09200685597231256,
          0.08436456565841545,
          0.023139586835918317,
          -0.20196597078934223,
          0.04520100637642543,
          0.1870100851999627,
          0.13675625547578463,
          0.18217162466790301,
          0.03275648518527548,
          -0.12104078432818918,
          -0.13681114148089465,
          0.9862421807603806,
          0.03494423032969714,
          -0.34218701673266577,
          0.09894155377800791,
          -0.04082825075338801,
          0.06747423321643742,
          -0.28903770550563224,
          0.027636350202875592,
          0.2565972340127191,
          -0.11973211421703052,
          0.10929681701414046,
          0.320451746126433,
          -0.26900661534198816,
          -0.1655201396385853,
          0.4214597304746066,
          0.0949555013669889,
          -0.3621342093010466,
          -0.2292789139738154,
          -0.13248919574939705,
          0.10239170815497359,
          0.30490722270752485,
          -0.32904475333144984,
          0.2977239432649714,
          -0.03848889886156791,
          -0.12214091329351597,
          0.11980235861807594,
          -0.3103741262993243,
          -0.33447317448779046,
          0.25421093407108325,
          -0.25134364889178024,
          0.22829533271484634,
          -0.2988157631318715,
          -0.2622964357946418,
          0.005977891085267165,
          0.06802559118995403,
          0.09684844753729893,
          0.06649868887893709,
          -0.43091770075621244,
          0.2114800158174826,
          -0.34201348195932646,
          -0.16655915930580317,
          -0.26178183517438264,
          0.1724605395549833,
          0.05269945487426054,
          0.04200936652730824,
          -0.4149276841809097,
          0.2513087016995426
        ],
        [
          -0.03667459626838784,
          -0.07372164519930877,
          -0.35588677781263095,
          -0.35738895702533197,
          0.09735899133030834,
          -0.4551577259524671,
          0.24292465212818956,
          0.023276956818376677,
          0.07174180701021611,
          0.2165648697613945,
          -0.0991675278518835,
          -0.7174139834378943,
          -0.1426316114041663,
          0.08224287348878652,
          0.12040409381398352,
          -0.05453271179068786,
          -0.42699753845251803,
          -0.08512549743719301,
          0.20852591806596757,
          -0.40407659699521026,
          -0.08096580389939627,
          -0.1816953587210578,
          -0.2746413719531109,
          -0.06548776653217853,
          0.040659764110409474,
          -0.19142842860039574,
          0.22402986663798444,
          -0.044224782218058784,
          -0.018361977697925025,
          -0.14162029741500592,
          -0.01677302730656936,
          0.06693125872507956,
          0.06704434044393878,
          -0.8548107602296391,
          0.060705906575173996,
          0.06163432698355619,
          -0.06288156245336438,
          -0.036392725712028035,
          -0.08316698436733184,
          -0.08024434408843766,
          0.31056593821005846,
          -0.8668031818262302,
          -0.3151237372756653,
          0.059538311713135735,
          -0.3424325714615818,
          0.05579961399422553,
          0.3933459172681354,
          -0.1876829284682815,
          -0.1276643016588502,
          -0.0627413928250545,
          0.4659552307915385,
          -0.046879512454749445,
          -0.16426259260873596,
          0.07226124117183293,
          0.14630095959102835,
          -0.4319537588989729,
          -0.6964627160601006,
          0.07798397636094127,
          0.024690815389471307,
          -0.05722942939866419,
          0.0010262340200866162,
          -0.2133396453519744,
          0.23310995608770121,
          -0.2512246265882211,
          -0.11376519717330223,
          0.0459040537458966,
          0.22463306251731988,
          0.04824355478699597,
          0.1619606262124204,
          0.20161050548617385,
          -0.021866156177103618,
          -0.259595864358974,
          -0.12545586668798378,
          -0.04241300201532557,
          0.7267988377318445,
          -0.16373836507753156,
          0.10614093210572949,
          -0.09103749235444117,
          -0.1121620262071013,
          -0.015006530782753304
        ],
        [
          -0.12822337860006422,
          -0.019517309443885276,
          -0.09472252148402405,
          0.01126064693663058,
          0.08063399972422386,
          0.3549764857316753,
          -0.30975708666392415,
          -0.05963986418958158,
          0.10359201626524031,
          -0.21200376207371358,
          -0.15513763013840548,
          -0.4766029344440469,
          -0.11709249318439824,
          0.06501292639679519,
          -0.16369901132801526,
          0.01637590361449899,
          0.09699325967945195,
          -0.010606176308925472,
          -0.18830074874496525,
          -0.32615796146093196,
          0.26220276821926336,
          -0.42000232774972085,
          0.22360476074818267,
          -0.2491494050387165,
          -0.3557998976106159,
          -0.020814625353148028,
          -0.2761604151057425,
          -0.11115117248448297,
          -0.1394209549041704,
          -0.6547387967620285,
          0.22554260513655766,
          -0.3141665470143228,
          -0.2583309943441427,
          -0.5564888341640449,
          -0.005640921446491589,
          -0.15326279250023697,
          -0.3660740415106073,
          -0.009160528621859471,
          -0.10908732032483105,
          -0.0005895756376503862,
          0.29430171969254093,
          -0.10416148061877498,
          -0.17912893011767908,
          -0.008410913829401016,
          -0.3534862252811429,
          -0.24545912781462978,
          -0.061579094272994316,
          0.7046421100334471,
          0.15239969925698554,
          -0.4927165872650182,
          -0.016529084165781294,
          -0.1567749340329979,
          0.03752535617169046,
          -0.22265804377371584,
          -0.2820145078684979,
          -0.3628272185842214,
          0.38542070536182277,
          -0.08810439390487257,
          0.036597057626746456,
          -0.07400728179053005,
          -0.3714433438960399,
          -0.12590360939704087,
          0.12247502656171111,
          -0.3784692224572183,
          0.09173339588189253,
          0.21913420573430184,
          -0.07988610110048944,
          0.09357258662046894,
          0.1446942762379438,
          0.2776601258176219,
          0.07193008821209672,
          -0.0272866382607268,
          0.1349403946793909,
          0.0032371218914363695,
          0.3502243990660819,
          0.13669467389038117,
          -0.018981536701026418,
          -0.042697123805853526,
          -0.7181042360177712,
          0.32000117542571804
        ],
        [
          -0.18472414774691853,
          -0.10898655422006512,
          -0.00042976421263756247,
          0.4585064657820428,
          -0.03259148425524189,
          -0.48395963175151113,
          -0.3604531949878745,
          -0.028756622185159092,
          -0.02079663376389238,
          -0.30626780830036726,
          -0.17465451838862264,
          0.31407695757032983,
          -0.4519935116613873,
          -0.052174813055862794,
          -0.3013416186872893,
          0.15915838093872933,
          0.04681835324953995,
          -0.2715310143434861,
          0.1273710199790946,
          0.20192622735383228,
          -0.2856149655788572,
          -0.3280924454290053,
          0.05604214231469124,
          0.34515922924871584,
          -0.25532530653017005,
          -0.3812565023481372,
          -0.1417824408691028,
          -0.04593100774116759,
          -0.12191891336552409,
          0.35268910807419185,
          -0.12841037117510704,
          0.402009480574469,
          -0.2327472803845588,
          0.25267939460711697,
          0.045763528565571684,
          -0.016772669492681205,
          -0.21848500887303154,
          -0.2628442749452377,
          0.17324564241853757,
          -0.2776245539591625,
          -0.10697402398595098,
          -0.13446647633861342,
          -0.1042918947995358,
          -0.02069581578806233,
          0.0024796571400248655,
          -0.006750031457731615,
          -0.10363830220909939,
          0.048943064403799814,
          0.17120331918696366,
          -0.8367874584799263,
          -0.24088802584034827,
          -0.09199785614047136,
          0.06785688339536071,
          -0.22310819679787322,
          0.20074506536259906,
          0.09252802489944643,
          0.6003466439333398,
          0.03900351000414253,
          0.13404209012827345,
          0.3128772782753033,
          -0.322417792348476,
          -0.09329046606525834,
          -0.08029278448684249,
          -0.05543664619991811,
          0.009314673930783923,
          -0.2620515816858213,
          -0.12799863054167132,
          0.6049645992983111,
          -0.09988295671007158,
          -0.10451737253234067,
          -0.102993649859627,
          -0.06398041473932915,
          -0.34780906795479355,
          -0.0534722707189251,
          -0.03941655345321666,
          -0.08512737567832175,
          0.0020507710791304416,
          0.10881578817177179,
          0.16010907190497306,
          0.14086952459960655
        ],
        [
          -0.10469618358695174,
          -0.17472581913434398,
          0.04753748909670977,
          0.2383777558612408,
          -0.055971538744710544,
          0.0206763853502756,
          0.5688330678084064,
          -0.00956028821739808,
          0.2100551412855987,
          0.21232804161712585,
          -0.05000879366498008,
          -0.11232636566349753,
          0.3091247863300793,
          0.07050285824268569,
          0.08489855604697949,
          0.16237984602265795,
          -0.04666725808901317,
          -0.07260518501995543,
          -0.2533832833778043,
          -0.13015791993633932,
          -0.043339976590260156,
          -0.5775381512875982,
          0.24632651102316333,
          0.3427335799001446,
          0.22640570087448275,
          -0.3267964909924115,
          0.34289260171126323,
          0.3532335175393376,
          0.17095401876559077,
          -0.42041693925726137,
          -0.014907754206351043,
          0.1342234490744504,
          -0.019142461302372488,
          -0.16418045511206739,
          0.10082812624496325,
          0.3445013217768395,
          0.13624897485157123,
          0.07455655446172493,
          -0.09543659273857916,
          0.22072505046104765,
          0.18251421870342535,
          -0.22117770288403052,
          -0.15183234326697934,
          0.015466481981740185,
          -0.22720961587863192,
          -0.031044974219825976,
          0.2933626951028346,
          -0.2976892317231379,
          -0.29000882972232683,
          0.08114736757925617,
          0.01730818558316509,
          -0.03925501815687521,
          -0.07517768689078287,
          0.21114045003415985,
          -0.3830848150931645,
          -0.1346699526167945,
          -0.040416161746299716,
          0.0836780062063908,
          0.018449670556372498,
          0.48507529150896317,
          -0.5990675587083167,
          0.06940489474131883,
          0.15338845624832603,
          0.29796858713121455,
          0.612843770024237,
          0.05288516160061233,
          0.2973115285028638,
          0.0701440015746866,
          0.0212021062983466,
          -0.4662284918351283,
          0.22230664944047673,
          0.20523148153103463,
          0.2402964375704024,
          -0.05584346985577265,
          0.09096053786164147,
          -0.1540938918793655,
          -0.02799386198905002,
          0.23217156427460045,
          0.0005789992602855309,
          -0.12979444466603357
        ],
        [
          0.07412280132369532,
          0.21435401123934403,
          -0.08447936036609197,
          -0.16092400750931743,
          -0.06148653998192487,
          0.1985125993428643,
          -0.7091199343853389,
          0.004316679500395719,
          0.8593749306164179,
          -0.1402529170722357,
          0.07016472200642151,
          -0.601060733728215,
          -0.29534697278679445,
          -0.3780122019394179,
          -0.1721660423248866,
          0.0880230410001942,
          -0.28699168106359113,
          -0.155147191537117,
          -0.20759316864586683,
          -0.15366414070682055,
          0.2399886510352927,
          -0.5729161055390914,
          -0.16658299776436095,
          -0.21348555712308973,
          -0.5424428353973427,
          0.3423161617262529,
          -0.5649063878052958,
          -0.30542787818752404,
          -0.13910567947087213,
          -0.02770004248008729,
          -0.07171800031945809,
          -0.0683962360144252,
          0.05727404367126022,
          -0.507134817488323,
          -0.13571708610440153,
          -0.007294866259458004,
          0.07049295756995533,
          0.06875100712703047,
          -0.4654109548750754,
          -0.018147566125517753,
          0.12273352824407466,
          -0.1111449976210512,
          -0.4748008082113492,
          -0.11107190558375366,
          0.2198334829303088,
          -0.08200595440049673,
          -0.22011921758972133,
          -0.07054852857770669,
          0.030845606819380825,
          0.285278829366399,
          0.08299328516354795,
          0.04035624550638384,
          0.385566642255518,
          -0.17905255254116365,
          0.0861227085449494,
          -0.19628669308250798,
          -0.6000007403803936,
          0.04795364340328462,
          -0.05549292742685928,
          0.007665943888229136,
          0.09461284342723926,
          -0.05160521123146933,
          -0.03782306830662808,
          0.4514423836208789,
          -0.6189580835618058,
          0.20782044727860463,
          -0.5998374474093671,
          -0.03800877973693461,
          -0.3990109275250682,
          0.36181506501437405,
          0.36460761792618995,
          -0.3169572363021291,
          0.12261451360104442,
          0.17726880739192702,
          0.32736930904072253,
          0.16798849345888708,
          -0.00790777495013504,
          -0.21031585080019646,
          0.06498500993850113,
          -0.27900555775044306
        ],
        [
          0.11524342198881544,
          0.13562332316676828,
          0.13242051326209003,
          0.06196543997044848,
          0.008722770868728745,
          0.7071492005346479,
          0.44717833034737053,
          0.2831132778185845,
          0.16093671401855705,
          -0.08506998013571679,
          0.04189721146084238,
          0.36782992372028633,
          -0.07377776660197909,
          0.4114741791398587,
          0.17590227847641654,
          -0.14009148584902628,
          0.07305866763872614,
          0.16984037986237743,
          -0.15017148550623405,
          0.2696906293004835,
          -0.12961009029760284,
          0.518396624564788,
          0.0920111436653582,
          -0.1314106015490149,
          0.3593276773719656,
          -0.2733284753827722,
          0.25931146402367006,
          0.02145896844869948,
          0.2581769221959599,
          0.05496789948409457,
          0.275208863245951,
          0.22730027802211797,
          0.08158114662941827,
          0.5904122148002395,
          -0.14789977885106556,
          -0.31903649920640653,
          0.2201493108213247,
          -0.14889197458370473,
          -0.31960829413742964,
          -0.40865692020139693,
          -0.07749448604639042,
          0.4926607935812453,
          0.3832591825774154,
          0.11972045721889352,
          0.4034414512013499,
          -0.02942842804916438,
          0.07301168573856336,
          -0.1615833706231304,
          0.0871743251694013,
          0.17237317633152643,
          0.003820490310561446,
          -0.15557714279219242,
          -0.015216053081020073,
          0.3012766450286872,
          -0.13329713838500223,
          0.5364496930768071,
          -0.1328489806377735,
          0.10381475012535789,
          -0.14777307237446455,
          0.2667734163085514,
          -0.04477748628295051,
          0.0014562912717687808,
          0.16675982595277572,
          -0.33186119583989404,
          0.07209465403894466,
          0.035122511601942547,
          0.09529920284975811,
          -0.07427111727556453,
          0.08878122997667283,
          0.14621183886826072,
          0.18696756111195956,
          0.29443869981199977,
          0.0013111332055294213,
          -0.17498899737857032,
          -0.31392016437013326,
          0.21631682917243825,
          0.11537473634051332,
          -0.47286118885941814,
          -0.04055355359212904,
          0.15849081246243152
        ],
        [
          0.42673090406353975,
          0.17387803547152328,
          0.11215466567529724,
          0.17406680052768134,
          0.17073231030119412,
          0.39252899546674125,
          -0.2857562364994566,
          -0.27529658371148624,
          0.3198960512691042,
          0.14601653132978565,
          -0.019925374979464856,
          -0.09644398720838568,
          -0.45317389459991275,
          -0.12182837836075341,
          0.17476670735163816,
          0.17640894966466888,
          0.24806709654695697,
          -0.03995870834425716,
          -0.036506313566240796,
          0.5400739894815638,
          0.08017643546445972,
          0.5131363461024241,
          -0.19321714955854302,
          0.04565935155177107,
          -0.32955083001208363,
          0.08091702958306031,
          -0.01952781116777476,
          -0.464561032665084,
          -0.06432328951186564,
          0.15474968809138842,
          -0.12099492350281041,
          -0.17768269997458594,
          -0.11506312530058967,
          0.4866502657172319,
          0.03699102608740076,
          -0.17542321697683594,
          0.32802943653216493,
          0.017932993631395975,
          -0.10080618858425831,
          -0.48413957678102315,
          -0.153339877323556,
          0.8542679243845199,
          -0.23797872094319572,
          0.023655921264776517,
          0.7045951738414512,
          -0.010659708682919261,
          0.05380466995955186,
          0.13651905650608318,
          -0.029114649256454916,
          -0.06653803167622852,
          -0.164531807714166,
          0.07833150936734361,
          0.007024642460567834,
          0.07283423425031042,
          0.2693898921495186,
          0.17440979017076513,
          -0.21724803077570706,
          -0.3080434035562211,
          -0.20027955808297002,
          -0.14088203760598159,
          -0.06620512497958837,
          -0.02796704973715361,
          -0.13303736260814067,
          -0.48560073688387634,
          0.19904887744624516,
          -0.05829325151774281,
          -0.17566499103618496,
          0.23033543355026043,
          -0.16071929808733118,
          0.463563870631487,
          0.081579479685343,
          0.10586829161881035,
          -0.14095469278183825,
          0.3922445581845467,
          -0.5819992144495405,
          0.29228084319978037,
          0.15039388261277947,
          -0.19078536746577868,
          -0.24677732615339354,
          0.5347964073255812
        ],
        [
          -0.0535495444501968,
          0.09167099723141887,
          0.2541751157179025,
          0.329084400353804,
          -0.2420931733542897,
          -0.36084070297056,
          -0.4423065027863668,
          -0.20618368646836974,
          -0.043183593658910786,
          -0.006137287924476336,
          0.12353926556870504,
          -0.41267399043508457,
          0.21024446337279012,
          -0.16896938933159245,
          -0.10506017396579016,
          -0.00273654289192436,
          -0.26160110954943455,
          0.038036013053659876,
          -0.3114821370849183,
          -0.36592795587605664,
          -0.04233082064142691,
          -0.20194304924790132,
          -0.11034215590253375,
          -0.11410168254122342,
          0.025082651799776146,
          -0.034117421969286195,
          -0.34458302795303497,
          -0.001285670863171019,
          -0.20141607442097803,
          0.04479148342240576,
          -0.1304521772333549,
          0.04165598344753946,
          -0.07183494125166927,
          -0.5959759036241571,
          -0.19212828855255365,
          -0.166970882110835,
          0.2279833563650408,
          -0.3254532677127592,
          0.253747310046954,
          -0.22482636848207246,
          0.009715747695499781,
          -0.5020853591273788,
          -0.47039575666487926,
          0.1587565754969459,
          -0.09071804959493386,
          -0.1340728394304927,
          0.2066031484121406,
          -0.3119723020837384,
          -0.21863546474197476,
          0.1258087190601484,
          -0.0005585716932363852,
          -0.04717631153708435,
          0.2086472595816113,
          -0.1545545766932419,
          -0.043011752308562974,
          -0.4023689772070065,
          0.22399581988375497,
          0.09868464610932809,
          -0.23847147167468996,
          0.19924972332364538,
          -0.17813547478272376,
          -5.6319486945615565e-05,
          0.1474730634591512,
          -0.3395587552809247,
          -0.29089614850217,
          -0.4481244146827683,
          -0.17815759745143045,
          -0.0253176082303063,
          -0.09201102609535902,
          -0.186132807445702,
          0.20715993284736745,
          0.2669392606422854,
          -0.2770158085901412,
          -0.12619969900583156,
          0.5967202009364102,
          0.00521270007578597,
          -0.20341549048356253,
          -0.3692037670997052,
          -0.6038474291816422,
          -0.10612392785169919
        ],
        [
          -0.042830842571217775,
          -0.05636916097428351,
          -0.04303423709351165,
          0.25432215719391393,
          -0.21341707711018015,
          -0.6053765347625474,
          0.10613239529081442,
          -0.0759231214626787,
          -0.7218557237341166,
          0.120479342427164,
          0.1371035327652957,
          0.5597048974454845,
          -0.2785728160206944,
          -0.19761511188421604,
          -0.045022384296672914,
          -0.024659966668544718,
          -0.3454201418656021,
          -0.01549769970047488,
          -0.10156703399980699,
          0.07159314154413068,
          0.10329543615062506,
          -0.25487475484054106,
          0.17434071346468394,
          0.09300695832103083,
          -0.041968010715761866,
          -0.045310553333417665,
          -0.09087239612264407,
          -0.35992890137584244,
          0.11848997995111166,
          -0.5156259311183209,
          -0.20296277908083987,
          0.2303712481249524,
          -0.21365992990379137,
          -0.23921855414535512,
          -0.08029845037068037,
          0.2975494890015657,
          -0.03780387099283682,
          -0.03977568895886375,
          0.09531495244112308,
          -0.15017646463435277,
          -0.041498514476211064,
          -0.2905462053064203,
          0.08266104250228927,
          0.10394274546698137,
          0.10291912491373625,
          0.032238072975446744,
          0.2756402624572591,
          -0.03959359377872212,
          -0.073248030415386,
          -0.12093449281133196,
          0.1493102220077195,
          -0.031838987091182755,
          -0.03501779308218506,
          0.1932193952126625,
          -0.18488208248448074,
          0.13433688793635204,
          0.05588495670810457,
          0.0028434058114878177,
          0.23698326577255205,
          0.04906366994760427,
          -0.13538687512950678,
          0.21797688140717922,
          -0.30867365241048517,
          -0.4498045748911978,
          0.1388804898378769,
          0.01628603312973993,
          -0.09888341604230566,
          -0.5047412804048762,
          -0.1497546743268626,
          -0.18314666674798752,
          0.18842094898872908,
          0.37101104538383706,
          -0.4631762540282228,
          -0.0828315606121209,
          -0.34973133534614365,
          0.08268374632647141,
          0.12604995861073487,
          0.4311906783211771,
          -0.4909370471054468,
          0.24312623569122746
        ],
        [
          0.06602208941750887,
          0.12145884916909383,
          -0.11424324923224008,
          -0.10280838599125573,
          0.18713675776460575,
          -0.1256341167780253,
          -0.23678809656416633,
          -0.1679195779735146,
          -0.2242267963498587,
          0.24908134673065332,
          -0.08607691218944692,
          0.5801729082829967,
          -0.47073080452676586,
          0.09446783711497106,
          -0.023573997335349706,
          0.0387173090908148,
          -0.31053688151644304,
          0.052485155836508326,
          -0.07470910386611687,
          0.09888377772911175,
          -0.05278113370812487,
          0.6231572893390961,
          0.409610414911717,
          -0.5907572307477843,
          -0.21184661159041135,
          0.11489717393233581,
          -0.17409307064594576,
          -0.24306576723717901,
          -0.07483130026516203,
          0.20579730298673096,
          -0.22730763946287927,
          0.29725931331680583,
          0.3088125794618956,
          0.7338791215207985,
          0.06373133698424623,
          -0.17294525342496675,
          0.05982610987916734,
          -0.07745173096972885,
          0.5860490542327572,
          -0.06914468859623032,
          -0.249629332973943,
          0.6743541652062507,
          0.3280695646766994,
          -0.009592624048094753,
          0.27094179014369385,
          -0.26226337289784646,
          0.3478032936366973,
          -0.02946561819068537,
          -0.2572520056794123,
          0.06357689170827574,
          0.051086653527316166,
          -0.18549988330791412,
          -0.12937581784298272,
          0.13237792900851203,
          0.031179734180904643,
          0.3792151614057615,
          0.009749745340989492,
          -0.07424561654139859,
          0.32610978282061737,
          0.2277457568701455,
          0.27220971665423593,
          0.2929212786238582,
          -0.1607973599437098,
          -0.5163105049392525,
          -0.20645520732585737,
          -0.07629806361852451,
          -0.17933143368784718,
          -0.07984545507979919,
          0.1121064195399527,
          0.13634416817113842,
          -0.013807861514817573,
          0.16433789274379265,
          0.17580282841357894,
          0.3825330392975862,
          -1.0503832548476362,
          0.1814808574657779,
          -0.025849475732027567,
          0.29660645261935253,
          -0.21244331804705668,
          0.24793272362366958
        ],
        [
          -0.25124488940815565,
          -0.11386884569603198,
          -0.18538456015284152,
          -0.46485581112631086,
          -0.024982584577283844,
          -0.044325026077457176,
          0.13480245026457152,
          -0.25679274131249125,
          -0.34959225236168057,
          -0.2872901561299701,
          0.06894226946133925,
          -0.3394610409547344,
          0.43337442518924774,
          0.1669637517957935,
          -0.004211459339150734,
          0.024278452600678433,
          0.06773697684375046,
          -0.06832574021458723,
          0.026997219703691618,
          0.2347149141944863,
          -0.16292052786093505,
          0.1532686861312649,
          -0.18796295168452876,
          -0.1700555818763212,
          0.29937553615744733,
          -0.006345850757485978,
          0.10243188404729536,
          0.06851553208350993,
          -0.004967867385024938,
          -0.27790682684384427,
          0.08616489314484393,
          0.034000624274980504,
          -0.11391352522849287,
          -0.22503309621857395,
          0.05487210448997581,
          -0.1983469887168583,
          0.19936774543474758,
          -0.0636023798579985,
          -0.00040533484323385295,
          0.3356410619869631,
          0.22211856141901817,
          -0.27951219402673444,
          0.18437427550181543,
          0.009738016031011841,
          -0.4596304889148078,
          0.021950556366474548,
          -0.27470138412981304,
          -0.253547014472982,
          -0.27827401096329735,
          0.11679098386264383,
          -0.03436983735178424,
          -0.13776426597557542,
          0.029639595824902113,
          -0.08566309830443249,
          -0.0801478493575473,
          -0.14500076965848074,
          0.07609766366511148,
          0.12834404795815788,
          -0.2910795992645706,
          -0.3249815033828025,
          -0.04723649787177433,
          0.05529850745318827,
          0.0060143557447437015,
          0.08442823588235976,
          0.01054645203453837,
          -0.17084380189756837,
          0.043372249196871895,
          0.20356635518657104,
          0.2033991035557539,
          -0.35835697423617185,
          -0.6334989617461897,
          -0.2696443565705301,
          -0.14979176623358847,
          -0.20930276252692265,
          -0.04573950944597966,
          -0.19196858918976092,
          -0.1763633863572885,
          -0.03342120586978911,
          0.25223120979557073,
          -0.02573842118536626
        ],
        [
          0.1680625762679744,
          -0.06301647824641554,
          0.02278891909884359,
          0.5503347397048404,
          -0.056771449224495764,
          0.09281439249480833,
          -0.3580536547868098,
          0.1586671467003478,
          -0.12083285849339981,
          -0.2002883826774046,
          -0.08772443974648234,
          0.1806098902566863,
          0.2202484688967048,
          -0.014749396551186405,
          -0.18642002560241075,
          -0.001035448791474914,
          -0.004795675077334579,
          -0.09477267229633253,
          0.006791665749157836,
          0.04456468756790535,
          0.025472958531930174,
          0.18738774405085326,
          0.01612044400340875,
          -0.5609674831490619,
          -0.38707507706550026,
          0.22024011192713125,
          -0.33850097020072184,
          0.09860404438695883,
          -0.1728760538749534,
          0.42081003518935184,
          0.028545878051060326,
          0.17549366654613935,
          0.21197032968081467,
          0.2501517454574499,
          0.14447733771170465,
          -0.5596189294887718,
          -0.2731329610892524,
          0.07486258329631519,
          0.02963186490726148,
          0.12102356719483681,
          0.09062222081089209,
          0.14942736128385853,
          -0.5020910114954209,
          0.08675800589165124,
          0.17308806686118436,
          0.15134923591883837,
          0.20237656095802642,
          -0.1258573536120522,
          0.12349434381224425,
          -0.014692435809219683,
          0.08823795831396763,
          0.16714676443406032,
          0.02157449724466961,
          -0.3474958128890196,
          0.298179297887434,
          0.07274732550256738,
          0.2117297457560605,
          -0.07107615566044902,
          0.023705778824912035,
          -0.08978565038399106,
          0.009247121041157986,
          -0.1856182821061973,
          -0.17056505731787486,
          -0.2943842498567413,
          -0.26975028931947115,
          0.0869584132959535,
          -0.08569695178867309,
          -0.34436409166863946,
          -0.15900967890700696,
          -0.1098212661670458,
          0.22351021576975452,
          -0.02891663673940095,
          -0.2513843651278425,
          0.024557056426519935,
          0.21516468698856903,
          -0.2333713620972542,
          0.10660919358457353,
          -0.2639521134561072,
          0.26651855325460216,
          -0.07702224276309416
        ],
        [
          0.18464612102062417,
          -0.04627959901126202,
          -0.15607716798074134,
          0.28212855795892233,
          0.02910126792401064,
          0.5192273894948215,
          -0.12121762541494241,
          -0.20649354582047802,
          -0.03940922924875717,
          0.09210051615679676,
          -0.09333957348367608,
          0.1311987161685583,
          -0.012669980776934644,
          -0.149541414123992,
          -0.05229233802894193,
          0.0852140082098946,
          -0.018494811193907775,
          -0.09884248363387181,
          -0.11346315360667376,
          -0.12660006098919924,
          0.24094797814049887,
          -0.10067567887636447,
          0.10020273973700392,
          -0.31432070902571035,
          -0.03811369419206109,
          -0.10136097239029745,
          -0.006476446543581074,
          -0.06708831239754975,
          -0.21703469369422143,
          0.0226542215206732,
          0.12551208070320286,
          0.032429358716113035,
          -0.0426758850365253,
          0.1988672387763679,
          0.25610771452349634,
          -0.3256163604127143,
          -0.023146582018804845,
          -0.06350146911505226,
          -0.14278997196662188,
          0.006819155047016853,
          0.06720674642783236,
          0.10183822812026502,
          -0.036891758180290245,
          -0.016366564940831996,
          -0.09714089121973962,
          -0.08899186780862536,
          0.2670929587787407,
          0.12352756620437683,
          0.011851149598048843,
          -0.051563757875658575,
          0.00028379223833955414,
          -0.018721081919104873,
          0.03506799468341095,
          0.4613833509003992,
          0.10025656206030173,
          0.14879735209238518,
          0.05581531713281947,
          -0.1194935334981456,
          0.10775529714156214,
          0.3280383508230247,
          0.07437716099106073,
          0.1377963242363903,
          0.14712943324463532,
          -0.1978423589732712,
          -0.16565820798165476,
          0.32780962593090585,
          0.021692283332038837,
          -0.15912927079053993,
          -0.08025953566798841,
          0.36067203216415317,
          0.4387064471759079,
          0.11542825934527007,
          -0.2763322991178531,
          -0.014953525817237252,
          -0.025154499785267966,
          0.042150321246432386,
          0.12274713708772896,
          -0.23145179893244294,
          -0.045937759996767476,
          -0.15692593966138998
        ],
        [
          0.05991766649625528,
          0.130620835149127,
          -0.19487418980636154,
          -0.24563015443416927,
          0.08983435427886492,
          -0.022717518579991564,
          -0.14593196147465218,
          0.018193690962286384,
          0.18777642685363435,
          0.13009385308578222,
          0.005460670546479236,
          -0.48351801252927995,
          -0.06349976538325199,
          -0.16412757848221524,
          -0.18976605049807443,
          0.0869361582057117,
          -0.057905180966789274,
          -0.05860219263713872,
          -0.20682971695659286,
          0.22174063635248273,
          0.028963877328271218,
          -0.1901141534902279,
          -0.3543343330885607,
          -0.3026956920043587,
          0.34782311148304074,
          0.171631664515905,
          -0.2582228592204262,
          -0.36537953326691275,
          -0.05097317110641299,
          0.08374729260994548,
          -0.2706092468256911,
          0.3936600623880078,
          -0.15027524289199054,
          -0.21956819359471821,
          0.10610193238036031,
          -0.006217473106670195,
          0.0378281873438837,
          -0.028416474759075397,
          0.4158679836811557,
          0.1417167336331981,
          0.1277917635198706,
          0.11523737885890979,
          -0.01785348493925476,
          0.10973375683586638,
          0.4379304066989678,
          0.1492404813809749,
          -0.18546884974245414,
          -0.04669868207385483,
          0.08522820752650659,
          -0.03926652192702326,
          0.13792008605799544,
          -0.08430964474440139,
          0.2545240825772903,
          -0.0920731003147199,
          0.3260061300246702,
          0.2737303145519869,
          0.11202828090373036,
          0.08943876362958483,
          -0.14756851697923343,
          0.031788434197603625,
          -0.32729828605742456,
          0.5586227999016844,
          0.11956232371550014,
          -0.29332547492403854,
          -0.19504040260744235,
          0.11604737612008323,
          -0.26101340858945016,
          -0.34714692686180665,
          -0.09595030430769899,
          0.21707548677413913,
          0.09402077198893719,
          -0.08284039753833773,
          0.14541016925931524,
          0.048543883860267006,
          -0.4209257443020877,
          -0.21173701890035015,
          -0.09997956586342902,
          -0.2374255857269387,
          -0.33033405829804846,
          0.3429067214190188
        ],
        [
          0.1350281915876229,
          -0.23222389410547467,
          0.10103065916682824,
          -0.10418744595142472,
          -0.09278628129924987,
          -0.2811322214993179,
          -0.07131274479980228,
          -0.004668495552817531,
          -0.4625590002491393,
          0.031087003164832424,
          -0.21484369220745755,
          0.5874786610142261,
          -0.07232548246801919,
          0.06168059247591864,
          0.026485756152048866,
          -0.06862238338207957,
          -0.6252394232164763,
          0.1403486329946893,
          -0.004427929718696026,
          -0.2238122281160517,
          0.12954988889870175,
          -0.3237418167593455,
          0.16427430485621103,
          -0.44394517167248615,
          -0.34863333404387903,
          -0.15072081675357782,
          0.1361150843453064,
          -0.13910440610860794,
          0.14363571040908693,
          -0.19131381742570785,
          0.07259483463304885,
          -0.008173906642747685,
          0.08353536265703274,
          1.0478515608363943,
          -0.18110300639375831,
          -0.5181617176561197,
          -0.1584763669696951,
          -0.07262513593571368,
          0.0796408058078859,
          -0.11780377121174392,
          0.23450998866219383,
          0.4666182396280741,
          -0.02442947619758332,
          0.13600081379627213,
          0.2926814944720875,
          -0.026036052334854617,
          0.2551909635571533,
          -0.046135099336059866,
          -0.012966885126592593,
          -0.2965905635519772,
          -0.18001545306850408,
          0.12916374026664335,
          -0.1100662239863923,
          0.11747604621726761,
          -0.2961733872580513,
          0.29080119549420974,
          -0.05050512148718108,
          0.026598293955252768,
          -0.02883104336074718,
          -0.019155570859286944,
          -0.14972905357899288,
          -0.08933507497944418,
          0.3041185027758883,
          -0.46105609347232995,
          -0.11522643249351693,
          -0.2043254151070443,
          -0.005972430340934864,
          -0.4254927445461394,
          -0.11926310811876673,
          -0.006300966342451727,
          -0.1257191223962409,
          -0.15628103258512277,
          0.1214155007418624,
          0.004066015602159451,
          -0.28342761258336513,
          0.20161568904704644,
          0.06669457642718214,
          -0.06351307249221348,
          -0.5231214604503738,
          0.009109239543288173
        ],
        [
          0.3773325343593794,
          0.17019927112292843,
          0.17560226697745118,
          -0.20734433386423357,
          -0.10274203795178471,
          0.10738914973150485,
          0.1012693700326098,
          0.046514932205917056,
          -0.3139564154509224,
          0.17860108557312404,
          -0.21491391221535913,
          -0.025800885222106884,
          -0.15977903381139333,
          -0.05290149812510808,
          0.04221054409416584,
          0.029653726912785262,
          -0.19367654030295922,
          0.018915720151248712,
          -0.01618540210991424,
          0.32195210886812925,
          0.0036559614845273676,
          0.20379487759553483,
          0.08029618420493155,
          -0.3732007661693027,
          0.22885475070185154,
          0.12633751792264938,
          0.3808717961402403,
          0.26065058954351905,
          -0.10615586928580399,
          -0.16051107501188358,
          0.2468008948326355,
          0.008059566827025532,
          0.3769413780482926,
          0.71241427470507,
          0.005547330647258797,
          -0.39079619032857416,
          -0.035056862287623274,
          0.0508379088595091,
          0.34194012361553305,
          0.19356528319306926,
          -0.02027684862242629,
          0.5829449339935039,
          -0.42435755546115056,
          0.1747276072278733,
          -0.027624725561741417,
          0.23417495214761877,
          -0.2439173578174967,
          0.15099368297816432,
          -0.3438200398600667,
          0.15706270682210713,
          0.10950641018084785,
          -0.16332517742690403,
          -0.15647296016347872,
          0.012714227819087338,
          0.16183884855817357,
          0.04261786510040424,
          0.1569888497585002,
          -0.16430392834016605,
          -0.10313704865987466,
          -0.1252772332137643,
          0.041985345462444715,
          0.014543140541971158,
          0.08257910366583827,
          -0.007675892431181696,
          0.19810686785912027,
          0.027910118097996504,
          0.400899503368052,
          -0.4222650241579271,
          -0.02215365590047013,
          0.29395133498627946,
          0.015094750912460753,
          -0.0150613122593237,
          0.0789238735580126,
          0.17554861980528597,
          0.015801740176726326,
          0.4073636563856176,
          -0.12406820297339075,
          0.19501338493696171,
          0.09560779785302621,
          0.40622388331643516
        ],
        [
          -0.08097927817452039,
          0.014422715555084497,
          0.10799936432194673,
          -0.0630695878862463,
          -0.04900596618803523,
          0.5291443365319435,
          -0.024602040865801346,
          0.10139019721995869,
          0.10521698555340434,
          0.34191771414469235,
          -0.038657618341012535,
          -0.10512291890083747,
          0.028233964687551395,
          0.04762348745930288,
          0.19389870866533293,
          0.13838933003831255,
          0.09514295976924216,
          -0.09890033753696635,
          -0.18302769559650442,
          -0.3394736751607048,
          0.3475277289356253,
          0.44777923514732537,
          -0.18325427393069138,
          0.22171240212795218,
          0.053042381835603,
          -0.003708270278592239,
          -0.23678344706132762,
          0.3181171601956802,
          -0.1271849844324927,
          -0.21860501289913276,
          0.19520030282381837,
          -0.12407192571575176,
          -0.025883103994592975,
          -0.15141005940467056,
          0.16868259056495005,
          0.13257958566803585,
          0.1807851831178761,
          0.07781197955504508,
          -0.17943256620594927,
          0.360784666822773,
          -0.07936712684608127,
          0.07056113959828801,
          -0.02468461438955211,
          -0.03924356976215752,
          0.05786099737875275,
          -0.019753155412791136,
          0.06877700448525807,
          -0.04196988120173965,
          -0.3014118761589001,
          0.09846684112498531,
          0.24971697993929876,
          0.12053049933278777,
          0.21685046995387317,
          -0.15419398309088805,
          -0.015459643261193902,
          0.19103701196126907,
          0.09987706980399873,
          0.15541540345169727,
          -0.07340135267274119,
          -0.012297997515655868,
          -0.320331012902449,
          0.17362076780564026,
          -0.009676118667246646,
          -0.11429147951673682,
          -0.11582219052633604,
          0.16089857079943853,
          0.143402343901777,
          0.3071581404171184,
          -0.006422510527866214,
          -0.15589571815708986,
          0.26425648014186137,
          -0.18048344405121983,
          -0.11396758107073936,
          -0.2347408875614908,
          -0.05534200305906699,
          0.1353585820392517,
          -0.11216902057179429,
          0.1257449473252955,
          -0.18289459619919174,
          -0.24282424134899835
        ],
        [
          0.13846566222544482,
          0.020055035138821807,
          -0.2373784710127454,
          -0.049962972014133064,
          -0.05714211390228284,
          0.023519731564225363,
          -0.5347752759233065,
          0.07234163364966793,
          0.26048328119414393,
          -0.29961917795584964,
          -0.03070498145761502,
          0.2991762075262982,
          0.4010200808911988,
          -0.33933382683028335,
          0.12024862085352915,
          0.15031253501061836,
          -0.21953632392256875,
          -0.22997549851228358,
          -0.2840113102340077,
          0.14723392075205635,
          -0.2595358386534299,
          -0.1969014633251148,
          -0.011815582166384892,
          -0.10078435110839949,
          -0.37369251034607454,
          0.06644071262086958,
          -0.5984375597595692,
          -0.0524179005543235,
          -0.025733193111845267,
          -0.3351137123849434,
          -0.1785451351822925,
          0.12475563064921912,
          0.03634671130823397,
          0.1976087180950947,
          0.02613752669430725,
          0.07331280492063945,
          -0.41354766261549747,
          -0.01729444030988249,
          -0.02679044716685583,
          0.013496411640665578,
          0.15440374211076646,
          0.07222129719979009,
          0.2989476026745162,
          -0.01598610134651198,
          0.11612615846555596,
          0.24073391823535806,
          -0.04646269058136522,
          0.4274070760705442,
          0.0035813797049887974,
          0.05672353188902898,
          0.22469523579329814,
          0.11939417636352476,
          -0.14120788244756083,
          -0.4891128387638434,
          -0.015086058857827062,
          0.198233392777927,
          -0.15153680291901184,
          0.005116978708201277,
          -0.0024107257002175817,
          0.037203492009683876,
          -0.09564202483634364,
          0.18093845493838512,
          0.34182584992778625,
          0.1601742280831001,
          -0.64441176798254,
          -0.13366152770445253,
          -0.536557532879185,
          0.05440551942420703,
          -0.41175409593302387,
          0.23914836556286648,
          0.25577369923666243,
          0.07256078124327003,
          0.11947969632944722,
          0.09716553698122313,
          0.4814672161673654,
          -0.01757288928617737,
          -0.10896153945600515,
          0.0033644176498056747,
          -0.3180765349469422,
          0.47633816463066303
        ],
        [
          0.11685975181887294,
          -0.022128410907803868,
          0.16110178864706806,
          -0.1134840441849614,
          0.14706501446915957,
          0.15947336603276357,
          -0.7509591916752953,
          0.28342390650086413,
          0.22212749577905375,
          -0.031795603752073964,
          -0.07058746719401407,
          -0.037609026556192894,
          -0.03600755650357816,
          -0.30385160292501123,
          -0.33836103822666924,
          0.1180012686583835,
          -0.2128810126943136,
          -0.18068223077268622,
          0.2946711263325495,
          0.21350166096325218,
          0.10599815186393745,
          0.09385148972795271,
          -0.09774861996036532,
          -0.49127251897688706,
          0.05200959701024148,
          -0.023463784199020444,
          -0.7159625780545468,
          0.34178443653161955,
          -0.33960601668333223,
          0.005339039082030341,
          -0.41256031169319296,
          -0.01216539833521651,
          0.06655333110619305,
          -0.13413543569940303,
          -0.07391259521647023,
          0.015938687718950857,
          -0.32381502699042736,
          0.09854005805120093,
          -0.24604177084727363,
          -0.27453677257014075,
          -0.04977090635964771,
          -0.36315656679444014,
          0.03510424717169442,
          0.020142076281664503,
          -0.2105974880526571,
          -0.028425372257378352,
          -0.04695543852317005,
          0.256514754224573,
          0.4585467842745366,
          0.14726112504017455,
          -0.10729626820169269,
