{
  "layers": [
    {
      "activation": 2,
      "biases": [
        0.01594116645936305,
        0.01612256905640743,
        0.08071372400673296,
        -0.04448159030876317,
        -0.01499535829770715,
        0.012877113924816322,
        0.023898935543054032,
        -0.025796389617434422,
        -0.038418574004982026,
        -0.040547761809373896,
        0.01616228140031502,
        -0.13895743811908906,
        0.009277491490958361,
        0.07284614748156233,
        0.07586183443684683,
        -0.006944562922950843,
        0.11236180070122677,
        0.004903324916317987,
        -0.028179879518270824,
        0.11445743726407913,
        -0.01814415377107572,
        -0.05495964728530438,
        -0.08733298723322135,
        0.03639760895049748,
        0.04004171770707507,
        -0.01274663633620177,
        -0.17608985283744577,
        0.16540596486087272,
        0.037990275878507715,
        0.08825633381200486,
        0.038407750159078484,
        0.03556855420560029,
        0.0057530380468606345,
        0.0004743033541469201,
        0.05877776392113435,
        0.015267895363083286,
        0.176483944222766,
        -0.006991777555522811,
        -0.01890274121027775,
        -0.08362602167968256,
        -0.17781008351721295,
        0.08576832145170618,
        -0.0483594917774769,
        0.0015564305340571166,
        0.01393487715269871,
        -0.00913679119173224,
        -0.15043611207891527,
        0.11550471286811989,
        0.10359647959913443,
        -0.016138915213869356,
        -0.016846446693389073,
        0.08605345033381953,
        0.1060934684527959,
        -0.1531347411382964,
        0.010865766905046538,
        -0.017176343223366825,
        0.09649288714404183,
        0.012525924645990612,
        0.03724848176010417,
        -0.008212294786822835,
        -0.06942514651043621,
        -0.014920052228508477,
        0.10425512458703438,
        0.22663968958841513,
        -0.019661402463553627,
        0.005454729588193873,
        0.03197565766043721,
        0.1229975562072645,
        0.11669650190077648,
        0.02171582344036267,
        0.07258019218438282,
        0.09386231923549025,
        -0.09397602351836025,
        0.10532908157802648,
        0.09112560396776885,
        0.1113047198554771,
        0.05190351259585209,
        0.015892543496346,
        0.08161433912457418,
        0.092290175773829
      ],
      "cols": 80,
      "rows": 130,
      "weights": [
        [
          0.09667283589484994,
          -0.010393413879494169,
          0.1945937685638489,
          0.028851242028705586,
          0.025859100243699196,
          -0.23978006675945557,
          0.028599822715883787,
          -0.024165043529500517,
          -0.05748963241153365,
          -0.11989149080256982,
          -0.14431750357999146,
          -0.037336935692474316,
          0.17952594230230853,
          -0.4318350880903236,
          -0.23349566120535425,
          0.012337461599462253,
          -0.26268727917533563,
          0.1643785264363656,
          -0.0007923619345140645,
          0.13515364262321383,
          -0.04824005914731291,
          0.039494124792386454,
          0.05564065942161157,
          0.12884926890341694,
          0.016453260338105444,
          0.13244676611393671,
          0.07872080321798054,
          -0.31209442704514134,
          0.08875349070195464,
          -0.06172933691567856,
          0.10839335033004616,
          -0.1631785806867611,
          -0.007681597350032582,
          0.10715399957005176,
          -0.25622499932879506,
          0.03428811530970512,
          0.2742625589659387,
          -0.0889371125314318,
          0.03090443873304969,
          -0.02168331798717494,
          -0.13146696662645144,
          -0.06419494281043553,
          -0.047973240969128104,
          0.1465601388035337,
          -0.04618928360153506,
          0.0024219024806622622,
          0.018044292589062087,
          -0.109613305815337,
          -0.08526032065466793,
          -0.34178931318746325,
          0.13752890756944924,
          0.20272558876426608,
          0.01860240225593184,
          0.11846513826409695,
          0.03417152382038322,
          0.05604126862064172,
          0.04533473399986776,
          0.03503997152365832,
          0.0907099509193177,
          0.07986067839951887,
          -0.27603566811359237,
          -0.10465860220991453,
          0.13447731943844965,
          -0.5315122694809155,
          -0.13175024152113538,
          0.13774513293646531,
          0.24867239893350554,
          -0.32931348419269313,
          -0.14046175626820934,
          0.09970296559291837,
          0.0457239440923642,
          -0.18317068399245887,
          0.11160144683994025,
          -0.022655200308053732,
          -0.1448472194974519,
          -0.16155047005978904,
          0.0812449859023641,
          0.03757120916254302,
          -0.026409880694748387,
          -0.26116440053135404
        ],
        [
          -0.20773543974892975,
          -0.19751981834438276,
          0.0733610736442469,
          0.06186394126150379,
          -0.08252789515686969,
          0.18880584642579404,
          0.04938706937308772,
          0.06985152036457185,
          -0.08867903476120464,
          -0.022961152637133782,
          -0.182476177473232,
          -0.24526216992334707,
          0.049683176333810815,
          -0.22437805310059997,
          0.012753538836182791,
          -0.2508053315078921,
          -0.11573973206019587,
          -0.22636928131013992,
          -0.1837320986194244,
          0.013091546505673412,
          -0.1104103632596225,
          0.10619567724676783,
          -0.14489964187381363,
          0.07895528439107868,
          0.0702759593859821,
          0.0024606480289594895,
          -0.08597364140316949,
          0.011687354190899047,
          0.3992443341216667,
          -0.5762355209811759,
          0.07290707268025541,
          0.11551998138115227,
          0.012191378194868504,
          -0.015293423702313843,
          0.5348594310282518,
          -0.2321409642711218,
          -0.16643575865693921,
          0.23714654308637526,
          0.013652303573173092,
          -0.21821149797626457,
          0.07273822366081426,
          0.09217725373144166,
          -0.4444254890311688,
          0.05125315447882936,
          -0.20197484753503814,
          -0.11177160350314967,
          0.2416086226425219,
          -0.05746206932001662,
          0.12560988928163452,
          -0.017431161221740675,
          -0.15302962986996146,
          -0.025580665598043048,
          -0.02212670692980349,
          0.24472264007746275,
          -0.19871608753584397,
          -0.06543287699243222,
          0.03329988542572002,
          -0.00042501358777651633,
          -0.05075173059611355,
          0.13245130514408104,
          -0.024229805875738267,
          0.3004993178090029,
          0.298776391064676,
          0.0977862310863022,
          -0.19417764668807375,
          0.07023689552184621,
          -0.3743919528030916,
          0.059418626083886136,
          0.3974091867974052,
          0.12217807486480836,
          -0.011421305436913174,
          0.011671235993301212,
          0.014206483546570593,
          -0.004154094733478587,
          0.12901643588122894,
          -0.45212354165802476,
          0.0734263742956334,
          0.15801301650515093,
          -0.3734551817946219,
          -0.12310803944649766
        ],
        [
          0.16044409269157467,
          -0.1761645929281141,
          0.18732493004968875,
          0.19892058888994552,
          0.08082010045666937,
          -0.02604044241123766,
          0.0215428696695147,
          -0.18255308735702463,
          -0.12540943542233726,
          0.261419832140285,
          -0.12540590598490856,
          0.24218790267719803,
          -0.10240954670095766,
          0.14030335622602624,
          0.08205939976737141,
          -0.12277437927983668,
          -0.04612098506649919,
          -0.208696591538474,
          0.12730596470568717,
          -0.2502468613772698,
          0.27399723298261497,
          0.09692767461126514,
          -0.18641644706604463,
          -0.04720156033448353,
          0.15641324306867402,
          -0.23742970965268273,
          0.2390881118759098,
          0.14820254578207204,
          0.21240243604831813,
          -0.39517658555281027,
          0.2894585413674395,
          0.0095049899239254,
          0.02937496297347363,
          -0.1956892092583318,
          0.10651842265498666,
          -0.37341251001249803,
          -0.03153114122521881,
          0.05440836727967482,
          0.11288414078434861,
          0.0900769433160157,
          0.03391620642856005,
          -0.09338196861310719,
          0.010214359144219795,
          -0.1704249863117262,
          0.12624418349728184,
          -0.2056071406520255,
          -0.04516383348226527,
          -0.003503390900241291,
          0.011217181053356791,
          0.2423766581131368,
          0.14054694650962454,
          0.02462686120939233,
          -0.10843067455262871,
          -0.28527894479306476,
          -0.22381267025536866,
          -0.03075589254461018,
          -0.17471844353346538,
          -0.188420440625888,
          -0.052250539553945916,
          0.04560434122877292,
          0.44207346078779425,
          0.0407904752392419,
          0.026871380380841085,
          -0.10550872119616496,
          0.0009233388313749008,
          0.04891440576245422,
          -0.38225088968189463,
          -0.22915659941150898,
          0.0772002377662979,
          0.060941268096095035,
          -0.09448348176049672,
          0.02906310768659794,
          0.122783936244341,
          0.3319290300225219,
          0.12732465434130374,
          -0.11061828050913337,
          0.09790184862429076,
          0.3445256750244555,
          0.10540211211827906,
          0.11494129706979453
        ],
        [
          -0.021126254370116632,
          0.18246187066524,
          0.10579322869713458,
          0.10079793985617329,
          -0.14548519344878894,
          0.005903068020962638,
          0.1610720689501814,
          -0.2645043014914557,
          0.23996137806662654,
          0.22564048279208831,
          0.0463193055932582,
          0.1960291304520271,
          -0.12835793973410572,
          0.11076525286253268,
          0.10436974179116902,
          0.20786609099023798,
          0.11425352490695714,
          0.08430378825357208,
          -0.05142005826075166,
          -0.2019855451977767,
          0.06718334648613847,
          0.12730206687126053,
          0.18429688585484974,
          -0.06776190764691471,
          0.06918995049263728,
          0.058636850282137616,
          0.022323497930376305,
          0.12125305012512043,
          -0.011857456738622894,
          0.14721003385692763,
          -0.01024957239166228,
          0.13218100452566217,
          0.0023174509545153925,
          0.017353364968683477,
          0.2015092963207164,
          -0.09701855339288802,
          -0.2303317951406929,
          -0.01707835908242842,
          -0.07010229430676618,
          0.32696443725384483,
          0.08903692933930332,
          -0.1552111436845393,
          0.25473037430057227,
          0.06322998508087121,
          0.008351485828798915,
          -0.05572787859443999,
          0.1830842225967738,
          0.030092429214243863,
          -0.01779818270569424,
          0.06772606244724115,
          -0.12422658930119974,
          -0.06262766978891902,
          0.0757989872481834,
          0.08253080854168551,
          0.09108246366808974,
          -0.004863538319562099,
          0.2411392329548629,
          -0.05870148461751648,
          -0.1981894525829041,
          -0.04359980909331559,
          -0.04902911319070804,
          0.15222635960188277,
          -0.1483588690385578,
          -0.1081434517184588,
          0.24686974110683935,
          0.18633250878546487,
          -0.006825877202391672,
          0.08679139813009164,
          -0.07874084876686929,
          -0.046843768660677895,
          -0.18373315378332444,
          -0.25009521914440475,
          0.028649205153522303,
          -0.1081997202336463,
          0.05343107300016389,
          0.06344150181379017,
          0.13356858383186673,
          -0.23672880807001057,
          -0.2329165501637041,
          0.21924339674833124
        ],
        [
          -0.1823768619932143,
          -0.11843876341303484,
          -0.02230913578935422,
          -0.1205884473431715,
          -0.011099990680318769,
          -0.18000892647100872,
          -0.10256834632238768,
          -0.12597960675559072,
          -0.10985694204515538,
          0.1575868125865818,
          -0.09838771306193296,
          0.01682838400534284,
          -0.25745049941092357,
          0.10321050049383577,
          -0.05424492237719066,
          -0.21243188674382898,
          0.12196327230523056,
          -0.18727900742075895,
          0.12226379422639046,
          -0.180545871272244,
          0.20319022708567908,
          -0.30999729223676975,
          0.11181712872955181,
          0.04307527074694927,
          -0.10823878935022693,
          -0.15580722015150666,
          0.055813262847072234,
          -0.07336589306835094,
          -0.07306792883993907,
          0.15029756195328056,
          -0.1364552884654546,
          -0.15572292312064928,
          -0.1588864433521106,
          0.10773888244929672,
          -0.08145982532322535,
          0.014913234610878593,
          -0.121967810918585,
          -0.009095581735420464,
          -0.0012661233272989027,
          0.11792137903398581,
          0.1740129172425301,
          0.12688666777316637,
          0.03956889516894848,
          0.14514989776049228,
          -0.02945769747243818,
          -0.04699690289680565,
          0.3082229392050117,
          0.047816234851172236,
          -0.18803044841601427,
          -0.05439843021589963,
          -0.02211343603120844,
          -0.010103891779542597,
          0.14936735809728094,
          -0.02055471346218581,
          -0.03096638141845968,
          -0.17413979502111063,
          -0.10181030548563026,
          0.024313884285443378,
          0.15901862393845898,
          -0.11449790792147767,
          -0.18886383759068007,
          0.1488988553005874,
          -0.03922200130371223,
          -0.13696673468006765,
          0.06126993736238765,
          -0.12961347863945558,
          -0.23908644839923812,
          -0.18605567166809964,
          0.14139396525491701,
          -0.129434841372572,
          0.10172768923239717,
          -0.029519915003028675,
          -0.09296202700028275,
          -0.17199209026750326,
          0.2969471675115745,
          0.06218660239559967,
          0.03360152402776577,
          -0.10029910919728462,
          0.09986127946699698,
          -0.05245478574518616
        ],
        [
          0.17428560515288705,
          -0.24171753217220665,
          -0.0816474361479791,
          0.18953680461947284,
          -0.4254065787242065,
          -0.02275897148484965,
          -0.20680871282816266,
          -0.20793268024288653,
          -0.12484245804182187,
          0.1132580882820375,
          0.17751079095207473,
          -0.11194026847484194,
          0.10724530370477832,
          -0.055433848971009315,
          -0.0003916476539150605,
          0.021031480690998937,
          0.17225692194310577,
          0.2820281382455504,
          -0.059767438998577,
          -0.09753333448054849,
          -0.20881273836285297,
          -0.006441980836708812,
          -0.007153169819792587,
          -0.020709136317913383,
          -0.2232139981816449,
          -0.18655151452867197,
          -0.038478086088997984,
          -0.22423490107827612,
          0.028868529035166283,
          -0.08400957291226076,
          0.13435180499600494,
          0.05393460301580087,
          0.016067915211800617,
          -0.14885346050803708,
          -0.26767279466384664,
          0.00552364793404425,
          -0.04590396841347459,
          -0.041485925733121,
          -0.20691035203261454,
          -0.08018884011388652,
          -0.053958769275742925,
          0.14981012756923276,
          -0.1886278086723001,
          -0.06077647115024567,
          -0.28192810550033154,
          -0.026740643442397755,
          -0.1114967875780802,
          0.026518902530962094,
          -0.1850713075409367,
          -0.07895720039334302,
          -0.1375682588343469,
          0.034803258942277746,
          -0.20480788510290768,
          -0.024512136909716084,
          0.14248551974324827,
          0.15269394297987257,
          -0.017328372232866825,
          0.05109554761736103,
          -0.007664127920971799,
          -0.1841350094475298,
          -0.06306505884006748,
          0.12348685371879826,
          -0.13469326798488238,
          -0.010902269257911542,
          -0.18912819632394434,
          0.08465428034854289,
          0.325751175653535,
          -0.045530510036912865,
          0.060273465469429716,
          -0.09685077803711252,
          -0.04708672179757445,
          0.004016296450571062,
          0.06684839463958801,
          -0.17167283580931975,
          0.2447862682225962,
          0.05839056392702779,
          0.08494558622124142,
          -0.07118565350143652,
          -0.09496367962835965,
          -0.20602157977533633
        ],
        [
          0.15996405916259418,
          -0.35132304553574045,
          -0.07857130957559347,
          0.06362058893845442,
          0.0369762221383294,
          0.19716536950553773,
          -0.04985151629720313,
          -0.15275689960609687,
          0.15690591123912181,
          -0.1759405063368022,
          0.39767850581503505,
          -0.16892325278515682,
          -0.015221461543506464,
          -0.06772516785055098,
          -0.15227995786687998,
          -0.10231335694993986,
          0.3914072927097894,
          0.18308341770925024,
          -0.11466808244289022,
          0.10914249451899606,
          0.010263078271582527,
          -0.02033202840116612,
          -0.0007386401682755002,
          0.01829813821892692,
          0.18735318689776592,
          -0.07060630644735073,
          0.03509428257743826,
          -0.07286799728741411,
          -0.13240940733720888,
          0.08689704520409934,
          -0.12769789721567176,
          0.014975449388570075,
          -0.027032900697931708,
          -0.09995079188166257,
          0.14417556049908745,
          -0.03100787985935132,
          -0.15709889922098275,
          -0.1742698271730604,
          -0.0059818545477029845,
          0.0849174622242498,
          0.16918692761309836,
          0.0030819229427067178,
          0.08479903234723746,
          -0.0955206529105331,
          -0.22774741635675738,
          -0.06636873595155682,
          -0.10081658952896735,
          -0.050336073990833896,
          0.21628952735823825,
          -0.014671682633053068,
          -0.012529035300756441,
          -0.18026507164006234,
          0.03298791499126175,
          0.004334486574400197,
          0.025755744605833047,
          -0.01871795661486562,
          0.07679960019543011,
          0.038924567740121145,
          0.11175365275054853,
          0.06368193653739107,
          0.2599913963187054,
          0.09082125723923115,
          -0.019302227885322886,
          0.04439373988508957,
          -0.049689802766875575,
          0.18278561247762456,
          0.2538613744525081,
          0.03276457035113423,
          0.13540758708412412,
          0.14977760493035616,
          0.012177074115321887,
          -0.10056725940934273,
          -0.1575854463822883,
          0.097276648043268,
          -0.25958167536513793,
          0.2899147381913036,
          -0.04985199377192891,
          -0.15928396462573932,
          0.03640006088561921,
          0.08380051582472377
        ],
        [
          0.04929283532345968,
          -0.16090802361129428,
          -0.17077503340235187,
          0.1268460407496912,
          -0.2792613625170898,
          -0.018226545320481596,
          0.08620207174184633,
          0.06500514415667276,
          -0.2823351157467837,
          -0.06793732019123455,
          0.06824686538262575,
          -0.06988572346595158,
          -0.17588866078537468,
          0.054996401447650244,
          -0.1394808625351528,
          -0.09246254453625635,
          -0.1507479209343047,
          0.06527588174877517,
          0.31155451328325645,
          0.07613476145998901,
          -0.12397156432407376,
          0.14827073448106207,
          0.0385045960523246,
          -0.0837136175162636,
          -0.12299091856125938,
          0.11553706590595086,
          -0.006473608895258656,
          -0.05234712522418077,
          -0.22243889315591495,
          -0.15616580253790385,
          0.13070368666053517,
          -0.09348341924776708,
          -0.06039554908723279,
          0.07413153371527992,
          0.14989954814044315,
          -0.0473485427860276,
          -0.03723702241556771,
          -0.0031440622059539162,
          -0.026461871790957613,
          -0.33786019461379324,
          -0.15022316556134999,
          -0.08221501682956445,
          0.08499740095658093,
          0.1950152666681716,
          0.06258333894222279,
          -0.04237322391262425,
          0.2729789964144914,
          -0.10000764658819328,
          -0.12237370412882023,
          0.04076044640825531,
          -0.005162681257623316,
          -0.036220495692211196,
          0.15660278987137913,
          0.22518775451125406,
          0.00028967136534593176,
          0.022940171385902534,
          0.1823633604251313,
          0.07792700961724133,
          -0.10740945810784518,
          -0.046984072750684495,
          0.2010432592034031,
          -0.06589901601343585,
          -0.04161995279580953,
          0.05824974325779322,
          -0.001330238389056573,
          -0.04171061926060439,
          -0.2812890472851991,
          -0.06397680618745989,
          0.08449624698397638,
          0.10185408913159583,
          0.024034003796684848,
          0.1556254618558685,
          -0.042785872308269184,
          -0.0044332406192490546,
          0.2598227793374912,
          -0.19377159377913772,
          -0.291411266865112,
          0.04170520778964116,
          0.04194569515588978,
          -0.08079107564072491
        ],
        [
          0.07404186444949853,
          0.13566754645248122,
          -0.04472551332178374,
          0.06667713881611517,
          -0.3074260294832494,
          0.10569260261019787,
          -0.06150989631360548,
          -0.16757784908051787,
          -0.006342263788461743,
          -0.0877863828583462,
          0.27743427871799936,
          -0.13499340323085757,
          -0.25957011612869985,
          0.02303807905268833,
          0.490170330106826,
          -0.19399498812670937,
          0.028450048072555148,
          0.08896331750810595,
          -0.06702637743690598,
          0.2000625507832399,
          -0.05138228567637003,
          0.013622575134555082,
          0.21862353176102498,
          -0.22659188888987186,
          -0.22566705296874848,
          -0.18571320467284108,
          0.16493980777337922,
          -0.1393774370429193,
          0.2523202810297082,
          0.13473368046720915,
          -0.25561944391728053,
          0.059879065367157265,
          -0.2075442941890921,
          -0.05249201842293676,
          -0.12939830764972984,
          0.13486011445962767,
          0.20139877235741088,
          -0.11695438749806722,
          -0.00040219420309649956,
          -0.16586201048188193,
          -0.04477237486289172,
          -0.10721854252845357,
          -0.20318378559385303,
          0.08726206898475929,
          0.05255189525324756,
          0.009973217786033514,
          0.086187590493427,
          -0.17207347200502893,
          0.07251850937435678,
          0.1608928261667511,
          -0.060655280392873066,
          -0.14955490272149313,
          0.07219648724033975,
          -0.056652616174665826,
          0.029024122914323044,
          0.12401728906829389,
          0.14830457726737195,
          0.027289118153161703,
          0.214833136998918,
          0.3030869129545516,
          -0.32304197937020046,
          -0.03071444608568228,
          0.000510462634757389,
          0.15714985934810802,
          -0.24177463307798677,
          -0.07316853469740829,
          -0.1002680566792934,
          -0.0769095147471212,
          -0.037754131343578023,
          0.09497855245666915,
          0.06431333874917783,
          -0.07389743932562476,
          0.19414239855210766,
          0.22362688837259698,
          0.016073160011815472,
          0.02969312030349932,
          -0.04389195165388044,
          0.0708104548470574,
          0.04900827727104266,
          -0.22145391973447864
        ],
        [
          -0.34367362086944003,
          -0.12306915021972716,
          -0.18875189693711114,
          0.0797219993218858,
          -0.14944941437958878,
          0.08351559688107435,
          -0.21610004141655567,
          0.11658878498135086,
          0.01907182492425973,
          0.07621435617485971,
          -0.030028132805401998,
          -0.19564677593710927,
          -0.4200643002163116,
          -0.08482114771756402,
          0.25318727449060235,
          -0.4136384248317968,
          0.1178145018483993,
          -0.013498705158029882,
          -0.2729622632429724,
          0.05195926390837713,
          -0.030961472038687307,
          0.14852118717510074,
          -0.07181631372356194,
          0.160734937061133,
          -0.13609675422807246,
          0.008432670303031051,
          -0.17521495525006317,
          0.1678959964056423,
          0.0836274511447536,
          -0.10736413490245127,
          -0.24576621685635597,
          0.18105088053482535,
          -0.28911917054789527,
          0.13418253526879567,
          -0.18214061426607436,
          0.35139658052224915,
          0.22390688401730768,
          -0.019458462335984673,
          0.01890858805902573,
          -0.15272803235838242,
          -0.04736624009684373,
          -0.14963429664960873,
          -0.008290933146431619,
          0.2637892474299163,
          -0.1832738098415378,
          -0.10585650058258214,
          -0.16705290502047623,
          -0.11648157435874842,
          0.10664342360283958,
          0.0073564660333746935,
          -0.13126059114384664,
          -0.1041324205016837,
          -0.001336198719936008,
          0.058075106352400735,
          0.04380809360258323,
          -0.12560378735355104,
          -0.03900258234630754,
          -0.011635870513066353,
          -0.07288057224647142,
          0.028937822732169965,
          0.09299898514874094,
          0.16334653173858413,
          -0.16089602620615454,
          0.2361542350851862,
          -0.14847922387696696,
          -0.2083445747848212,
          -0.38944851711065354,
          -0.018791303451546854,
          0.11463351266434778,
          0.15457539894791283,
          -0.028697028659479384,
          -0.00035740980209263417,
          -0.14179833625797264,
          -0.030889889595404594,
          0.006303645134023862,
          -0.018847521859381586,
          0.05894823689663047,
          0.11398909885488936,
          0.06288381706045325,
          0.1306880502116026
        ],
        [
          0.05991434807451495,
          -0.3381291703550951,
          0.05458244677904341,
          0.0011300142835311106,
          -0.22213154093270476,
          0.020111767943043698,
          0.0003760939310294791,
          0.0821552190389645,
          0.12733686203192596,
          -0.007579267129535379,
          -0.26737228601284174,
          -0.08972088570094439,
          0.08796962766216287,
          0.1621908627089967,
          0.13718379915175674,
          0.016426202965222656,
          0.06837938371655676,
          0.11104487199783138,
          -0.1031608012499496,
          0.10792382638287767,
          -0.17783096332142748,
          -0.09920087142673827,
          -4.249208569358462e-05,
          0.005661922236422823,
          -0.02113637088063468,
          0.06424952840224626,
          -0.052324266841522436,
          0.18948349193684788,
          0.42496866064071676,
          0.3272022001021683,
          0.0846640851570997,
          0.06337931564450709,
          -0.04998525572284451,
          0.22731788710796785,
          0.08998906413631744,
          0.21777991489389145,
          0.17808111839297333,
          -0.05902190062665647,
          0.11568541198571036,
          -0.01099971417239806,
          0.04373004887434027,
          0.10688971202507368,
          -0.01257319986479367,
          0.019441016437716348,
          0.19134336303659824,
          0.15656714159544224,
          0.09226412035174193,
          -0.1948208217021749,
          -0.27068593617563824,
          -0.036943025133915994,
          -0.12366499059793973,
          0.07885746357620795,
          -0.10991091939568166,
          -0.09080027624589194,
          -0.20628247582497733,
          -0.020596225609824576,
          -0.17154105304247055,
          -0.05642007711289374,
          -0.42949198795249766,
          0.13519854922252503,
          -0.31579874447545864,
          0.06899596805460188,
          0.04474215330183013,
          0.4068635997361301,
          -0.09371514876564033,
          0.26185568167831214,
          -0.1172538327422269,
          0.01621922360423291,
          -0.07541139779496954,
          -0.011131586536767412,
          0.276418814653992,
          0.013995255393979045,
          -0.05818763150846923,
          0.20796601295892173,
          0.11333231106370845,
          0.1715547543576234,
          0.1780329590000133,
          0.005886614890459921,
          -0.16875426509860178,
          -0.08129819620752791
        ],
        [
          -0.09600220500907085,
          -0.09251899652815854,
          -0.09224093443050994,
          -0.018277326655378904,
          -0.031982519785745275,
          0.007322619387351046,
          -0.01547525888214971,
          0.18333362501550232,
          0.07363383361334704,
          0.11152478782289385,
          -0.08793972862982877,
          0.16234971658974065,
          0.17887883251486142,
          0.04004604631744365,
          0.045575308952112606,
          -0.12523185331482461,
          0.14166976594024255,
          0.1397641746564909,
          -0.1726877696834553,
          0.07758210245708029,
          0.07797682708253315,
          0.07533162268967271,
          0.21940256765355906,
          0.051652601822907505,
          0.06689820599825798,
          -0.19239516661797582,
          -0.2420498577505321,
          -0.10465486170333137,
          0.05012631061519345,
          0.05237463517504112,
          -0.027062477401885016,
          -0.31622779464014966,
          -0.028675493500521395,
          -0.044139456992059664,
          -0.022902914108397038,
          0.15775137565022154,
          0.14998794440247548,
          -0.07310685472472576,
          -0.05427027868629787,
          -0.019986369049654153,
          -0.018817336553389533,
          -0.10341210677761861,
          -0.03199407998248918,
          -0.010680368498298102,
          -0.061838204706921106,
          0.0326729731600144,
          0.14003437284827575,
          -0.10507506686537055,
          -0.21328799867185885,
          -0.143445813441126,
          -0.0934999618162578,
          -0.056070175193721546,
          0.11484199048750185,
          -0.18603114851978586,
          0.251257536394022,
          -0.09916515228369602,
          0.12094998492528422,
          -0.003611330096476061,
          -0.3016556055042535,
          0.20883994703134687,
          0.05064715107410003,
          0.05674493024191713,
          0.06727980126001347,
          0.32452485653772734,
          -0.22770909012568008,
          -0.0927367564704453,
          0.3295446785672731,
          0.3260838907729725,
          0.018346168767585987,
          0.007320171860287364,
          -0.051386693098969226,
          -0.0766869735825913,
          -0.0949079059433234,
          -0.01855582561297957,
          0.17025011984601016,
          -0.049307281538178156,
          -0.25458237036816483,
          -0.19236853769042284,
          0.1804469636013344,
          0.0063110489152161595
        ],
        [
          -0.03398350775936393,
          0.34299287361135167,
          0.11023206084902602,
          -0.016695276561914447,
          0.26778224569930137,
          -0.08195265954095575,
          -0.04953008299488844,
          0.009290520402674607,
          -0.16573575842476804,
          -0.0030911040924818203,
          0.11244397759739136,
          0.11237804595050374,
          -0.14813667058981464,
          0.05595115622636161,
          0.15361721585555543,
          0.17675991715346806,
          -0.08796917649371976,
          0.07575059217975431,
          -0.1530015376127409,
          -0.10815513631771177,
          0.06919673856563884,
          0.026561058151810236,
          -0.11290066235301124,
          0.03258755265596845,
          -0.17131086941830254,
          -0.1989237184658971,
          0.01668558760747506,
          0.22801169387942022,
          -0.02123220757549088,
          0.10036053368526854,
          -0.10647307681516607,
          -0.10450535418772691,
          -0.3150564993324737,
          -0.15323541639202057,
          0.026773371096300132,
          0.10388986900474938,
          -0.08400437129610624,
          0.008101105927682078,
          0.1605269452286942,
          -0.1452576704532628,
          -0.1372382992301408,
          -0.005673280806715365,
          0.08121422883187739,
          0.019425853705978477,
          -0.14724676301233455,
          -0.2531574809310634,
          -0.15580948572876843,
          -0.011662467308941701,
          0.12169681764173307,
          0.059446006497705775,
          -0.07589939865299863,
          0.19309477299655398,
          0.13748362822497073,
          -0.04819628658140383,
          -0.1657510252959136,
          0.26394179540299056,
          0.10638542597548203,
          0.027498474754237872,
          -0.02871144886310692,
          -0.12807624185122116,
          0.07396725264782313,
          0.14831396425870874,
          0.0455656222521823,
          -0.02322241548916182,
          -0.05209105558796394,
          -0.1362682681487032,
          -0.049790597348948626,
          0.06536204389519329,
          0.1432557860329713,
          0.06129790344735007,
          -0.157358225749892,
          -0.07777212233859751,
          -0.05637967679038545,
          -0.09767784646700754,
          0.05247601117997262,
          -0.1873513056317113,
          0.08459265444253032,
          0.11521502863782675,
          -0.16608519136582484,
          0.16083778471762022
        ],
        [
          0.045751977000406834,
          0.0259501037005427,
          0.16748839059455545,
          -0.13963922944046542,
          0.2427398255460138,
          -0.03786241426315953,
          0.11705399957803182,
          0.008160717674504452,
          0.29249100501363373,
          -0.16868784033234538,
          -0.002522622106478945,
          -0.052061876671414015,
          -0.029102342279124324,
          -0.17354430175992502,
          0.1558485429078359,
          0.15530932569178668,
          -0.0621108426314343,
          -0.23148710489689497,
          -0.1104395574570162,
          -0.09308719049398917,
          -0.15867666433601185,
          0.06217834634938881,
          -0.14199664902810605,
          -0.07133646998868047,
          0.1635500876016129,
          0.03144311428243588,
          0.09744555797570136,
          0.05414791326330301,
          -0.07571622386565798,
          -0.1026099602549591,
          0.0446955965320497,
          0.02848540961377432,
          -0.01954634463069691,
          0.004190774961599654,
          -0.06866550586806888,
          -0.18742136456172032,
          0.09468851960459847,
          0.07687420330992832,
          -0.15164927661511185,
          -0.16694029456955925,
          0.17051288173013102,
          0.12683398776396138,
          -0.0023634427998703634,
          0.1620016369260734,
          -0.03057483043093107,
          -0.03385834600468158,
          0.11274340661213368,
          -0.0014654737643988822,
          0.12588564561392346,
          -0.12927755192535426,
          0.01307231563151844,
          -0.09090611548931032,
          0.09136820887856703,
          -0.0904482551889524,
          0.1294150665905862,
          -0.17924001316594992,
          0.20059134350817473,
          0.12780604689110633,
          0.17996527273930524,
          0.019451697224558567,
          0.06272055165048998,
          0.2213799584154864,
          0.14012649504739114,
          0.2260782914977801,
          -0.03432013448047335,
          0.05724718928370617,
          0.23312140752514518,
          0.05488465336454383,
          -0.1617444359087683,
          -0.16092741420503845,
          -0.2667114407313677,
          -0.02637948705536937,
          0.11290645833265994,
          0.045245704999559974,
          0.05891866683339521,
          0.07780062801900488,
          -0.03275976633552107,
          -0.13898920069366894,
          0.02581627947282209,
          -0.16263831711406115
        ],
        [
          0.04127457513589615,
          0.16361160749170123,
          -0.21165094813083168,
          -0.041094009026068905,
          0.23168078674222173,
          0.09583036119053268,
          -0.10659120980267855,
          -0.006275489826008276,
          -0.2528775511361513,
          0.14876816492701417,
          -0.04797496756930757,
          -0.11608825822118622,
          0.008412081672510932,
          -0.03130976232515204,
          -0.10209382786707986,
          0.058292125927034776,
          -0.10031209709233994,
          -0.08048233643432401,
          0.2139738942857235,
          0.06613468759640811,
          0.1804378897183544,
          -0.17047651622109197,
          0.04521785630594835,
          0.15771699585642723,
          0.11454243451681596,
          0.09719494089299315,
          -0.08939261959454958,
          -0.05945776928185754,
          0.0033120706139013597,
          0.19352876476068107,
          0.03415374980180712,
          -0.12184141180857132,
          -0.11119369372762676,
          0.05494300188864967,
          -0.0029465560336717073,
          0.03272905555961959,
          -0.1065152741797141,
          0.036198229914788896,
          0.12126202131691152,
          0.0002739068035797768,
          0.10029307970589212,
          -0.09876662195582153,
          0.026939811655846337,
          -0.04742864437978799,
          0.05982516908921708,
          0.10042611617289364,
          0.13051296887772587,
          -0.33515237182606405,
          0.11034078998567427,
          0.17969075536157553,
          0.04549554047932992,
          0.14680119158001972,
          -0.1487243520019454,
          0.01514211639547371,
          0.06117633452439018,
          -0.017009344886394242,
          0.07806401896951658,
          -0.03862892292443534,
          0.24693300415377775,
          -0.27301978824569434,
          0.3002109030357018,
          0.17467147700194013,
          -0.12868094698075327,
          -0.16797779255260908,
          -0.05968568823269046,
          0.051424217867520786,
          -0.14223529289867912,
          0.08799128809322478,
          0.05012491148296589,
          -0.011590814493208668,
          -0.04055561674943085,
          0.1348159353993299,
          -0.09992470996942461,
          0.036954599782135625,
          -0.18685529129806852,
          -0.2869391324919469,
          0.004295338793118311,
          -0.14777842333632218,
          -0.13754279032035166,
          -0.01282016336354927
        ],
        [
          0.1675580606384093,
          -0.1769686575866324,
          -0.01939227324987243,
          0.10546236676256565,
          -0.17156923746794142,
          0.11393149396181955,
          -0.07552962613071999,
          0.14256257004091863,
          0.03429482398153571,
          0.016094896195369853,
          0.0004857895386238662,
          0.20971033089804456,
          -0.09300820303490628,
          -0.003351348045977241,
          0.23494950178422846,
          -0.2895547838334876,
          0.22072780134432105,
          0.1454201169017061,
          -0.21367741358248665,
          -0.13805312653440696,
          -0.007946253425096268,
          -0.10257813763871634,
          -0.22573442785878595,
          -0.06725801810027664,
          0.0866743887456951,
          -0.0934869513682414,
          -0.04996396801302433,
          0.21463557637735023,
          0.020362065148010405,
          -0.0775011943374926,
          0.05786056421386892,
          0.00659402911896961,
          0.03813868618025392,
          0.12814263280141008,
          -0.08750831653265584,
          -0.11908370751264567,
          0.06049315866464856,
          -4.637571395769565e-05,
          -0.033526589836441,
          0.20608310407625677,
          -0.08277175119419189,
          -0.09947594232063003,
          0.07938841048253871,
          0.054615623783511986,
          0.15314190783828258,
          -0.07884381954475117,
          0.2500236453998463,
          0.03716890779535648,
          0.005367701176242942,
          -0.07766792401719405,
          0.09858207659938982,
          -0.12517242686796834,
          -0.11020139882846564,
          -0.17185300567759257,
          0.050382027983966106,
          0.01917247555282865,
          -0.11544979936177802,
          -0.19291723485172216,
          0.16865670402776678,
          -0.14999659527630665,
          -0.036120247237755136,
          0.09347634930021914,
          0.10233451367185464,
          -0.08489645838834073,
          -0.15899207553994202,
          -0.20273613875966542,
          0.13834128887557048,
          0.0026240337562343954,
          -0.046362778915219206,
          -0.08910762042417114,
          -0.05493188096567897,
          0.08247772962702614,
          0.13676980993723464,
          0.23728981344413463,
          0.1076384371922365,
          -0.18410755419273153,
          -0.13205765073988981,
          0.1029580362918921,
          0.014290746435610919,
          0.16520971544180868
        ],
        [
          -0.24115279238179516,
          -0.01328230593443848,
          -0.013030470790564097,
          0.0159293972425661,
          0.16785894967847134,
          0.05999212435436723,
          -0.0203969534906125,
          0.01665692889577666,
          0.08206087177251283,
          -0.19371619096007187,
          -0.0005789221877329845,
          0.19621314847088758,
          -0.33575237364964394,
          -0.07698613008252712,
          -0.08799162071447995,
          -0.0708987652453987,
          0.15808847958590472,
          0.06800106027419324,
          -0.04331238312819491,
          0.0022497694397995986,
          -0.07335964274236666,
          0.18078720098638126,
          -0.06314732217633152,
          -0.04471622189908278,
          0.17331374054084123,
          0.1367451559369799,
          -0.11466832928986787,
          0.1829330059867415,
          -0.1472608701356462,
          -0.00048617090395046896,
          0.115886521542379,
          0.10180928658570905,
          0.3132982703971065,
          0.16942571171229784,
          -0.06448567983448567,
          -0.06490701461971583,
          -0.07220385200392705,
          0.09527657128828519,
          0.02612171252477359,
          -0.024693990671870232,
          0.006674678119288849,
          -0.025283141249680282,
          0.15844249060927634,
          -0.06909581362367229,
          -0.07687215849672169,
          0.18245514913044422,
          -0.2061623244607184,
          0.04090883991018798,
          -0.06555598406249236,
          -0.06177443646738278,
          0.05696191219401781,
          -0.051349022018033125,
          0.19166527902794897,
          -0.10853625370542377,
          -0.17599993677664144,
          0.0872226217066268,
          -0.09788826414199202,
          0.19460639888577258,
          -0.29860920271174435,
          0.02287525418152714,
          0.49928478469583426,
          -0.038455616608879424,
          0.2513667359500367,
          0.048654018718441105,
          0.15544150912757734,
          -0.10323875814937676,
          0.05855488159899381,
          -0.003962885242285426,
          -0.15240070912917483,
          0.05065736067070678,
          -0.041731787835544695,
          -0.07512757361142418,
          0.12320940606199635,
          -0.17002930015805467,
          0.07297121210138088,
          0.2516070189942477,
          -0.1408905023822748,
          0.010174241871365411,
          0.19048233395573697,
          -0.39905084352939924
        ],
        [
          -0.29185091959899884,
          0.1889368588859724,
          0.08635181040671516,
          -0.11395189925521353,
          -0.07220228554428046,
          -0.008954452469418514,
          0.09719023100023443,
          0.1810987416634567,
          -0.02314369570618334,
          0.18386453130994942,
          0.18188905611950223,
          0.10728252553283937,
          -0.0010019751898662054,
          -0.006486206169278422,
          0.2101093504550152,
          -0.29193947533512954,
          -0.1902714190740846,
          0.17281200981668055,
          -0.15693592042134544,
          0.18313046698278995,
          0.13855929355223942,
          0.16187272122354998,
          -0.17373930201720542,
          0.06891130658799886,
          0.10394395514002372,
          -0.059359555435085844,
          -0.044026972960214086,
          -0.1380068039462945,
          -0.08830929568135944,
          -0.0558311109341976,
          -0.009498866645235736,
          -0.11884090784351195,
          0.1579221850694588,
          0.13137312637274762,
          0.14793366215702147,
          -0.0024329624306353346,
          -0.23977016950393507,
          0.0774497316842176,
          0.15228454356483445,
          -0.12849403720670968,
          -0.07901513225603485,
          -0.024763620807240896,
          0.1502986215494595,
          0.025734347343248337,
          0.04857625161688185,
          -0.0407308660613906,
          0.07363307789600892,
          0.02096451643580803,
          -0.1985816704139074,
          -0.0009057265844068043,
          0.09592077844433951,
          0.18389688834409318,
          -0.057015302098307845,
          0.12084206895718741,
          -0.2205378034300065,
          0.1252550101861588,
          -0.23652528173681986,
          -0.015091355797773343,
          -0.03472959850648429,
          0.04679969983748619,
          0.11475297337090777,
          0.007805297366744898,
          0.09475987697175806,
          0.06530414020413292,
          0.17003379093520166,
          -0.11949928553948401,
          -0.13333384818736302,
          0.19498468047421716,
          -0.19539041527100323,
          0.1365425171620076,
          0.03659314412935477,
          0.01881225187912847,
          -0.05617984890479021,
          -0.06531600885536,
          -0.20888094093423015,
          0.01738741853691171,
          0.02027403063564581,
          -0.012959827652030659,
          0.029948670095567828,
          0.1020908667623639
        ],
        [
          0.11550462558810111,
          0.14558661659912386,
          0.05677944461600072,
          0.07711597824670911,
          0.07302481262719258,
          0.05945080168256918,
          0.1550778494024667,
          0.18818347635239677,
          0.05305538122847242,
          -0.002171909457205591,
          0.04769429841978542,
          -0.20960777582473392,
          -0.20531207686868896,
          0.006319091989052998,
          0.2649402817336555,
          0.2527706991872899,
          -0.26095215579420783,
          -0.02535746384613533,
          -0.028548482210761037,
          -0.16717029614282705,
          -0.021082886062405107,
          -0.1742019983541869,
          0.021173279280021245,
          -0.06677005692648048,
          0.1984489600767703,
          0.0762282141126102,
          -0.11997829118064905,
          0.017433893100952964,
          -0.16747198382623013,
          0.09597268888037765,
          0.05292705616379258,
          0.000988397930788899,
          0.1109126431241166,
          0.06026262867258396,
          0.10132532235488918,
          -0.05800591733293421,
          -0.1602988363206012,
          0.000680303824167829,
          0.04964712812586933,
          0.16569863396718648,
          0.1072237980990662,
          -0.06488041101756745,
          -0.22755278270164203,
          -0.1312897753931775,
          0.15625538753336757,
          -0.03355964602028917,
          0.005500446525973354,
          0.13222895473753127,
          -0.09272417222411812,
          0.03233372672220631,
          -0.18649647991652438,
          0.0016657571702621465,
          0.09223742190580561,
          -0.23247066360436228,
          -0.046114294913573495,
          -0.22475327528320588,
          -0.22716108009784494,
          0.2012950252606483,
          0.19356167333436983,
          -0.22646819314636965,
          0.00422487706782273,
          -0.17948277387581585,
          -0.2787978115509088,
          0.06285352111527177,
          0.004275571623007117,
          -0.20956810688896055,
          0.16435486354358175,
          0.04498749729759907,
          -0.16883674164995233,
          0.05485075832509533,
          -0.27884576372788056,
          -0.020795662539950643,
          -0.0641641610900098,
          -0.000933758690682522,
          -0.18275271568615772,
          0.12116367876347274,
          0.06174070470212043,
          0.1855374521865654,
          -0.18706105657048863,
          -0.039257000658596296
        ],
        [
          -0.2948084749483213,
          -0.057515111395160946,
          0.19476574328898938,
          -0.1838581884923271,
          0.290401510114788,
          0.20613708909229053,
          0.1363348654464563,
          0.1208112915836551,
          -0.14966215092915866,
          -0.10641872157595908,
          -0.024351851165682035,
          0.08820046039807786,
          -0.05833332445515149,
          -0.06112790996492498,
          -0.2534523784544949,
          0.08420345232479282,
          -0.01904193379384897,
          -0.030748576038578727,
          0.1901631119803533,
          -0.051308136351734576,
          -0.19890721764666783,
          -0.08419898750669708,
          -0.06662070447377062,
          -0.07780110993873973,
          0.18288014872634506,
          0.22775153008241988,
          -0.20760060179013395,
          -0.07803176904667755,
          0.06574249057388207,
          0.05154121749576247,
          -0.07838453596672326,
          0.10025373241994892,
          -0.02342933005739259,
          -0.09301466182810708,
          0.17624326858234765,
          0.23113539378308587,
          0.058850037367689276,
          0.05631036346651221,
          -0.03232090541522386,
          0.06895725256666893,
          -0.043783271719627065,
          -0.05172046097567667,
          -0.0019717726534611724,
          0.1305675871301062,
          0.11600782724999248,
          -0.08251220563108415,
          0.0668194477664973,
          0.12372366504874083,
          -0.211457963857672,
          0.1777390914250247,
          -0.15077823666259454,
          0.10435002064333143,
          -0.08493490660982383,
          0.24401407105847892,
          -0.07620741239033099,
          -0.10303261486606893,
          0.11586689713081638,
          -0.11294868729564676,
          -0.19521803894607773,
          0.09620790025238188,
          -0.12073128733122455,
          -0.26089162685423944,
          -0.11573795286186211,
          -0.06853372249589257,
          0.04463931672966183,
          0.16028295522939048,
          0.2193015456069089,
          0.048400690218424795,
          0.17380345821893872,
          -0.12259551145727866,
          -0.14517187651199817,
          0.004862481153494977,
          0.06995067415884522,
          0.08200838123665252,
          0.07344013773706733,
          0.13262171887974827,
          0.06933758951157244,
          0.0561648637434941,
          -0.2191046328738456,
          0.052488146872879136
        ],
        [
          0.08734322016178958,
          0.13332013576914942,
          0.016472606065047822,
          -0.021209812130159055,
          0.06786094551882622,
          0.17229435457701237,
          0.07551239976577899,
          0.02248337576188054,
          0.05667045748699206,
          -0.04745903844755285,
          0.10580194427539123,
          -0.005371892766283747,
          0.03104459735585445,
          0.009329446119547,
          0.15946646111951762,
          0.10404850782417824,
          -0.10596564348634989,
          -0.06851999287548984,
          -0.22516136293493846,
          -0.09450189026544041,
          0.03197252372255784,
          0.03779719768667689,
          -0.15231570462304514,
          -0.09384725948938451,
          -0.20533423499691822,
          -0.13534746791009625,
          -0.17099046441729268,
          0.3174647889576526,
          -0.3809136996968663,
          -0.10617384129840986,
          0.01406489911487905,
          0.10936620101850451,
          -0.034583570206972,
          -0.13932534448788475,
          0.03211868857053276,
          0.1814833043245425,
          -0.057230825967697345,
          -0.11830395414599748,
          -0.2685883455169037,
          -0.1006434972927312,
          -0.11237541282898976,
          -0.23701621189257988,
          -0.12670115429723203,
          0.15518710504430788,
          0.1460544383105403,
          0.07784002187288072,
          -0.2890832696819282,
          0.07218962216519714,
          -0.04613786705541336,
          0.08844273815546431,
          0.03354988016579094,
          -0.22201446670602934,
          -0.08202455664261452,
          0.0944336907974604,
          -0.18644042808550118,
          -0.14816569187906076,
          0.15555793170026955,
          0.07077166854747255,
          0.02106677749637283,
          0.2061755292831406,
          0.05589667803940031,
          0.03886944545788437,
          0.21875933666383687,
          -0.0730952244380687,
          0.15418882325354952,
          -0.12819129779602875,
          0.04754096849677827,
          -0.2615605938049343,
          0.12921128202839155,
          0.22508805756545278,
          -0.23447134668793596,
          0.12234489779970507,
          0.14876874003188084,
          -0.06432247388331923,
          0.04369942448713964,
          -0.09399996726043834,
          -0.1529164439444982,
          0.2261621684838393,
          -0.0802282532218341,
          0.0955261545551742
        ],
        [
          -0.21700482003859942,
          -0.05894319055545205,
          0.022586024870277898,
          0.0321191553970781,
          -0.10196156957510863,
          0.006546875450078197,
          0.20522623305439416,
          -0.062083148243730325,
          -0.02709394765018605,
          0.20876445793763887,
          -0.05474253735292327,
          0.06962039056176957,
          -0.17693811784805405,
          -0.016088139937524278,
          -0.09137544274714048,
          -0.12164385471342667,
          0.02610740012756013,
          0.01333731078551411,
          -0.05176803015746596,
          -0.08470890107417471,
          -0.04164591839139594,
          -0.13138773818876653,
          0.05735273857596161,
          -0.15724746690263483,
          -0.23047924601630274,
          0.08387366438166434,
          0.023334993294278843,
          0.12674801370361294,
          -0.00531091387627894,
          0.10272742382394091,
          -0.08599952736686614,
          -0.036343070052289574,
          0.06982949345846023,
          0.15925778587760434,
          0.06675872760742284,
          -0.018690743042854976,
          0.22343025476941622,
          -0.15011294856904112,
          -0.2815237182532118,
          0.11327671905471984,
          0.13755579861130418,
          -0.07789477682742203,
          -0.024833299383384366,
          -0.030574600226782975,
          -0.18501812587033561,
          -0.16455742981922952,
          -0.04568344191184165,
          -0.12715223809460816,
          -0.17932921168504679,
          -0.14992968535303966,
          0.03622031448324439,
          -0.034181602901579046,
          -0.06507495317466323,
          0.0411056696185763,
          -0.05675192098653555,
          -0.12677519305985405,
          -0.03766914843756043,
          0.12231524657964578,
          -0.37689285743351786,
          0.17549371372633443,
          -0.13831369088923579,
          -0.000891927245639665,
          0.11033689427015257,
          -0.00935346008501902,
          0.18655895362642752,
          -0.27435095619747,
          -0.2338098165915084,
          0.05816698387481556,
          0.05676762094847638,
          -0.09750399804696927,
          0.16182395600779215,
          0.1585348913718763,
          -0.042128044436023984,
          0.10352514717485563,
          0.14085444919444323,
          -0.22992665432783949,
          0.09735346324036366,
          0.14629413516487447,
          0.09352086989532539,
          0.02058266353455968
        ],
        [
          0.14434299845001433,
          0.05452549643423891,
          -0.10801825578802571,
          -0.12725708929246934,
          -0.12452623483309641,
          0.22823472377797924,
          0.13962703253418138,
          0.25118178669386293,
          0.07227212442966187,
          -0.07178253859656872,
          0.09363389208436118,
          0.11829257198135552,
          -0.3541465448485586,
          0.19018288351906232,
          0.1756056548522896,
          -0.07899115828377026,
          -0.13655153886446086,
          0.09525952513535026,
          -0.02896710577960217,
          0.14882377773319766,
          0.11794347305405713,
          0.12123412410020712,
          -0.05673843117791555,
          -0.15241168903827354,
          0.05961711711732587,
          -0.05836157951094349,
          0.20208977999075636,
          0.14785180582701632,
          -0.17276609326469194,
          -0.2566153661480914,
          0.22552871768430177,
          -0.1781805115799515,
          0.02848305828232965,
          0.08435566570605174,
          -0.010830756064749186,
          -0.16398946816086393,
          0.07998304117062094,
          0.15152967446017848,
          -0.03550552668457417,
          -0.04676059137579703,
          0.0502840023602579,
          0.017245756681879672,
          -0.2484690142688163,
          0.029880748143217853,
          -0.11790154249837534,
          0.043811560187239994,
          -0.3719896537197405,
          0.30573217022475246,
          -0.08443138163914622,
          0.05951589334414604,
          -0.04122911894536071,
          -0.17202968050501702,
          -0.1335255319682719,
          -0.2542438546166228,
          -0.1768937366773389,
          -0.09386149641542912,
          0.026249921726812377,
          0.0653754166653594,
          -0.04161793325593126,
          -0.06993810875742612,
          -0.014631727015882626,
          -0.07492474264573153,
          -0.015229789983231259,
          -0.13166595227250555,
          0.049417722705756235,
          0.06351321992432406,
          -0.02866987561491411,
          -0.15649194984692225,
          0.03605096137909749,
          -0.08308303618038422,
          -0.16195451565969976,
          -0.03213979704760786,
          0.2003223287861189,
          -0.07526064814225837,
          0.07144146821079991,
          0.08943846574248664,
          0.11214138138304718,
          -0.18309727122180375,
          -0.10915259168891309,
          0.0822586548998744
        ],
        [
          -0.052887710232211754,
          -0.07744841587605851,
          -0.18499592432322642,
          0.0008279441973976462,
          -0.18551443513339722,
          0.03827885338336203,
          -0.16196580437592137,
          -0.11152276738768038,
          -0.23449362557868342,
          -0.0031074950422974377,
          -0.07093441371619441,
          0.015263366433035299,
          0.0041347389461537315,
          0.19969373965427156,
          0.14773394208731794,
          -0.08694523695993224,
          -0.13472862218803572,
          -0.056301199040180785,
          0.032922990028537186,
          0.11456402719572185,
          -0.09826425448154923,
          0.13784739494990522,
          0.1388097917723597,
          0.03160828927168722,
          -0.19394054938133706,
          0.05686032243879021,
          -0.14581472939574386,
          -0.2575819763947062,
          0.16852267485474942,
          0.1821063570318307,
          -0.17085204340248714,
          -0.17837632754434285,
          0.011172689366421932,
          0.12271489624957398,
          0.009734034924154172,
          0.021557480296178374,
          0.08732467307925919,
          0.12240069071275232,
          -0.14715152586824243,
          -0.03238557873540677,
          -0.23738152907748697,
          -0.10556459038982846,
          -0.15345864257664216,
          0.22765061637920123,
          -0.1821362284300966,
          -0.07748378845898313,
          0.07329831340541894,
          0.06087518918620229,
          0.16454201675018038,
          0.17956721132175868,
          0.2643969672485103,
          0.04722531711005207,
          -0.08682365084531209,
          0.09698588521154508,
          -0.028391741663401818,
          0.17117687196158043,
          0.08287533194426865,
          -0.11380836389474625,
          0.24367156637230483,
          0.08510125509082905,
          -0.02319764198386807,
          0.14849970630304696,
          -0.2273463347672341,
          0.27145912367983066,
          -0.026139362020406384,
          -0.056820709131120084,
          -0.09685720157888625,
          0.08518330419376881,
          0.12364222483482386,
          0.006512404638602702,
          -0.300920961872691,
          -0.0809314942104817,
          -0.03066765452764634,
          0.06395716705772671,
          0.005220257861328651,
          0.13320457653204,
          0.2033592945366032,
          0.0544838649576314,
          -0.20883589762450092,
          -0.23320898442574262
        ],
        [
          0.06521792603711898,
          -0.08758377930682212,
          -0.1141252509966984,
          0.056029204801286876,
          -0.21164724296931844,
          -0.05057680813466678,
          0.09311824225184993,
          -0.09674360345925741,
          -0.1370336601169739,
          0.16415750788461184,
          -0.23282792803348673,
          0.11148958491265745,
          0.05917362460036623,
          -0.1399739611142223,
          0.12008306196053492,
          0.22007658605122452,
          -0.002593673220753165,
          0.23180066586096335,
          0.30299544565957026,
          0.29118832591224497,
          -0.06614694055693994,
          0.03554298078365967,
          -0.03523460204016788,
          -0.01482371257333981,
          0.24788604539725312,
          0.014635415476206847,
          -0.27614691259578333,
          -0.11271921032089473,
          0.16146596529969529,
          0.07393732985512333,
          0.1502273588479962,
          0.10980427326084849,
          -0.018832636662804065,
          -0.08610816791413456,
          -0.13815869413890305,
          -0.16015628639579196,
          -0.009201224799069267,
          0.18655318400078164,
          0.009824379312860232,
          0.1301396969454712,
          -0.07173421698678945,
          -0.16584155354138705,
          0.035189212809865165,
          -0.013039425386639018,
          0.11010909087257864,
          -0.11750285927471384,
          0.0050263800668386574,
          0.026855312386972394,
          0.17220857796744476,
          0.051115987709772735,
          -0.06092500508620297,
          -0.2005272217034464,
          0.08454120761570012,
          -0.025478799674086217,
          -0.16936237988468533,
          0.2949120569708195,
          -0.20828276648637,
          -0.06797540673031868,
          -0.22842043989503222,
          -0.10822199168196402,
          -0.0728908591872224,
          0.2528872176273989,
          0.08233893676769723,
          0.1547508052831699,
          0.03204482200736118,
          0.04535632357110935,
          -0.05208016691454827,
          0.04617576962653228,
          0.08299114182570758,
          -0.1004424281667276,
          0.0940190989319052,
          0.15869530162384493,
          -0.1538279768083883,
          -0.2203938727358795,
          -0.25484985185695486,
          0.02382101409192166,
          0.01587850339559936,
          -0.12276775352949859,
          -0.09796224765029435,
          -0.0947798390516301
        ],
        [
          0.07881381556148302,
          -0.002117015235517711,
          -0.04552461119734064,
          0.10531332412217856,
          0.26710093833599385,
          0.1337261958256918,
          0.08808502019702905,
          0.23541340185437856,
          0.14302278059277196,
          0.20867530623886554,
          0.05570337007940575,
          0.05395521892201781,
          -0.2608785402710654,
          -0.1785782481420242,
          0.17470406228519925,
          0.05139614263496898,
          -0.27268228897330227,
          0.03832546430182513,
          0.06824393255929657,
          -0.005033206192102996,
          0.1825586431815508,
          -0.04922217777685868,
          -0.016145964786193064,
          0.14034758201347614,
          0.01031271136857312,
          -0.1933913387096969,
          0.16308941186500525,
          -0.13580301415164076,
          -0.15823926874743602,
          0.047879712003393686,
          0.012615007563513764,
          0.17978551727318673,
          0.05846849646599021,
          -0.21818869248799003,
          0.013836814106224558,
          0.08131978055641709,
          0.09152072959236855,
          0.06413056265385791,
          0.08272973545316852,
          0.018172536442941988,
          0.059600437964396645,
          0.03132285015195489,
          -0.06906468253546803,
          -0.045105526275924755,
          -0.11921727035265894,
          -0.09968149635650332,
          -0.33700057846647263,
          -0.12775450568384347,
          -0.21400258625216254,
          -0.19541101248004097,
          -0.009714498917207175,
          0.058568210520201794,
          -0.0378135033772418,
          0.07761297742045475,
          -0.07018167291744577,
          0.07417992585788839,
          -0.030587063823384084,
          -0.09852324319881682,
          -0.04807862958349727,
          0.026127848817614503,
          -0.22086615046717237,
          -0.3997063968138202,
          -0.23022749323235772,
          -0.014556702641658153,
          -0.274102082482832,
          0.23577535709643244,
          0.05947487710307831,
          0.17543116677648524,
          -0.015852252622922006,
          0.0036284480040196456,
          0.2025528463497149,
          0.150375236815378,
          -0.20449741611554295,
          -0.19727820762922932,
          0.2515275548206046,
          0.07785621923637459,
          0.13083592250156587,
          0.033148094653618926,
          -0.1339045349459923,
          0.09693408647936859
        ],
        [
          -0.3374419058117907,
          -0.1308237804244475,
          0.05346132185563039,
          -0.07508443220683085,
          -0.007090210601156612,
          -0.23027139095526145,
          -0.14244944888432656,
          -0.0821112698179894,
          0.1688953754118452,
          -0.029933312902380438,
          0.005526108271089628,
          -0.19515355097482764,
          -0.22922716692508557,
          -0.07450394887037726,
          0.012406356776147218,
          0.09386497615410581,
          -0.13288617579429787,
          0.1945538732201911,
          -0.19276087329821193,
          0.15040076299717917,
          0.03399227760152971,
          0.09279862476577858,
          -0.12075745391286932,
          -0.1385470251798838,
          0.23814149654130343,
          -0.04687641979097888,
          0.20090181354154182,
          0.11792402715546174,
          0.12924117220834092,
          -0.16323064575375615,
          -0.15196812442974325,
          -0.1045593110423936,
          0.19722481919595583,
          -0.0022240043657137344,
          -0.33425739071160343,
          -0.12477917357316408,
          -0.08826640934132585,
          -0.030349932409106606,
          -0.042210958338464014,
          -0.04875901553077135,
          -0.09219186228470583,
          -0.09231349092688572,
          0.18410335323308955,
          -0.017061711551490447,
          0.1781378836639873,
          0.1163516658152087,
          0.1922765556055654,
          -0.06808345695742245,
          0.028958290018584406,
          -0.4107600064819124,
          -0.06049072359054971,
          0.06018160468065954,
          0.01580611445684185,
          -0.035341720696638886,
          -0.16950392163401967,
          -0.09141694633141755,
          -0.27608414100922407,
          0.025075078681636297,
          0.23959555180724018,
          0.10014996350443899,
          -0.17346000144121418,
          -0.02357571240520089,
          -0.056410608302490645,
          0.13287166149904303,
          0.10503191950184348,
          0.11957540562854935,
          -0.11658802589070982,
          -0.011134820847734445,
          0.03216126868059864,
          0.026059317030129238,
          0.018740797966639952,
          -0.10070456744370512,
          0.14878222696892784,
          -0.027330263134187693,
          -0.11536780060673948,
          -0.08301915237373445,
          0.010531483874098227,
          0.1136079517580595,
          0.13194085491949964,
          0.29550106620522587
        ],
        [
          -0.37909149739089193,
          0.09055216534260563,
          -0.12209089495693916,
          -0.0649594706402054,
          -0.021774368157502708,
          -0.10302168207543226,
          -0.03302627497763611,
          -0.019203827005919407,
          0.019335791477198022,
          0.13789067624993184,
          -0.16989034680423884,
          -0.2167427332136702,
          -0.2252918285866368,
          0.24292343315553797,
          -0.10781039396975474,
          0.07781284444662685,
          0.03953523401043935,
          0.11155892259271306,
          0.14153139309767931,
          -0.010697782569024586,
          -0.15269221580522496,
          0.028783752361100225,
          0.2683028151988005,
          0.1928802393956159,
          -0.03035161521324849,
          0.07331862499597652,
          -0.0879904575493109,
          -0.060568679925832924,
          0.24739554596005914,
          0.02623757895224782,
          0.20791823926689448,
          -0.26452801837413537,
          -0.036354638910334636,
          0.18399431860860138,
          -0.183695004382557,
          0.05985963706862541,
          -0.11407491874349207,
          0.06090389659176079,
          -0.15010272165530436,
          -0.18784869343343202,
          0.16822325526373325,
          -0.11847508767424474,
          0.12079447309131028,
          0.3010725100489927,
          -0.011221726634098681,
          -0.07292973749262545,
          0.166584774001536,
          -0.3117359889021796,
          0.1157449930132645,
          0.11495404281014938,
          0.13778362683432394,
          0.017257496582737956,
          0.08244488564233618,
          0.16234025918613523,
          0.025524316654772516,
          0.002500522901192648,
          -0.14820933841752545,
          0.05241022629983394,
          -0.005144152598020227,
          -0.05647761491096607,
          0.12501097903420216,
          -0.16303741118656537,
          -0.3617580067466996,
          0.0018547286512332125,
          0.008958899891660852,
          0.16921172665982573,
          0.24382153289965397,
          -0.14209819384353548,
          0.13577233873646158,
          -0.06208527104486207,
          0.17824680042319957,
          0.10950243111721196,
          -0.11262680825034435,
          0.004651087486047566,
          -0.08952938732503027,
          0.005064232535912382,
          0.09395836150160412,
          -0.2587917734616241,
          0.03946469869572652,
          -0.023426458602475074
        ],
        [
          0.10383187679758452,
          -0.24047837149846288,
          -0.06426093918270256,
          0.08548480377897211,
          -0.22213319389982694,
          0.003927446780166925,
          0.10216377196233732,
          0.14811699260994862,
          0.22963517766024535,
          -0.07519596137177977,
          -0.01242527017256009,
          -0.06335149077410741,
          -0.2938432057728106,
          -0.04028871265332746,
          0.07924777184446923,
          -0.0697473206525465,
          -0.08477964342286025,
          0.03681071037119032,
          0.04023222099731194,
          -0.138345940501149,
          -0.13509720537599862,
          0.07486337797580365,
          0.01928008315945535,
          -0.17475701126624751,
          0.06154148477928291,
          0.08487808559128175,
          0.1741862687631199,
          -0.06406629321146115,
          0.3388426679013443,
          -0.08937374515672081,
          0.03227131646762539,
          0.18894008731770984,
          0.012030217594842017,
          -0.06645230367544978,
          -0.09663983701488404,
          -0.20794679663507154,
          0.10610444105766173,
          -0.14460055058655255,
          -0.12734897460470568,
          0.19665135829378505,
          -0.0675853333228124,
          0.04093510959611074,
          0.2008000927429208,
          0.03040151595558172,
          0.07423393363427179,
          0.20797605100723518,
          0.20932905488751985,
          0.005903734324137361,
          0.14198230890837057,
          0.12285090808758406,
          -0.030119124179262952,
          0.13995253411978512,
          0.12481303472883351,
          -0.03663986357490122,
          0.030707993712370117,
          -0.13136872571420177,
          -0.08992048741974287,
          -0.15454880301643462,
          0.3179878384789925,
          -0.06917911661411541,
          0.17805967729128194,
          0.12298125226575235,
          -0.02919535973501815,
          -0.00497056147650845,
          0.04039838562299457,
          -0.03771692891000739,
          -0.13725527099248638,
          0.16093258967395413,
          0.12087897754417828,
          0.04685560546114256,
          0.005040294320207187,
          0.11960622094070589,
          0.2352054731004122,
          -0.04917376794964901,
          0.08136723581886536,
          0.08735679098956162,
          -0.12499724728768524,
          0.09638322948171885,
          0.04146064582846835,
          -0.1892111949264733
        ],
        [
          -0.326064813971029,
          0.058250230623739956,
          -0.02517740833083591,
          0.10615919711483084,
          0.002373929982279912,
          -0.10820030153829607,
          -0.0005220993374689505,
          0.0353130854330822,
          0.1027624281206752,
          -0.0005905056495944933,
          -0.19371235778211074,
          0.12827358299550845,
          -0.12545674399093523,
          -0.060388040802920075,
          -0.23261202117109753,
          -0.2048642183309831,
          0.08542030455619522,
          0.007265597033822124,
          -0.06897073496894372,
          0.0814030224403395,
          -0.24581665242453352,
          0.07588156308577831,
          0.1400175009124727,
          0.043114473178386306,
          0.009627342409477583,
          -0.21470809707757943,
          0.061016825679702645,
          -0.013745461664750153,
          0.015200259291787506,
          -0.033234922300037696,
          -0.08862884182418451,
          0.037140081021105026,
          0.1457645515516787,
          0.1326163077958576,
          -0.03983553308521597,
          0.08418632635488191,
          -0.0744421053610428,
          -0.0990496404991486,
          -0.05799447650139076,
          -0.20292339386947375,
          -0.17640904261099377,
          -0.13254304367403796,
          0.24047523674715757,
          0.1143799911506496,
          0.02426131517918764,
          -0.03805899028405325,
          -0.14708842838766398,
          -0.0840081564597718,
          -0.13037661253212085,
          -0.07012171492026298,
          -0.08167924556395856,
          0.1025877815735395,
          0.027478646748192302,
          -0.14021035922511296,
          0.01891827071629308,
          0.09202450696543929,
          -0.11775719892968149,
          -0.17803567255809122,
          -0.08199142199807016,
          0.15917990550393618,
          -0.004758912388962269,
          -0.10168915397142644,
          0.02138954401903704,
          -0.1927217355506549,
          0.17590339721696188,
          -0.1384403056955648,
          0.14497185977671617,
          -0.009511201871077025,
          0.05507793326812341,
          -0.0015148470475309912,
          -0.051288663460768026,
          -0.07951640273285082,
          -0.23511429864271602,
          0.10287971000027557,
          -0.009180040282983123,
          0.1624418562708675,
          0.1876132681787529,
          -0.11760844078778084,
          0.27287124814636254,
          0.06370670732789545
        ],
        [
          -0.03197461424997826,
          0.19008139800155982,
          -0.19827945820394569,
          -0.1277835502427497,
          -0.3316569595582068,
          -0.09981390101061127,
          -0.2134589025806207,
          -0.023773127052439516,
          -0.08774312355509503,
          0.06876462379829194,
          0.21260277802598904,
          0.018674786210388233,
          -0.15992044621419355,
          -0.1344449954890156,
          0.019044432861531152,
          0.0704091891021297,
          0.036065825208938876,
          0.11143247564597089,
          -0.15029649039655307,
          -0.059029137903131294,
          0.15332915672624353,
          0.12065693016620299,
          -0.02440947940088159,
          0.1060996001858582,
          -0.06527988421896862,
          -0.045074835061100146,
          0.21755129672218282,
          0.043720103560474906,
          -0.12243227103027872,
          0.1167799650732163,
          -0.12632233271524665,
          -0.039695129435545456,
          0.126806031918852,
          0.052003526605399586,
          0.08372365236722049,
          0.068536463443109,
          0.19270917470585955,
          -0.06321076291012306,
          -0.196838790445919,
          -0.04838635901196015,
          0.013748780979748503,
          -0.03586972798246296,
          0.14887637256091316,
          -0.2180285386399697,
          -0.024831521559843438,
          -0.05065401608051578,
          0.13198285327958745,
          0.04206068061309897,
          0.11649322500383433,
          0.08920973135640728,
          -0.14917993819429234,
          0.14488554669059045,
          0.24920026542445056,
          -0.005403694586378239,
          0.0611226986289176,
          -0.04859338269928602,
          0.008281814054094313,
          -0.16506143746184343,
          -0.020684675937912414,
          -0.2184268564858462,
          0.22162973027514069,
          -0.013476500690743166,
          0.09932077231482478,
          0.05020018491236173,
          -0.09762050592647764,
          -0.024345905025602497,
          0.2735154020975264,
          -0.025162616335601608,
          -0.03368283290354135,
          -0.09135535202820425,
          -0.014216784285938311,
          -0.022013258144714776,
          -0.14619546639302544,
          -0.16803893247682947,
          0.14613498858079432,
          -0.05147575285544218,
          0.14711431110480463,
          -0.09326779500352868,
          0.07292774083006584,
          -0.09813696898337493
        ],
        [
          0.09763907086168634,
          0.07317365918807174,
          0.12990041124101545,
          -0.08283708670063815,
          0.06741710346171145,
          0.0012869386034892916,
          -0.031199533406924603,
          -0.1545667318461064,
          0.18721276229733697,
          0.06698546631590879,
          0.15840977243357718,
          0.04563440359350317,
          -0.012164287532736956,
          -0.04351174442021296,
          -0.1564354628883738,
          -0.006713633458744557,
          -0.03903885105985622,
          0.28112300193943707,
          -0.022064960546458023,
          0.03480001305790957,
          0.022909476343360928,
          -0.1721599021482807,
          -0.09897749719675529,
          0.16172809345257969,
          -0.22118557056829544,
          0.05694342097065333,
          -0.14226384897716457,
          0.15208005822823678,
          0.2657546081917511,
          0.004934430669389416,
          -0.09750276068524287,
          -0.015074943526503962,
          -0.12709568625054263,
          0.08957941643472701,
          0.22843250137383403,
          0.04014220289132806,
          -0.12152199985146521,
          0.057252258806056396,
          -0.11295540507229095,
          -0.1598730078148509,
          -0.11195584736069678,
          -0.158067670329102,
          0.058469495849947636,
          -0.06960770151036959,
          0.2703476081893834,
          -0.13854589106361662,
          0.152118511777502,
          0.021180742283195445,
          -0.007640551027465613,
          0.08008263177948481,
          -0.11983201748940471,
          -0.06874633217401625,
          -0.00032411176404867505,
          -0.14921683444597,
          -0.15807656293396743,
          0.18680862572046636,
          0.06395781716060488,
          0.05088805703412276,
          -0.3040777389957649,
          -0.16783720007043015,
          0.049383492706507576,
          0.10982659763140303,
          0.13969547991309333,
          0.02587758214582606,
          0.0604187636876982,
          -0.11221967631420207,
          -0.06171353608017467,
          0.24272020660388569,
          0.12495360748841146,
          0.0125282806928601,
          -0.013551757129870057,
          0.09090103081397821,
          0.16587213312639226,
          0.12005109467522859,
          0.07651243224470872,
          -0.16531510242769282,
          -0.15098243760919514,
          0.040716117824674755,
          -0.03135492065649459,
          -0.009033175078630749
        ],
        [
          0.10827415197667645,
          -0.08956989777215353,
          -0.05335185001072648,
          0.030401627199526007,
          0.18791002952692828,
          0.09392731425113696,
          0.02147306766736065,
          0.10092947738717958,
          -0.06954400815649041,
          -0.14184484104769424,
          -0.0513414495741906,
          0.10484021796292853,
          0.01746041828486977,
          -0.14401838358064376,
          -0.11455517954204807,
          -0.16653505608268296,
          0.1679624227835117,
          -0.05328345142742035,
          0.06301369781702269,
          -0.032868173464767954,
          0.010568144876439482,
          0.06556586251654298,
          0.22475214200930985,
          0.0737900338973873,
          0.045512279455622376,
          -0.007543964841334353,
          -0.07270353640103674,
          -0.04443971692268195,
          -0.19525343916215693,
          -0.1801973970955458,
          0.14619661651021182,
          0.19042456044067885,
          0.08188871496912156,
          0.10249667085008533,
          -0.0647650404987929,
          0.009342419349993915,
          -0.1995163923615996,
          -0.05409356150137393,
          0.06221450860543823,
          0.21563654198419646,
          0.09629078426350852,
          0.0627964089867647,
          -0.10335745823114802,
          -0.03452546602730763,
          0.08327917166275602,
          -0.0844126698527396,
          -0.06301036554735619,
          0.026383537327577394,
          0.1713493011376064,
          -0.10058114588488691,
          -0.049843194518661274,
          0.08856078011388839,
          -0.0574726873787158,
          -0.21921217826004838,
          -0.08374901074066565,
          -0.12664624626294438,
          -0.017270480345056117,
          0.036583617950880186,
          -0.11325490273016436,
          0.15810644261903764,
          -0.10600019847322241,
          0.030434963560878263,
          0.022952798439625454,
          -0.23254164639781644,
          -0.00438770137006615,
          -0.1545618470086241,
          0.07625196290825466,
          -0.3956535391965932,
          0.07064021190110244,
          -0.0696806761359146,
          -0.09586265302976862,
          -0.12377865093295704,
          0.13752612471017536,
          0.05328433327623326,
          0.13581912824989356,
          0.06394604523007451,
          -0.18681075159402089,
          0.05414679634829691,
          -0.011618515765014213,
          -0.09544105707432751
        ],
        [
          -0.3755474882243694,
          -0.14689303909169532,
          -0.0479011793888255,
          0.08388038676591693,
          0.07218238978973496,
          -0.11020372158145644,
          0.11274716446088504,
          -0.18876677484914342,
          -0.1854313303093084,
          -0.0324280730263808,
          0.10663453998975042,
          0.0757388405804241,
          0.05129403087375191,
          0.08799554506338218,
          -0.22594459480973597,
          0.2623542441137501,
          -0.06735603229975079,
          -0.015689180132367295,
          -0.0872600043336353,
          -0.04255221179315019,
          -0.10328458533753641,
          -0.1050330705427533,
          0.16494832783494617,
          -0.013591803708052467,
          -0.0722261847394148,
          0.2086958431611625,
          -0.07132205289909793,
          0.34089037797292965,
          -0.011642216972902526,
          -0.11854862169814918,
          0.09248285867596882,
          0.0634197146520444,
          0.012235426878447597,
          0.07855233594157045,
          -0.14556128454948675,
          -0.21926947264974514,
          0.025631604021899086,
          0.03134354772978838,
          -0.10562704611872961,
          0.04297407269154789,
          -0.1392482760458809,
          -0.13504765330854607,
          0.24238508153809657,
          0.2281555674844531,
          0.022646390867339283,
          0.25886698915416734,
          0.11745282179207363,
          -0.06257677656069963,
          0.22931130640029884,
          -0.16368716668218347,
          -0.03400578221105076,
          0.08212246376700294,
          -0.08720543264574464,
          -0.010713014028460819,
          -0.06243848990414327,
          -0.1489102661130659,
          -0.04960438971867288,
          0.00676190945454685,
          0.15277725093419509,
          -0.1725397179843933,
          -0.03786370908125394,
          0.17030945528383332,
          0.023496196932392896,
          -0.18024346146909034,
          -0.18957087219772714,
          0.02989928765578554,
          -0.18886217345053455,
          -0.08522839857815696,
          -0.1182451236319993,
          -0.06523694744888248,
          -0.19963560284999743,
          -0.1629570244706837,
          -0.17140870552411064,
          0.08582687919181373,
          0.1715469531551424,
          -0.0668039126204855,
          -0.04201082881807845,
          -0.08911394082485657,
          0.16088872727249123,
          0.06656999283039973
        ],
        [
          -0.09233282739267429,
          0.29372643404125737,
          0.2012318120659603,
          0.0844381217315727,
          0.1398877995518599,
          0.11453337482621712,
          -0.15396255537644776,
          -0.1764183236769571,
          -0.011138713809147717,
          -0.04837468365415217,
          0.07473890879559289,
          -0.15927541307093088,
          -0.06114065843386206,
          0.06546409400615859,
          0.2158782968873221,
          0.1643813292534832,
          -0.15332762697412472,
          -0.0561408723875692,
          -0.12923753210433025,
          0.23655967601199715,
          -0.21599350353559013,
          0.05852287404795026,
          -0.20705750289308578,
          -0.23888942365948598,
          0.33612365347602635,
          -0.17163436520660805,
          0.16514989772984898,
          0.10345366711197483,
          0.028742445051699747,
          0.250338045445608,
          -0.0445597614793557,
          -0.05413435933351306,
          0.21025933276729028,
          0.118234380225074,
          -0.09776501142287543,
          -0.15451310112984917,
          0.05628361126749492,
          -0.016708203778744882,
          -0.002735072633326645,
          -0.050543074129676686,
          -0.13514075432409803,
          0.11768236036836241,
          -0.08016677830380552,
          0.07527048811539919,
          -0.06432153771485265,
          -0.05855855348169955,
          0.08489228648562826,
          0.24188487027080516,
          -0.07824325355570419,
          -0.14846780771815624,
          0.23501357456367486,
          0.0961625065489082,
          -0.10502755058053424,
          0.16216879987985275,
          -0.028139650661667532,
          -0.030745114936143562,
          -0.0754516476436035,
          -0.08934866362793975,
          0.09094625577177388,
          -0.07087620987296081,
          0.2135926321883576,
          0.0838615973130128,
          -0.14334965561961358,
          -0.11267274724672104,
          0.14497182969581007,
          0.043479850019153415,
          0.0769568415681466,
          0.03207366878412773,
          -0.09343467677762753,
          -0.22673438372190435,
          -0.1028022103323411,
          -0.06321990323242783,
          0.1448399538654808,
          -0.06270486203183413,
          0.07229804168597175,
          0.004695551183014646,
          0.0757324607128383,
          0.1468724548740258,
          -0.13919328574906117,
          -0.18922412398846034
        ],
        [
          -0.08220920081944406,
          -0.35542470202285675,
          -0.20635058078766147,
          -0.012908021785086762,
          -0.048962916224260765,
          -0.11484525082188328,
          0.12559712183459376,
          0.07852034129601565,
          0.1407025022308502,
          -0.040948331376029296,
          -0.039336225521130204,
          -0.028207749411418355,
          -0.10328556564264335,
          -0.0734119536952244,
          -0.14153963465834132,
          -0.2530987909307778,
          -0.019867990211756646,
          0.14614006354316117,
          0.033032933141323516,
          0.01953660416873896,
          0.15434754043965423,
          -0.0623362840808619,
          -0.058150502670367595,
          0.08288043806428926,
          0.03754875206889624,
          0.05031741835437821,
          -0.036121170030288544,
          -0.10791562365471657,
          0.032179378670534,
          -0.028017445902900888,
          0.003717983315336353,
          0.214579243951327,
          -0.20631119976648088,
          0.12240619030689653,
          0.02696652648896074,
          0.09445195049700478,
          0.12256549475498824,
          -0.028372086248720566,
          0.09633139316806505,
          0.06533598965660757,
          0.1359641544649967,
          0.02127961713289755,
          0.19361205312438268,
          -0.03363905862615614,
          0.18575759800758895,
          0.12651277772579694,
          0.11943350346957608,
          -0.03506446713560048,
          -0.11190291844944236,
          0.11121688005451637,
          -0.01379133314137139,
          -0.12377680210814662,
          0.17563162067751864,
          0.1821551968194301,
          -0.02062878992951354,
          -0.0022465101602382456,
          0.012322478957472554,
          -0.08224242083699652,
          0.12248913603049376,
          0.115328321875417,
          0.1703608700449183,
          0.1049532271665649,
          0.24254604805311086,
          0.01325561718443766,
          -0.19371638627492213,
          0.09360862292027135,
          0.05878145937286695,
          -0.16086588833333051,
          -0.13441035835701845,
          -0.19601556940025217,
          0.02882435147539754,
          -0.2945143421539203,
          0.00763324283861668,
          0.06628821954250616,
          -0.06030399507910541,
          0.13401740385653002,
          -0.09565948586156775,
          0.07509250173045978,
          -0.02441122244928747,
          0.08386691210585132
        ],
        [
          0.042910264040416236,
          -0.03225782379002134,
          -0.09599197547233447,
          -0.13211587758752086,
          -0.016557900986041787,
          0.007180339563462248,
          -0.022339513777537612,
          -0.12446355178931595,
          0.23843085939977923,
          -0.10496448474314063,
          0.07009937415798022,
          0.06793380367089269,
          -0.3038332673523255,
          -0.2098250318765013,
          0.05081760589126961,
          -0.03659852960117471,
          0.10475053499084507,
          -0.06816267888076064,
          0.22999573461939926,
          0.12902160354469203,
          -0.26580541258521967,
          0.03186719584575056,
          0.16163854626165636,
          0.1807429682534723,
          -0.14219508297340083,
          0.2482084206712287,
          0.11132350681888124,
          -0.0627032166939319,
          -0.018840478301697796,
          -0.032334320970729816,
          -0.23503274658781495,
          0.14149308250161477,
          0.045618674739505295,
          -0.011509287429375981,
          -0.12442640544606288,
          0.020170969167209174,
          0.029618094021094745,
          0.0037638054294461725,
          -0.16223361783628396,
          -0.06385389674305324,
          -0.20497635714881088,
          -0.023834280449587755,
          -0.09340952546814212,
          -0.05266549350633417,
          -0.12472843411078484,
          0.06450983218962064,
          -0.16161909686874365,
          0.21662266371260164,
          0.1208777243100703,
          -0.2186788400467268,
          -0.12308900427943185,
          -0.17045058248281963,
          0.07071756873953383,
          0.024343666030438676,
          0.12166423132151219,
          -0.037611878577167024,
          -0.017909312468617482,
          0.08903421684576401,
          -0.04797306136743896,
          0.16054231809690317,
          0.20518035421275932,
          -0.1932683891301447,
          -0.2186157301460227,
          0.08883488033058963,
          0.05970786182751037,
          -0.06131327424685448,
          0.087907171483874,
          -0.31335141384160603,
          0.12469707759586789,
          0.20048571525964345,
          0.26592455412854527,
          0.1670993768599761,
          0.05395329026148038,
          -0.05593489156333239,
          -0.034566566116111766,
          0.05312282694139346,
          0.033072477138265687,
          -0.034198853641706994,
          -0.050265328470263375,
          -0.17653613942580726
        ],
        [
          -0.07195486876603759,
          -0.19280097128219603,
          0.22611736655126002,
          0.04718184037008926,
          0.046068811976514676,
          -0.04845999707109194,
          0.18173060601304528,
          -0.004198335064641763,
          0.023371515660257174,
          -0.2624048651073299,
          -0.1384864251709375,
          0.1513920149508716,
          -0.1853799051997106,
          -0.08258183522786819,
          -0.21797956701168134,
          -0.06855910914754637,
          -0.13908989251111853,
          0.13963944001555026,
          0.35856349026612877,
          -0.16260175456061396,
          0.3518245914413701,
          0.05153568344186578,
          -0.25158830595457843,
          0.08151016881402011,
          0.0673503511062156,
          -0.03739193902467857,
          0.3179248060969798,
          0.2382828324320213,
          -0.21081097979304164,
          -0.2357976891905504,
          -0.056130631591849715,
          -0.1078333798854502,
          -0.03778568810505568,
          0.08274755381316175,
          0.01716227804179821,
          -0.12397633481535951,
          0.03234280035158654,
          -0.002840308536605194,
          0.2305253057635507,
          0.28614501472116605,
          0.23281972021456837,
          -0.17510966532922528,
          -0.007337844523945458,
          -0.001606967705848443,
          -0.039124316348186,
          0.052177551672166464,
          0.0801391376705037,
          0.09121209157442553,
          0.15922566740206565,
          -0.06464804990707898,
          -0.08882512382617666,
          0.2088760253193472,
          -0.052337477823178144,
          0.24780333281190256,
          -0.04234189647319736,
          -0.09057302423762228,
          0.17641163841465168,
          -0.1909743049648112,
          0.005157620041209558,
          -0.13112896866530657,
          0.02562928352554314,
          0.22678797116797217,
          0.1049696996411315,
          0.001670891372777349,
          0.14799868562743973,
          -0.1300343354205905,
          0.14677654207311164,
          -0.134099322309435,
          -0.09321235645698522,
          0.06286495730137887,
          -0.18902463566924838,
          -0.17395992747331124,
          -0.1337443188889727,
          -0.15746550900664716,
          -0.17366251245839867,
          -0.06524753747549683,
          -0.03961957631863165,
          0.20152562591520976,
          0.0793850271338677,
          -0.17401667283285888
        ],
        [
          0.11866270080803626,
          -0.19946346460178202,
          0.08664232006184291,
          0.13377818496158533,
          -0.30385266841408465,
          0.07476196268675446,
          -0.20405661444898116,
          0.19891951550484985,
          0.15792928130560926,
          -0.0010530503055139859,
          -0.09756552248990157,
          -0.1351805038146195,
          0.12457306441933932,
          0.03891647446285315,
          -0.22755135503822427,
          0.10499783526536934,
          0.19579558843443054,
          0.02803924558502969,
          0.052550322693422385,
          0.0015708138481083896,
          -0.09052121561921113,
          -0.04628823191820402,
          -0.11535900582748777,
          -0.04567083228293379,
          -0.23442440339718879,
          0.013486763696453788,
          -0.060106405601172315,
          0.08132387918459337,
          0.024333995008847156,
          -0.023031425928035427,
