{
  "layers": [
    {
      "activation": 1,
      "biases": [
        -0.7631556672173223,
        1.441701471982349,
        -0.3838594261279563,
        -0.1599606206887992,
        -0.04151976810148233,
        -0.7374334305054647,
        0.09813759545959835,
        0.042688680962816375,
        0.5021557064954412,
        0.06313067083024783
      ],
      "cols": 10,
      "rows": 13,
      "weights": [
        [
          2.124759690201758,
          -0.057467713557184094,
          -0.9777976903998146,
          -1.258007561300247,
          -0.2202641374869464,
          -1.238066165688995,
          0.2621616372549059,
          1.8183285072689508,
          -2.447660854069356,
          0.8132930010506886
        ],
        [
          0.6922515056391111,
          -1.7921379348847846,
          0.3232295739430574,
          0.8938101983814031,
          -0.004004593742791214,
          2.520501910831628,
          0.05295359217728236,
          0.039732485511980484,
          -0.508562114264166,
          -0.33180290735587525
        ],
        [
          -0.49580375761241324,
          -0.45311955259713005,
          -0.4226369501824277,
          0.5797383487788843,
          0.26429835023556614,
          2.0006457666777933,
          -0.10668511020601641,
          -0.44725380812371585,
          0.012485641906717686,
          -0.2550487399182713
        ],
        [
          0.0529971333950493,
          -0.34570617431507006,
          0.9075118236024451,
          0.6317698252604228,
          0.5447092889885675,
          1.120164471871269,
          -0.9063299688280754,
          -1.0479560387252151,
          1.3639810888101405,
          0.02999128642980567
        ],
        [
          -0.4006344474195004,
          -0.5796070029834643,
          0.09507822652629885,
          0.44445269466091997,
          -0.3127999286371062,
          -0.2646992079799242,
          0.20165115977392978,
          0.2460281507888251,
          0.23770324718604854,
          0.06312615512224806
        ],
        [
          -0.7472759985018934,
          0.465588683000136,
          0.41949632296975986,
          0.8227261818500742,
          0.3408007768673822,
          0.8595865876857525,
          -0.5755477703878659,
          -0.8480120472007419,
          -0.6828226925284346,
          0.2046506160077932
        ],
        [
          -0.585328572213365,
          -0.7548809148863679,
          0.16025997886795834,
          0.5741378096951042,
          0.029366150672119465,
          0.9061717521966393,
          0.0004196518100537446,
          0.18782746369093264,
          0.05829994028543126,
          0.6792916130959435
        ],
        [
          -0.3586043269799452,
          0.15988586802871188,
          -0.6750014521608056,
          0.0874974629256187,
          0.3469294653001074,
          -0.5490030067752056,
          0.414008737650667,
          1.53675523004822,
          0.2134074438323595,
          0.7305354564559359
        ],
        [
          -0.005563522264003394,
          -0.14613853247721723,
          0.23085959825076133,
          0.09304024968141765,
          -0.3824280138335075,
          0.05949081195199074,
          -0.434167792929289,
          1.1698191195763148,
          -0.08929565713329077,
          -0.1336627967483544
        ],
        [
          -0.030503475782950245,
          0.04455479026874431,
          0.3368764217441912,
          -0.029236808742687175,
          -0.35998691818356376,
          0.0832327773132638,
          -0.12870671171080755,
          -0.22171339225573863,
          -0.5023413560197814,
          -0.3399088540253912
        ],
        [
          0.5074162640386732,
          0.3694099230776141,
          0.06086717017194618,
          -0.47633722016784874,
          0.24357121223505235,
          -0.053335772850167044,
          0.11178736078657354,
          -0.19253234753029694,
          0.27970279810514737,
          0.39069410178201797
        ],
        [
          -0.35453190828743225,
          -0.42995914567635984,
          0.5466873183013166,
          -0.10381621954958895,
          0.10327895684009605,
          0.34473364556419117,
          -0.2707309181418034,
          0.42423566214881603,
          -0.4893173397356869,
          0.006382003516653968
        ],
        [
          -0.384624012081962,
          0.16188815917035157,
          0.5173493163967418,
          -0.053981110879787526,
          -0.228990573226494,
          0.03206235283222006,
          -0.3909853884591973,
          0.37104605219764036,
          -0.6616914147101172,
          0.6814121756385209
        ]
      ]
    },
    {
      "activation": 1,
      "biases": [
        -0.055542426540293864,
        -0.460497375120645,
        -0.4134574662102706,
        0.6823632145492469,
        -0.08648330279957084
      ],
      "cols": 5,
      "rows": 10,
      "weights": [
        [
          0.64604354674451,
          1.9777758853107363,
          -0.9656039239125045,
          -0.29792714421738303,
          -1.1084563990868959
        ],
        [
          -0.4621435784448091,
          -1.924956794950277,
          -0.14677597044917956,
          2.2209673901236386,
          -1.3452650908963126
        ],
        [
          0.015048309006635136,
          -0.6601292910853283,
          0.9870158964015763,
          -0.3431310085068081,
          1.3535793749322196
        ],
        [
          0.24161958071567224,
          -0.37960731012949456,
          1.0361400384593007,
          -0.009444922579155088,
          1.8965067749538602
        ],
        [
          0.12138163596251991,
          -0.16398161541414313,
          0.4511135026400335,
          -0.06740432297408268,
          0.007800441962753746
        ],
        [
          -0.3649850118512436,
          0.6451411010513497,
          1.0470904478888712,
          -1.5546738588813511,
          2.972696407003562
        ],
        [
          0.2177287044787191,
          0.08427123045946923,
          -0.5502831791689227,
          0.8688955874848941,
          -0.6168950422687303
        ],
        [
          0.7973217498254686,
          1.4245132789061516,
          -1.4570311666764977,
          -0.3768080431697952,
          -1.4270871678625774
        ],
        [
          0.3515174233271479,
          -2.9157124160516856,
          0.34040935227227526,
          1.6280743621178786,
          0.2593805799469072
        ],
        [
          0.6344296705030358,
          -0.056513286208511385,
          -0.8313567709580695,
          -0.3568370357933929,
          -0.7554089746940372
        ]
      ]
    },
    {
      "activation": 1,
      "biases": [
        0.6324895263921927,
        -1.6954937465285729,
        0.38169764817204516
      ],
      "cols": 3,
      "rows": 5,
      "weights": [
        [
          -0.22326711948437075,
          -1.1299735973870417,
          0.9486758746625739
        ],
        [
          -4.0663380564341765,
          -3.494072484834318,
          -1.0519741631573354
        ],
        [
          0.9576070761933556,
          2.2092911898820855,
          -1.3565544185436156
        ],
        [
          3.421925975127042,
          -0.9951979511903984,
          1.638665014017697
        ],
        [
          -0.8028915885328777,
          3.2084196687083546,
          -2.604652349530644
        ]
      ]
    }
  ]
}
