{
  "layers": [
    {
      "activation": 1,
      "biases": [
        4.385278920805707,
        -2.5251886895750464,
        -1.3947461818807163,
        -0.8212477774402016,
        -0.5181393211726386,
        2.826600880200629,
        5.470486161101265,
        1.14262939005573,
        -2.61834216448918,
        1.8777542527575846
      ],
      "cols": 10,
      "rows": 13,
      "weights": [
        [
          1.0007163946716748,
          -4.370538755029572,
          -1.9286940143836901,
          -2.934222192586997,
          1.4586260404623077,
          3.5653972427144964,
          2.871957125591258,
          -0.006560477831347892,
          0.7853853160382702,
          5.339056750418157
        ],
        [
          -3.7541461982903432,
          1.0135931875842967,
          0.12842101860210023,
          -1.7656040889481632,
          -6.436820513044741,
          3.5242222147935376,
          -3.617870550233797,
          0.7407487557380077,
          2.1286721895642993,
          -1.0433107920271205
        ],
        [
          2.404018596066704,
          4.494353779341704,
          -1.1526080537205796,
          5.306134506107426,
          1.4646092431850994,
          -0.9844458074123726,
          -5.937893760401322,
          -0.45334229089227485,
          3.1657294648621925,
          -2.1902900855019243
        ],
        [
          -2.4944009962082805,
          0.5985821946520244,
          4.83920896938411,
          -1.0254325123868426,
          6.660235318155408,
          -3.1940155917710187,
          -4.198046561974472,
          1.478940134431471,
          -1.712578655820357,
          0.3077211760489401
        ],
        [
          -0.34139660255046833,
          -1.8145914355501933,
          1.3115073223186158,
          -0.2350109417325863,
          -5.367761887570876,
          0.07385193762426384,
          -0.12421290156891773,
          1.523955250687632,
          2.843616354238734,
          -1.0919109844821568
        ],
        [
          2.47367151000184,
          2.9111892367511887,
          -3.1004776467159276,
          1.5151603189629532,
          -0.41559193763290614,
          -2.883180432909545,
          2.059267203431873,
          -0.37813542295606817,
          5.076206440257862,
          1.1824645513310368
        ],
        [
          0.7842893061703357,
          -2.832083847638811,
          -3.5714397532366053,
          3.7733326346846585,
          4.17487418597323,
          -4.665716101969569,
          -0.4882113414202733,
          -1.1520333816051505,
          -5.274964397755824,
          -3.238043970557221
        ],
        [
          -1.0607811616232456,
          -1.2698515108904216,
          1.1091337503597871,
          -3.949892190214909,
          -0.2512697852830257,
          -3.22578262957327,
          -1.137521209225236,
          -2.602697038191919,
          -3.010300722399362,
          0.1432814991955717
        ],
        [
          1.1019038690167948,
          -0.5034356331889303,
          -0.4062966408867643,
          -2.836266695158753,
          -0.888055124753915,
          -0.8142188349526218,
          -1.8007714005429452,
          -2.5356771715031514,
          4.065029910581535,
          1.1963493809100827
        ],
        [
          -1.0753882700133264,
          1.9454772409084897,
          -3.498585406038314,
          2.3368786943102124,
          0.04284425587210036,
          1.7866198540735962,
          -3.2575446071560776,
          -4.980753366474646,
          1.359397686839161,
          -2.8725529330186714
        ],
        [
          -3.4372260242086723,
          0.3241864441250908,
          1.4085635201757443,
          1.2101771661165688,
          2.77962710711558,
          -3.6001631753608767,
          0.09605695310018969,
          -1.583309008948164,
          -2.7125869813463854,
          -3.1720285203295067
        ],
        [
          -0.047601045029174865,
          -3.278385511531681,
          3.7303536779503963,
          -0.9773476788050921,
          0.4206097523468471,
          -1.9443983990172367,
          0.547721981227496,
          0.7961669828136059,
          1.2814310505831488,
          -3.512098002317677
        ],
        [
          -2.0639669002263488,
          0.4108110268803813,
          1.363037834921707,
          1.78384603890273,
          1.8993714199084235,
          1.5117704690386287,
          -1.0809717129437,
          4.14804549913836,
          1.582414746768208,
          2.469433126837
        ]
      ]
    },
    {
      "activation": 1,
      "biases": [
        0.08139848463564411,
        0.9728097927074872,
        -0.011928684503841842,
        0.7653849055289691,
        0.7162909600121449
      ],
      "cols": 5,
      "rows": 10,
      "weights": [
        [
          0.6751565677151734,
          -0.5371559810217309,
          0.35067272413157896,
          3.115685753636182,
          -3.3359540986303324
        ],
        [
          -2.65819316140676,
          -1.966724097054908,
          1.3986748775438094,
          2.8932467143464207,
          -3.8782797336576187
        ],
        [
          0.48316987849764187,
          -1.0116987449135124,
          -0.6504351579620153,
          5.844057881639806,
          -1.8946322644597544
        ],
        [
          -2.570415165555986,
          3.342200903780967,
          5.365123704746542,
          5.248199676218805,
          0.08212115325372778
        ],
        [
          0.7957288046831745,
          -2.460891187025973,
          3.647581002965701,
          -6.97578225047862,
          2.8243052972391385
        ],
        [
          -0.17592663870835207,
          -3.106396812737458,
          -1.9570211637466721,
          0.05444779901425671,
          6.691713729291148
        ],
        [
          0.5790143541886097,
          -6.391559609625155,
          -8.567263926452897,
          -1.6666418564264947,
          2.8721010041151565
        ],
        [
          -0.18677391697747972,
          2.1930736282087238,
          -3.7639429028711646,
          -5.5037974982775015,
          -3.190891526434278
        ],
        [
          1.0845249585423031,
          -1.0899793035181933,
          8.55228417876371,
          -2.4117752765325107,
          0.5063316520183144
        ],
        [
          3.893008704876565,
          4.772881161955971,
          -2.2942874696449405,
          0.9372985050049197,
          -0.8319681885479473
        ]
      ]
    },
    {
      "activation": 1,
      "biases": [
        -0.6424962092385667,
        0.5071862886089683,
        1.822534236264632
      ],
      "cols": 3,
      "rows": 5,
      "weights": [
        [
          6.182235853868823,
          -3.8624292218558423,
          -1.4040531386799073
        ],
        [
          -4.686640349798814,
          -3.2223997938267313,
          7.522607381467464
        ],
        [
          -0.5064389181706177,
          6.872736780290798,
          -10.861060632726433
        ],
        [
          6.327727913576029,
          -2.422918253882427,
          2.644181321963839
        ],
        [
          -5.781316718028552,
          -4.814612091682294,
          5.654264212491865
        ]
      ]
    }
  ]
}
