{
  "layers": [
    {
      "activation": 1,
      "biases": [
        0.10086151391147592,
        2.0127517733569387,
        -2.229314046561477,
        0.49077988120668997,
        -5.178719182012337,
        -4.33622898826912
      ],
      "cols": 6,
      "rows": 4,
      "weights": [
        [
          -5.350221486290467,
          -1.9159861631140234,
          -0.39754707055882793,
          -0.3506751376178739,
          9.335172592256892,
          9.824408046799899
        ],
        [
          2.955432500895832,
          -2.325232781830747,
          1.5986382211494068,
          1.4564010112281716,
          3.737494264439005,
          -5.184493912138771
        ],
        [
          1.8715191604695678,
          -3.8520804328023286,
          5.653366272624009,
          -4.231261780925188,
          1.4646572324071039,
          5.841797958799915
        ],
        [
          0.11910341996599565,
          0.5075589772661911,
          -1.5985139851091883,
          0.6992124479538301,
          -0.5445107750575018,
          -2.062759840757121
        ]
      ]
    },
    {
      "activation": 1,
      "biases": [
        1.8364715292870157,
        -0.5780899757545424,
        -0.34678499884020525,
        -0.787083093095706,
        -0.3067051417288754,
        -0.5484019100280008,
        -0.6722699674581633,
        -0.41897733882901816,
        1.1170242572726197,
        0.816811579603955
      ],
      "cols": 10,
      "rows": 6,
      "weights": [
        [
          0.4963162326223196,
          -2.9671289367677995,
          -0.5379145153289554,
          -1.1471052404697843,
          2.4317117312228276,
          -0.11701854432418457,
          0.6595670283942112,
          -1.0260391481102018,
          0.7346225302444481,
          5.882255684102599
        ],
        [
          4.917725361490798,
          1.4573735767000409,
          0.3573335461569711,
          -0.4194864261165854,
          -2.0208709503853006,
          -0.9907771249249899,
          -1.6141969786823471,
          -1.253818633851148,
          1.702299549752663,
          0.16656394356617396
        ],
        [
          -4.816761158852743,
          -2.4837884335253104,
          0.2740751841424934,
          -0.7100004185870457,
          2.7293188940388116,
          -0.8482522687619809,
          -1.2307478813101413,
          -1.8402877849164314,
          0.1033365314724466,
          2.885822525998526
        ],
        [
          3.9063237643104762,
          0.3096332900867424,
          -0.5762412600123216,
          0.49462564903033895,
          -0.71829232720355,
          0.8355733130742867,
          1.1800608621455404,
          1.5626824500548986,
          -0.4999713539594082,
          -0.7963970052407338
        ],
        [
          -2.2186430839632583,
          -0.881798576495882,
          -0.77430311342902,
          1.7851372093718283,
          1.622109572241064,
          2.33414282243577,
          3.456779604678734,
          4.619901147120653,
          -4.870433919901158,
          -5.972224067321775
        ],
        [
          -8.290735931255002,
          3.3867954338246857,
          2.7586232839971343,
          -0.28935338781289205,
          -0.8394123525442404,
          -2.2245536512388617,
          -3.965766929528084,
          -6.363264003280577,
          2.492987267627679,
          -5.931818455517395
        ]
      ]
    }
  ]
}
