{
  "layers": [
    {
      "activation": 2,
      "biases": [
        0.0,
        0.0,
        0.031086358704365172,
        0.0,
        -0.006200543798344451,
        0.0,
        -0.026584607086211128,
        -0.02754953569000961,
        0.0,
        -0.007099411920992154,
        -0.011546542393341554,
        0.018833217686327373,
        -0.002705759122003155,
        -0.02257960766461581,
        0.0,
        0.0,
        -0.010713480308776478,
        -0.005875248218696889,
        -0.021993701443092487,
        -0.0023232288441751067,
        -0.014333891822540261,
        0.0,
        0.0,
        0.0,
        -0.02397709266755223,
        0.0,
        0.012372184593847592,
        -0.0037054083659073134,
        -0.007563538259867265,
        -0.006373493196692912,
        0.019272614516195892,
        0.007177245284982158,
        -0.0066502262876560825,
        0.0,
        -0.004688078122789734,
        0.009149787919144154,
        0.03425720534625133,
        0.0,
        -0.00836844196487623,
        0.0,
        0.06145836318739269,
        0.04044828314975121,
        0.004702406132896557,
        -0.011345484802539803,
        -0.017095856659404954,
        0.0,
        -0.015129051114658022,
        -0.03929355998553752,
        0.0,
        -0.012444675976028984,
        0.0,
        -0.005718183536459659,
        -0.0022780952088224866,
        -0.002934297629431753,
        -0.0011048675515813212,
        -0.008589124413982714,
        0.0,
        -0.018063438122148532,
        -0.047606867084602156,
        0.007540363974286419,
        -0.0037055372279441896,
        -0.0002250395830974467,
        -0.012035941194121342,
        -0.010153612320559358,
        0.0,
        -0.013195969219296203,
        0.0,
        -0.023650564454529892,
        -0.009809696873748936,
        -0.009137598886066512,
        0.0,
        -0.01058830697770393,
        -0.02147445018684156,
        -0.024199195139307083,
        0.04648472226231227,
        -0.009957588922741964,
        -0.015332937031915751,
        0.011643167035437139,
        -0.02023401612521134,
        2.9744052431856432e-05,
        -0.026984291631652932,
        -0.01020553749686331,
        0.012715075626968747,
        -0.020082679938888404,
        0.0,
        -0.0009261341871707767,
        0.0,
        -0.05484584624648591,
        -0.002565186451269043,
        -0.03339134973121531,
        -0.005090487460264988,
        0.0,
        0.0,
        -0.040089228826183106,
        -0.006061388718048381,
        0.0,
        0.022169149165476222,
        -0.0010249043614817676,
        -0.008505015946432298,
        0.018429603633735327,
        0.007657094550014719,
        0.011925287202976208,
        0.0,
        -0.025943428546624285,
        -0.0002406007256221326,
        0.024897002752597087,
        -0.017195723140392024,
        -0.023903630707174533,
        0.0,
        0.0,
        -0.0010834943650400736,
        -1.3020275612204624e-05,
        0.003028663418508506,
        -0.005025966400880688,
        0.0,
        -0.004536969607564389,
        0.0008239081815115048,
        0.0,
        -0.04049054575528556,
        -0.016832404750501847,
        0.048223489989169144,
        -0.0012567243590422988,
        -0.021972628004358452,
        0.028489365263597823,
        -0.057320130093841,
        0.0,
        -0.00992269368556082,
        -0.00020258412322304232,
        -0.013839011517035824,
        0.03160446089731623,
        -0.0042545446879633485,
        0.05003399089827782,
        0.0,
        -0.031467695432509844,
        -0.015340092793159387,
        -0.020896610218877173,
        -0.040004510483355966,
        -0.04909044617717014,
        -0.028633874958384233,
        -0.010204297650874572,
        0.0,
        -0.008201469722201572,
        0.0,
        0.0,
        -0.007049232277885178,
        0.06772803664450397,
        0.0,
        0.0,
        0.0,
        -0.007994765619818133
      ],
      "cols": 150,
      "rows": 300,
      "weights": [
        [
          0.09551924991323693,
          0.09487402350319281,
          -1.0057584162937103,
          -0.08089605772052684,
          -0.7227315088553229,
          0.1147447439938279,
          0.615803515539998,
          -0.13440674537699743,
          0.05965557537033897,
          -0.04782095461482254,
          0.09212161425474027,
          1.1182241963620785,
          -0.009971702878858808,
          -0.027834190215534998,
          -0.004966554422206762,
          0.09644175270949187,
          0.008842506701330011,
          -0.09411904335018542,
          0.018064582204504923,
          -0.05169485631164837,
          -0.0670099198275822,
          0.0014142076030187647,
          -0.06922997089771138,
          -0.050702972455480375,
          -2.530985542397151,
          -0.02025129746936551,
          0.07163706712477114,
          -0.11961016452832499,
          -2.27471916929068,
          -0.8547887129069193,
          -0.6543429180243475,
          -0.016789463110341258,
          -0.0279096910376463,
          0.06932729469322377,
          -0.11633593058351718,
          2.505451229642994,
          -0.8292563872829114,
          -0.07055328112641251,
          -0.06922789058798673,
          -0.02744239584276858,
          -0.17848729398169813,
          0.9132568361679044,
          1.4100913102813153,
          -0.3520214084099644,
          -0.11356864761181418,
          -0.057936946544048296,
          0.02717911796158525,
          0.1527899902271274,
          0.0040795923693480625,
          -0.08446504169815382,
          0.05044939645813233,
          -1.3779698794811708,
          -0.003642606417661629,
          0.022042818798305098,
          -0.11466882306148027,
          0.0722545464141029,
          0.09448541474811988,
          -0.3326317046203066,
          -0.15812295702267065,
          -0.01064607161635735,
          -0.029339204335436842,
          -0.03675402083875992,
          -0.2753413282691483,
          -0.012289290165489982,
          -0.08547002134766282,
          -0.7118660199235463,
          -0.020233293574844276,
          1.1962504634988251,
          -0.029804120293989014,
          -0.03150472252481891,
          -0.07701460750398033,
          0.2155945155426743,
          0.1854682606639933,
          0.8906146243347205,
          0.3444300446255302,
          -1.0154291921088583,
          -2.792008531327856,
          -0.37927050756608793,
          -0.07996972647975728,
          0.057151354326855225,
          -0.4770959759664002,
          -0.024103217556100433,
          0.4354963254947483,
          0.327044202309158,
          0.059958492917408214,
          0.18220832987155483,
          -0.02658186698189527,
          -1.7011972998439264,
          -0.06354620142864803,
          -0.2808937500013508,
          0.07474941480075822,
          0.05043978992173449,
          0.0893099649391025,
          -0.6306378546866447,
          0.04728751217987122,
          0.06146922169213545,
          -0.12226517260794637,
          -0.10948861784452049,
          -0.048839184820378946,
          -0.33389034956013763,
          0.04066524844531109,
          -0.6161794504080068,
          0.10460744404035431,
          0.2893466478023137,
          -0.06035870427071152,
          -0.48330638175098656,
          -0.5265094402920839,
          -0.15069284833406293,
          0.11467712098918646,
          -0.0729192802775534,
          -0.07997806683374324,
          -0.04412803837426444,
          0.6959402823046819,
          -0.06875209193975898,
          -0.0003379929116872543,
          0.02272647108373484,
          -0.26458754922272676,
          -0.025554114916944783,
          0.1999208974471404,
          0.5474630328742388,
          0.19582460285628506,
          0.05144317040562927,
          0.4122970089646371,
          -1.3953123972573092,
          -1.3721563626306597,
          0.09652778417363754,
          0.07852231177025668,
          0.17204091870551438,
          0.13968364378538908,
          -0.12864002796068658,
          -0.051619815206957076,
          0.3868974028533609,
          0.05290297930387187,
          1.968719277987525,
          -0.004344749961063252,
          -0.35815721155179414,
          -0.4948102208155319,
          0.2624604027561461,
          1.980260515967412,
          -0.4358688997892885,
          0.0007753668027895514,
          0.03964471279149502,
          -0.04858163252600228,
          -0.005996119071630376,
          -0.18626848032855395,
          -1.2707102499418326,
          -0.03276440797382615,
          0.08069635640095082,
          0.11010780491252072,
          -0.20226773045844162
        ],
        [
          -0.10359527073836447,
          -0.09373048358511402,
          -1.0605249066144584,
          -0.07562822116379164,
          1.0523642611941908,
          -0.06592689676051829,
          -0.04233621137037305,
          -0.3696797771105193,
          -0.11069227925516206,
          0.01321590889342221,
          0.21745553438433782,
          -1.6438622249642454,
          -0.16156072716712735,
          -0.16465276291077302,
          -0.1035013030470489,
          -0.07207798836332645,
          -0.09049112829277611,
          -0.0003271736259473982,
          0.12443983326877,
          0.06325006169868636,
          0.13625788616694914,
          -0.018243906676354685,
          -0.07185840690115426,
          0.00413926462893744,
          0.031085595116464842,
          0.04216214657729122,
          -1.6373897098591976,
          -0.11800908784443699,
          0.12560120198852226,
          1.850403082288472,
          -0.5538456748140663,
          -0.27182970916505494,
          -0.045140699718932045,
          0.0909986843471785,
          -0.037204415746881554,
          0.27863690462923574,
          -0.7183564814640768,
          0.08845702387622716,
          0.6912006118176537,
          -0.036951900738462676,
          -0.7047213089229547,
          -0.7538687109089606,
          0.4052929039735244,
          -0.15828974197130757,
          0.16363832414523763,
          -0.10276660443478626,
          0.13255440156763623,
          0.3254801521401492,
          -0.02350302809465692,
          0.05595762789730873,
          -0.10906911389220933,
          -0.02588047115929746,
          -0.07564511887837196,
          -0.017399493718135765,
          -0.09353805059596694,
          0.003323806081404157,
          0.07218529250381746,
          0.07843942243612254,
          0.9622071211032437,
          0.027643697084523116,
          -0.04636818860499723,
          -0.07904220249055012,
          0.17815585645425552,
          0.09251324840876016,
          -0.047179046380115934,
          0.24026029091559828,
          0.11381349411979921,
          0.11583532665488361,
          0.2324231881538013,
          -0.08507341068214526,
          0.034795203743682675,
          0.04809778180897046,
          -0.17295895811624357,
          1.0483534216717654,
          -0.45802225433596505,
          0.26514656632912437,
          1.1925882301315682,
          -0.42413419048654466,
          0.21009564948488166,
          -0.04606929271785852,
          0.10958204791010849,
          -0.07720667823590555,
          -0.41032253841166505,
          -0.23304282797278614,
          -0.10023943453087245,
          0.41847569109852933,
          0.10766998805665179,
          0.9952955986880854,
          0.04038621194183547,
          0.26489113130622705,
          -0.009301211131389205,
          -0.03958606345494998,
          -0.07811916153145541,
          1.6729739028307795,
          -0.021580378438777293,
          -0.11283276203390212,
          0.04360264771278152,
          -0.11072856326717732,
          0.016984536075443674,
          0.033241342843267,
          -0.17447704244286188,
          -0.5156908828357293,
          -0.009727750013698052,
          -0.15647284899432834,
          0.10897642455903819,
          -0.4634498711602564,
          0.8046099335531194,
          0.19329933720487166,
          -0.047766197390068876,
          0.044807810897728194,
          -0.014180085197465792,
          -0.08831323918052128,
          0.9129161978477843,
          -0.08634060713892033,
          0.09285582516853962,
          -0.2676014748068081,
          -0.050839555699563437,
          0.06059086799062091,
          -0.2434863947960765,
          -0.05882817621357458,
          -0.943218907022321,
          0.060927553820550984,
          0.12632644807626148,
          -0.18731616588522582,
          0.8860526830173259,
          -0.011787816522493891,
          0.04122914861579635,
          -0.2836757600667146,
          -0.01967368064056387,
          -1.7741274213716007,
          0.012646491304345083,
          -1.166278986972031,
          0.02095860815069571,
          0.36364556640619844,
          -0.11789140122317952,
          0.06763838596109034,
          -0.6477997481915668,
          1.6903334477247183,
          0.022950143271695568,
          -0.12544822870143071,
          0.09894382463641993,
          -0.04817941767353599,
          0.09272287728623337,
          -0.0868862902210992,
          -0.2658154016968044,
          -0.16548886302131413,
          -0.11018811686879308,
          -0.04759034948858761,
          0.05879435814677133,
          -0.18766077943983683
        ],
        [
          -0.06824353145594608,
          -0.0857631580362084,
          -0.5631515715237194,
          0.01083954803421348,
          0.4171830538098353,
          0.017282774699237776,
          -0.036790907495702636,
          0.6071181603965354,
          0.04836999514141038,
          -0.025022316801032597,
          -0.2640005086041315,
          -0.49232786396368455,
          -0.023281040741442317,
          0.056053654449424506,
          -0.1055092972462584,
          0.09705444508330585,
          0.15717625609820776,
          0.15847445344781508,
          -0.09896529999598214,
          0.05477194405537713,
          -0.04946918531819099,
          0.06312348403606384,
          0.09251835699763769,
          0.055648208120508386,
          -0.18750299797405554,
          0.09494717502490216,
          -0.2771121771563877,
          0.020480545381303148,
          -0.16183287888729203,
          -0.3705252750614403,
          -0.05725464110136956,
          0.08527785238326195,
          -0.04821446486644252,
          -0.10144531412742352,
          0.19049895848216236,
          -2.7161879541024088,
          0.12836723186891413,
          -0.09521292937458845,
          0.2463059790990347,
          -0.05264617098071491,
          -0.046186637031307494,
          0.11085476671511574,
          -0.8224240756841799,
          0.11649222047606633,
          -0.10121272464785035,
          0.0027445722319731935,
          -0.04840475481216266,
          -0.046649857325666635,
          -0.10780906119475285,
          -0.20135789181858138,
          0.07797754453777962,
          0.3120372953154516,
          0.0795717932536951,
          0.008691344261346174,
          -0.004176106684775688,
          0.07833467535645297,
          0.08982549041807131,
          0.33824710498567107,
          0.26687799828307024,
          0.1466266225737023,
          -0.027663249056312296,
          -0.011923169127278994,
          0.624807268383048,
          -0.018075845851574936,
          0.11009724826139013,
          -0.8780224079878667,
          -0.013516207602911086,
          -0.022219701107438046,
          -0.14232326052823616,
          -0.035673631358158854,
          0.06263668482168325,
          0.02657490852906545,
          0.06236740954748103,
          -1.0443562021052495,
          -1.2254926172272376,
          -0.4674922105745745,
          0.5663904805417136,
          0.2568252676875959,
          0.15731612046100812,
          0.004185927142562241,
          -0.4836302920742314,
          -0.05712041266419496,
          0.18369656772944662,
          -0.07000301545569973,
          -0.016090665045069577,
          -0.1673019414763326,
          -0.03719447981646105,
          -0.35762325930842576,
          0.04912070293867732,
          0.26711600405643143,
          -0.024458846525013497,
          0.015481726780503476,
          -0.05423572196192475,
          0.5479464288549519,
          0.068282307277136,
          0.09993273028997535,
          0.09684993893011286,
          -0.11150868388630755,
          0.05803504845954354,
          0.14698868036068205,
          0.056881383474382895,
          -0.4071834403217785,
          0.011301754278827889,
          0.12657496858632933,
          -0.0015946148077267467,
          0.16732168799061425,
          0.3565577390857719,
          0.170891543756529,
          -0.05866525363180329,
          -0.010813372830371157,
          -0.07925463423281572,
          0.024466684338915315,
          0.05911107293330988,
          0.07022255054973528,
          -0.06539406575093026,
          -0.060615766035077755,
          0.8994194940515272,
          -0.09515653213413552,
          -0.03796968316358233,
          -0.39881472606869256,
          0.399689438951755,
          0.10943315000984605,
          -0.10484299247326803,
          0.044545725431981785,
          -0.37806638701056106,
          0.02878009232483542,
          -0.1116902819197332,
          -0.06269414954245639,
          -0.20105162966834758,
          1.185055538396677,
          0.04752391683179279,
          -2.560140569236401,
          0.06766298307126146,
          -0.7043766166117218,
          -0.04926662378573552,
          0.4114247162860057,
          0.3616579669263902,
          0.6499237048788374,
          -0.04682265565713944,
          0.7182258647002582,
          -0.050854709488423154,
          0.08707883893326987,
          0.009551953086114168,
          -0.06357891161264621,
          0.8376475410604121,
          -0.11150130803103867,
          -0.02295676116151566,
          -0.10541097322243484,
          -0.03594337217767508,
          0.09895728743124452
        ],
        [
          0.11048164586277669,
          0.10675499810310689,
          1.0018102054173776,
          -0.03146114521975558,
          0.16675074144188448,
          -0.05106108613021819,
          0.01628642088421492,
          1.4253561782398338,
          0.045329322690982464,
          0.09859789719100684,
          0.04602095871918628,
          0.5473261915119249,
          0.03318950992141557,
          -0.03492406262856549,
          0.09432802498956178,
          0.06407800059066815,
          -0.11508369635140384,
          0.13199326703781347,
          -0.06894755536776251,
          0.161348809044999,
          0.04797363814524931,
          -0.022458468731295124,
          0.03628107779660528,
          -0.028002205809171482,
          0.20131796627315018,
          -0.018973396595116498,
          -0.5444791206951228,
          -0.1570272593120924,
          0.29328834309820045,
          0.26955634811367946,
          -0.17103461616219517,
          -0.08002467842414684,
          -0.027724476117964025,
          0.03942043119567826,
          -0.1711861221903086,
          -0.17768168167657516,
          0.2463675566608944,
          -0.0596979127409252,
          -0.8481357193395448,
          -0.09264316669290218,
          -0.7579662843205394,
          0.11371624595233554,
          0.45745615552471586,
          -0.2768123963148548,
          0.2649286157245043,
          -0.05999603239678892,
          0.04775474349994079,
          -0.16863537879205348,
          0.009193324510488961,
          0.04667253163857628,
          -0.016520013988610964,
          0.2693207248781829,
          0.07921082427487959,
          -0.09728813961968077,
          0.015669820937178138,
          0.1948768164746314,
          0.0415335794908002,
          -0.05001996644463012,
          0.18498177170539196,
          -0.2907837668419071,
          -0.06500961468294375,
          0.09174376810059136,
          0.6208162988781272,
          -0.02537970203075875,
          0.11230883027100089,
          0.8365490404670051,
          0.07816477091006178,
          0.20896006575927106,
          -0.0927797356350785,
          -0.04852215777353996,
          0.1097510115047409,
          -0.28574646800898734,
          -0.028918842131306983,
          0.06315904833239638,
          0.3434730423110604,
          -0.24183407196761295,
          0.8756712430874505,
          -0.4100184953547171,
          -0.23389213560025793,
          -0.08950838618515813,
          0.3853513834591152,
          0.02105556899563646,
          -0.2194820755117557,
          0.3009092465918349,
          -0.004941324063643628,
          -1.263962054239398,
          0.027249203266156197,
          0.22274717281027429,
          0.06422444951500335,
          -0.15009937028733542,
          -0.10547590339225088,
          -0.06811935076136885,
          -0.019174017488102775,
          -0.3350325594095882,
          0.12357695200942954,
          -0.058005142843725425,
          -0.22294823169181413,
          0.048244435083516675,
          -0.043408826860751634,
          -0.26303218177848475,
          0.05466982237451275,
          -0.5368063723986322,
          -0.11512445296451469,
          0.07135431793658989,
          0.030539494373826824,
          -0.2208217125958408,
          -0.9610668050698895,
          0.19960315552112198,
          -0.10359812151272213,
          0.009507580846147884,
          0.03708001631488976,
          0.034973889773532954,
          -0.9675809557213059,
          -0.008741164128801417,
          -0.0340906465131297,
          -0.18658163272938258,
          -0.5946393198096959,
          -0.035589923152246496,
          -0.5089654127767993,
          -0.16265252486592552,
          -0.9988090167595749,
          0.05508692054565346,
          -0.02148896695026497,
          -1.0500339519151163,
          2.033118265731052,
          -0.11251387739740931,
          -0.0004912494176112911,
          -0.014141009149635434,
          0.041582027638149235,
          0.43913534019563305,
          -0.03537565006011279,
          -0.7071887337435413,
          0.06266628280444053,
          0.884916756267695,
          -0.02997915961896682,
          -0.11452581483378195,
          0.08427543384200824,
          0.16033801798605807,
          1.2549572395844644,
          -0.9288667594020523,
          -0.0057638636058689,
          0.10099397934929147,
          0.03630068360499847,
          -0.0108892575853626,
          -0.8711084150039023,
          -0.6997737211767212,
          0.06663508475209068,
          -0.10066096801451556,
          0.03906548983950307,
          -0.03142563408349795
        ],
        [
          0.1065563018511361,
          0.05755658523652293,
          0.20489719999821976,
          0.08537886926516815,
          -1.180664202226825,
          -0.010234467117168428,
          0.03554760813700031,
          0.29090002868618403,
          -0.021488755287801024,
          0.05528884170893708,
          -0.041394156891455064,
          0.3280017122598964,
          -0.10097426290430442,
          0.08528282933612354,
          -0.03272319514763835,
          0.08523383486957081,
          -0.04351100896390997,
          -0.08398189137457862,
          -0.17263515830828435,
          -0.035043379417406345,
          0.06482264403438719,
          -0.10334802453763993,
          0.09419026330014953,
          0.022866408637938682,
          0.7241487839594706,
          0.04241212622637757,
          0.2118430599518022,
          0.10303865789936396,
          0.2823506089391176,
          -0.5186896967372204,
          0.029178142151420536,
          0.15804615233411307,
          -0.060710166899807246,
          -0.027981816250221163,
          0.09123087647692958,
          0.12026426408058381,
          -0.5332175987974596,
          0.09194841483996276,
          -1.1440758152102601,
          -0.05549665702399719,
          0.163657781867842,
          -0.175960487947793,
          0.9834739050611591,
          0.0638419511110695,
          0.1336390518713752,
          -0.06880638006885584,
          -0.04121896806293671,
          -0.06556626443533871,
          0.013273012644089378,
          0.14639908361470733,
          -0.06186568021232451,
          -0.4051859237951134,
          -0.0023716024647794684,
          -0.06906412980341463,
          0.03157118439342187,
          -0.09187430742922792,
          -0.07707500221640212,
          -0.12214249968374953,
          0.1690562636473075,
          -0.033487850521889094,
          -0.0420951595542416,
          -0.11118556243917718,
          -0.37711488449594244,
          0.0451453882544003,
          0.10101032998726528,
          -0.02582112086266804,
          -0.10296788250390515,
          0.37024513914967583,
          0.12538591554582912,
          -0.017517024824825964,
          0.06661035316343479,
          -0.10441000783783076,
          -0.051924503441065493,
          0.5240377530085742,
          0.497413679551518,
          0.46363546295992497,
          -0.5236641344445976,
          0.233842133684543,
          -0.09041127149926578,
          0.05690538955152995,
          0.5147582760794154,
          0.012654960311232163,
          0.38353010176806757,
          -0.06206444769812484,
          0.08960522564757858,
          0.016976510720564088,
          0.023125773076215297,
          -0.059132532434660205,
          -0.08985277695483088,
          -0.15203788240450897,
          0.014387489024221307,
          -0.11181449713609613,
          -0.09626171473213836,
          -0.1476538745946245,
          -0.019447806635896014,
          -0.09424127472893921,
          -0.13139781897741265,
          -0.0964932075619653,
          -0.10811923888302108,
          0.1371375028744504,
          0.08909604734331251,
          0.35183774557844194,
          -0.08045886632458034,
          -0.06875099917683267,
          -0.009305044257304648,
          -0.22612725500441258,
          -0.3184119254740901,
          -0.1547703497646019,
          0.11478361159057694,
          -0.016643230480732768,
          -0.043555396623270556,
          -0.0510164143602266,
          -0.4313572430378722,
          -0.010772145440068333,
          0.0009111976138739862,
          -0.03333854633732869,
          -1.0448808198288277,
          -0.024959539354513324,
          -0.04090548628362117,
          0.08174526421254445,
          0.03954701389620193,
          -0.010614340440873142,
          0.10859558528647632,
          0.33044451778854883,
          -0.2972461057996754,
          -0.08313576839568002,
          0.09113133447800773,
          -0.01858452205697833,
          -0.013258688910101974,
          -0.07446291432484843,
          0.002938659641405833,
          0.20611467963784,
          -0.08561601532150126,
          0.1405147146751832,
          -0.07720205359240913,
          -0.3016062777492732,
          0.5436625327238996,
          0.13024866407530555,
          0.5124893276307947,
          -0.010321986441621639,
          -0.10935050765734172,
          -0.06555701710766548,
          -0.038175130387138274,
          -0.11118695791566233,
          -0.5029755938275131,
          -0.8904355280153261,
          0.1072873081895749,
          0.0583394133166559,
          0.010961610085853588,
          -0.16174118644325236
        ],
        [
          -0.04876981417493086,
          -0.05458298389613451,
          -1.0991127941619616,
          -0.0991733580530456,
          0.40238250640598255,
          0.039691380258682546,
          -0.13057392452082728,
          -0.3937614381932993,
          0.028818282958116153,
          0.04886845819691027,
          0.1924417178653484,
          -0.42948548908928197,
          0.1431133153518622,
          0.07941665136541291,
          -0.11034447015810453,
          0.00357473957702728,
          0.011737650189856941,
          -0.11768526110572788,
          0.031724524370312035,
          0.16077728988958498,
          -0.04559698798394516,
          -0.06969857404382683,
          -0.03868283234071871,
          0.03139080522035212,
          0.35100494198588794,
          -0.09150690862189725,
          0.3382597337113246,
          -0.015335052296998412,
          1.0470911129493818,
          -0.9352462440777914,
          -0.18002566665288647,
          -0.2125046434887016,
          0.0024200331514511063,
          -0.0963264894358391,
          -0.05112397208859569,
          0.02333699628380634,
          0.10198672986951005,
          -0.07419235153633587,
          0.20147448033139262,
          0.03478030043863219,
          0.4327075888837849,
          -0.7549937941515358,
          -0.2144179820686608,
          -0.1291803341393952,
          -0.1017381299464778,
          -0.1117106842774159,
          0.05241196319170516,
          0.06749908451141025,
          -0.008620505661348189,
          0.12299822838820594,
          -0.08412257185989808,
          0.8333681753663241,
          -0.10982184141590585,
          0.00900489268366761,
          0.06676672018945107,
          -0.07234878537415235,
          -0.05649829722608752,
          0.040059100893940575,
          -0.26319862683733214,
          -0.21780641303833018,
          0.09874375013582307,
          -0.03174701914287512,
          0.37409385778966825,
          -0.09997368314939362,
          0.03988457079203741,
          0.45274738482579846,
          0.08396567968830869,
          0.929344168500463,
          -0.09321621618376368,
          0.0174035089885284,
          -0.07743639467417178,
          0.04366873013164035,
          -0.10652671278777777,
          0.6031999065046789,
          0.7513067744152255,
          0.6117035024774073,
          -0.7915135305440004,
          -0.29549647265182116,
          0.033295601034194204,
          -0.023578730864440924,
          0.3079232900648867,
          -0.09571535166740147,
          -0.5136861106004589,
          -0.10151466423762277,
          0.034585304633515196,
          0.1279989806463539,
          0.0026668734944903126,
          0.036905137404496975,
          0.03893245241685157,
          0.06158578492575489,
          0.07314096976927152,
          -0.10659720797362068,
          0.09575487395781991,
          0.3816752217246509,
          0.05601224018721941,
          0.10509417937605338,
          0.002761263958470716,
          0.10047442324037767,
          0.05230769309054977,
          -0.36359542672837836,
          0.07614346506086114,
          0.28023602835094624,
          0.11310423255772575,
          -0.0047135482451680765,
          0.08396428021185137,
          0.43705109595012576,
          -0.349032917088796,
          0.05958017471888291,
          -0.10549952122702878,
          -0.05430429422097999,
          0.06151258217667879,
          -0.06326734722892348,
          -0.23737227259208013,
          0.03446653145880799,
          0.07245118977398814,
          0.014517176068163225,
          0.5902935283996422,
          -0.10774239196119964,
          -0.07573642876475649,
          0.04298360035957715,
          -0.3654937729135169,
          -0.01148672822693841,
          -0.08686158644163346,
          1.0267423886296576,
          0.9387182399056948,
          -0.07520798729945187,
          -0.08608059735763517,
          -0.04012471529436402,
          0.054786728890310527,
          0.5966186026213212,
          -0.1085920424120268,
          0.24771094381140735,
          0.039441419751692665,
          0.32279595726163524,
          -0.014459071256400106,
          -0.02104453986487692,
          0.39203707006288696,
          0.4615560815454838,
          -0.3685870933832845,
          -0.9802699053039894,
          -0.03260531252542359,
          -0.010110860702833551,
          -0.05779729312082016,
          0.0481496244441478,
          0.17561537745341999,
          -0.7339069460507821,
          -0.0025719908539788227,
          -0.06117757862481487,
          -0.058425212387147055,
          -0.11067640519292268
        ],
        [
          -0.06782469647020772,
          -0.08210265385521763,
          0.2887931219632629,
          -0.11187170092555815,
          -1.3657642566186396,
          -0.09294306785421723,
          -0.03842983639343468,
          0.9558482646306814,
          0.06747588079998681,
          -0.047069858404862955,
          0.2229991135004034,
          0.9861572778271672,
          0.33410539328181227,
          -0.0420077365655771,
          -0.11044531018467704,
          0.03622007537639008,
          -0.1566046178660546,
          0.017545351912240766,
          0.018155042718491898,
          -0.13658873625592752,
          -0.010145433190676166,
          -0.09570782268466499,
          -0.04596004294070822,
          -0.11288270086004955,
          0.23331657871233843,
          0.10450391293612792,
          0.09096587936914974,
          -0.0847799218079977,
          0.40341708908999074,
          0.5282331004398267,
          0.2686445661734642,
          -0.09185114431681897,
          0.043789010119516435,
          -0.06915314043712179,
          -0.021535175892584617,
          -0.8043992992504136,
          -0.3825874377566505,
          -0.10521092928083974,
          -0.5691908329608308,
          0.04309694451418093,
          -0.5728308872564815,
          0.06344191505801093,
          0.0787989942499299,
          0.04229474130216805,
          0.1065594508618027,
          0.021604754134150115,
          -0.11952266957188587,
          0.7561992545325364,
          -0.08539113752083592,
          0.10494257385184674,
          -0.03272605775138149,
          0.1276866674147967,
          0.02199937085250338,
          0.028650076619723904,
          0.08937040949981304,
          -0.07616946901654253,
          0.05884128424352007,
          0.05362725089539324,
          0.9270682604165257,
          -0.2657524695490302,
          -0.04288022215029588,
          0.010766538637195906,
          0.6194334447812581,
          -0.03286323664820174,
          -0.07915128122060001,
          -0.15433798545547747,
          -0.06381948571734779,
          0.38648991078775347,
          0.304211456319794,
          0.10278874573522215,
          0.10496157228758841,
          -0.2165514116245767,
          -0.10672406480401281,
          0.5474373759658419,
          1.0497676941903227,
          0.44329904019529737,
          -1.8682126913900958,
          -0.08761114848198605,
          -0.03161792091910422,
          -0.10980945128894044,
          0.38027317019578055,
          -0.06911619045825163,
          0.26186672831836616,
          -0.24532374973162105,
          -0.001036044625472618,
          0.21670061821013173,
          0.01976193278389675,
          0.08065493848537783,
          0.09617137996560053,
          0.12919244435969013,
          -0.05579394972814107,
          0.05408093660388702,
          -0.0694437839213704,
          0.2939642877219084,
          -0.11961094219711788,
          0.08792926842578354,
          -0.21932309721044715,
          -0.06360097294319456,
          0.10540372956355544,
          0.2674634059055578,
          0.004378998551760896,
          -0.7361628778332002,
          0.0748103177728106,
          0.033323888069424774,
          0.0625030439949244,
          0.9349955329608275,
          0.03671356695243236,
          -0.06224992223102243,
          0.02769347250604719,
          -0.01696743705020731,
          -0.010335539983087774,
          0.00633462061188283,
          0.37411083321161875,
          -0.10598451129622045,
          -0.060041243340184805,
          0.008264364649072773,
          -0.05443798421007726,
          -0.024997405540012643,
          0.24757193214542603,
          0.016487923111139842,
          -0.7250078202672463,
          -0.04880298971809388,
          0.17814346603806308,
          0.5295222185221031,
          -0.13142598667174374,
          -0.0854332319588606,
          0.11131556830299781,
          0.06187011821839779,
          -0.15365902674980292,
          -0.6792889300801137,
          -0.03666266058318246,
          1.1403264710104608,
          0.0938327370081701,
          -0.8451605618931409,
          0.027293478629369785,
          -0.09204223524778128,
          0.36843171102786293,
          -0.3864157407679395,
          -0.7624961920631022,
          0.22550990624968964,
          0.02338789999861807,
          -0.07927183449899128,
          -0.06501259699784544,
          0.03660073661260698,
          -0.431049765391181,
          0.3023074249450846,
          -0.04165014743813012,
          -0.06620457437797617,
          0.004793246935024461,
          0.08848816764784415
        ],
        [
          -0.009302086784048575,
          -0.03215998143687714,
          -0.2520757061582184,
          0.08667924091743057,
          -0.6193712385212713,
          -0.015253106377356126,
          -0.1482565283264318,
          0.9928035249019423,
          -0.07974019072247256,
          0.020015017683698844,
          -0.16965036482001125,
          1.479764174937829,
          0.05793757957278361,
          -0.08285467641122517,
          0.042257224617742666,
          -0.0073169825532574855,
          -0.0696694378702979,
          0.2717928993530689,
          0.08993339385958404,
          0.06604418357473163,
          -0.038404162481191106,
          -0.06352589886691526,
          0.04421847123638412,
          -0.04656879774225971,
          0.7566536730138278,
          0.09774584266022618,
          0.03561633071195175,
          -0.013784862303865247,
          0.49022065145812155,
          -0.623592351954521,
          0.0336973539791641,
          -0.07234089345961836,
          -0.006994031163089051,
          0.06473060584874697,
          -0.04287115634787909,
          -0.6709608877701512,
          -0.4408883624467555,
          0.028316050912375625,
          0.3280359587451174,
          0.10216877837230821,
          -0.1119955919803722,
          0.748047897503095,
          -0.5933323216515941,
          -0.09064781839573599,
          -0.13059636903783065,
          0.07325346622414772,
          0.07073005207267422,
          0.06277067245057226,
          -0.10701921495530207,
          -0.011060092649978145,
          0.07248385640687538,
          0.10335874365775073,
          0.08936417841618605,
          -0.004900683130856622,
          -0.054529712099282236,
          -0.01739737445946442,
          0.05992321285065172,
          0.10123756417208223,
          0.1471403467847858,
          0.07355752745214626,
          -0.057084605913826185,
          0.061358269484621655,
          0.5646672644126243,
          -0.10898069549401036,
          -0.08056326172672489,
          0.148037168074811,
          0.10270370286050427,
          -0.6148064906379055,
          0.03461743768189162,
          -0.03332932315942886,
          -0.062337098322021625,
          -0.1362192498296162,
          0.11047565917159424,
          -0.515458773955399,
          1.472305892503592,
          -0.6426381314899752,
          -0.013387795646690888,
          0.12862146489412588,
          -0.09099997406495502,
          0.0156697423587107,
          0.4112162703523751,
          -0.02083749231631896,
          0.5967413950960836,
          -0.03995219193583317,
          -0.09229394462952055,
          0.09672726560840537,
          0.046929461079725114,
          -0.5715843570543517,
          -0.11330812967655929,
          0.05859245658038791,
          -0.033409131292212374,
          -0.04196231061780062,
          0.02962782727516677,
          -0.0359934905977123,
          -0.09755827861463978,
          0.041465414377684764,
          -0.019075654946513382,
          -0.06735172036360483,
          0.11039552018050194,
          0.23234760128446427,
          0.027446588124993676,
          -0.21487525242879946,
          0.09906462029857588,
          0.2011719939497618,
          0.0791773986680483,
          1.1677117684145575,
          0.08706990570290929,
          0.07626864119490483,
          0.09987544229679679,
          0.039318476840994744,
          0.08680909997419314,
          0.1117549065459366,
          -1.3505501146752832,
          0.07197139555757649,
          0.09509372497985755,
          -0.12636284296403072,
          0.06576877910589932,
          -0.05133904862078609,
          -0.12728751236277658,
          0.015099154554580314,
          -0.09667367506022224,
          -0.0056364356806931385,
          0.0009170161584627389,
          0.45826722065223546,
          -0.9673163174629886,
          0.1092599958672204,
          -0.04318992049004563,
          -0.12066693149133328,
          0.10880029160936272,
          1.1222262192662447,
          0.05561985309950962,
          -0.5610333165080785,
          -0.04318442206692999,
          -0.3745173360222079,
          0.050222160711205575,
          0.11372819377467468,
          -0.014770171270262405,
          0.17789401547852113,
          0.370127266400423,
          0.24147847164670191,
          0.020372012476620537,
          0.08992131959484687,
          -0.08906832834050625,
          -0.07586660037978975,
          0.32791370957804056,
          -0.4160517206640151,
          -0.034561627150644265,
          -0.03084278839848069,
          -0.03799634191550967,
          0.054386022795589524
        ],
        [
          0.006280317046357648,
          -0.11295604810431845,
          1.136721344468177,
          0.0478028799917823,
          -0.25828332265099546,
          -0.015439364030508423,
          -0.11168584618961565,
          0.21824755860118422,
          -0.047940629636729334,
          0.0835338937324172,
          -0.03171289498159259,
          0.9537257189678107,
          0.15602088340168402,
          -0.029674475841774507,
          0.07634304716124886,
          0.11455161862963294,
          -0.15360239312051596,
          0.21736521950332124,
          -0.01625321594890831,
          -0.0704020697685177,
          -0.0057399884943902186,
          -0.04366447078872392,
          0.01457956902169353,
          -0.02575874070215084,
          0.3312380435778614,
          -0.0935484155776745,
          -0.763108470252755,
          -0.12301833899330614,
          -0.17498287341074356,
          -0.30403280681258815,
          0.4465414527331221,
          0.26729082801264814,
          0.07314243363879415,
          -0.031554761040623436,
          -0.16243314852878873,
          -0.17316983985124224,
          -0.19015096339550575,
          -0.059694235630222726,
          0.6548837947245179,
          0.11095753343692281,
          -0.9180393185307779,
          -0.3841259061734038,
          0.6749821744732097,
          -0.20596820555908815,
          -0.040461892909576684,
          0.029292809292614637,
          0.07508509413583893,
          -0.2565257551435846,
          -0.11038717423964023,
          0.09944952655738339,
          0.027106640244262657,
          0.45094852053706413,
          -0.010962362460697487,
          -0.06556553608581547,
          0.027319260773023817,
          -0.006384279477308718,
          -0.00037119348001854403,
          0.23309843436576003,
          -0.1500113493279059,
          -0.11533744239339974,
          0.09428068285684181,
          0.06132520346410649,
          -0.4460906084254349,
          0.10871381253396786,
          -0.02488853755476291,
          -0.41965316075917547,
          0.09476920719000537,
          -0.6328882384359472,
          -7.245267614050356e-05,
          0.03893747547751693,
          0.07565702711542195,
          0.03247418129471893,
          0.05481790259029472,
          -0.16903687043964427,
          0.645212360382131,
          -0.8250675543595835,
          -0.12646027473367885,
          0.2645044065208273,
          -0.25645182992860643,
          -0.0461940341977574,
          -0.02917800564546373,
          -0.005890333369241532,
          -0.16789435442432388,
          -0.24682921791081247,
          0.040375870334809105,
          -0.4909397187058888,
          0.0829846539110324,
          -0.016073628629955698,
          0.12071170929405226,
          -0.1873044049530615,
          -0.023242318325770943,
          0.030534288671949458,
          0.04802086459445632,
          0.43394044691841294,
          -0.08894466749354533,
          -0.0680255199683051,
          -0.06536731360364756,
          0.09836299154072999,
          0.09647635326263129,
          0.440797891517456,
          0.047989302172100644,
          0.4951977591746539,
          -0.09910298471628308,
          -0.1173146172122336,
          -0.08424166205397915,
          0.030681011775059115,
          0.4742917121221317,
          0.18451509967892527,
          -0.09708401349259944,
          0.10599220599083867,
          -0.0982879315510963,
          0.10844270072594796,
          -0.11143185356977402,
          0.029294518123431937,
          -0.09624948809439945,
          -0.04083249383137198,
          -0.7964217377971231,
          -0.06314789257495663,
          0.18581861676989755,
          0.14924390417447655,
          0.01186677044501641,
          -0.06617926636112177,
          -0.1443461295710596,
          -1.0039430389474606,
          -0.17062658690484844,
          -0.10298569798857787,
          -0.0936317789322422,
          0.04522276804107763,
          -0.1854705546355054,
          -0.5627128762107662,
          0.0240865491723928,
          0.7988077911628011,
          0.044176746305345474,
          -0.2507811779329294,
          0.2196268117534434,
          -0.0714645543648794,
          1.0353558061860857,
          -1.389966697553262,
          0.2278506397012406,
          0.8478951146744778,
          -0.0917659887247632,
          0.09330464596325586,
          -0.017616464026722234,
          -0.06961810475672775,
          0.5179998398763501,
          0.3054570326993961,
          -0.06289671611468062,
          0.08579711901894548,
          -0.05512085024495633,
          0.24088223938332923
        ],
        [
          0.013659390269523364,
          0.10632471388533457,
          -0.21998084425176706,
          -0.017630582398277046,
          1.195034261667626,
          0.08728976690060607,
          0.04614108653309992,
          -0.6887615789538787,
          0.011873376531858751,
          0.1807422307545588,
          -0.04744795048664713,
          -0.30323090773935124,
          -0.14517030623315363,
          -0.03410652487890005,
          -0.005644607914621025,
          -0.07862338532308896,
          -0.03454749243132592,
          -0.08602439693675737,
          -0.08532058984605803,
          -0.1103125161157183,
          0.00028942586319698573,
          0.05890164776938018,
          0.01136230352603984,
          0.08554691117025949,
          0.26154365510140803,
          -0.02796755678635969,
          0.5325438080085216,
          0.027320731979165153,
          0.23333675779143845,
          0.2888950951146812,
          -0.1976119803032538,
          -0.03923511615969428,
          -0.013327849004556538,
          -0.10238158600574242,
          0.02115520179977614,
          0.4854238846881119,
          0.7394178280741266,
          -0.07719049325949509,
          -0.29390328281824374,
          0.021894991870477203,
          -0.16952647693981623,
          -0.21195743420861762,
          -0.5022665841669445,
          0.04696269062150421,
          0.016855966651112136,
          -0.040063783938604276,
          0.0423131094394386,
          -0.1302806394507869,
          0.09558762214813792,
          0.007446040109533844,
          -0.06352985913008986,
          -0.2685816780932961,
          0.11082115809261203,
          -0.04749944851643892,
          0.045802002052272056,
          0.08590747340839262,
          -0.0032659114237395233,
          -0.022546245750523237,
          -0.025125303871528316,
          -0.27989405948027235,
          0.0823281717413144,
          -0.03478196645195877,
          0.11095936710900184,
          0.04769786082061901,
          -0.0691156819352616,
          -0.21437798566344163,
          -0.007857397919567707,
          -0.32191871311973586,
          -0.02138159240670595,
          0.05634888202367731,
          0.011421865664804482,
          0.1316244276468712,
          0.024401751724590477,
          0.0689748818120305,
          -0.04093631550919351,
          0.7748770034483246,
          0.042314034765270715,
          -0.10053161278115474,
          -0.051750191312599426,
          -0.027722953399026175,
          -0.15377602239104723,
          0.012465094975000852,
          -0.1317325240845337,
          -0.2155286767215382,
          0.09521636548844697,
          0.17430703998628783,
          0.07576802826149098,
          0.8498748076225794,
          0.09414432527724195,
          -0.08630034223617457,
          0.0070902936936455266,
          0.04087045371498643,
          -0.049005088069704036,
          -0.31571504324764654,
          -0.10428557369511361,
          0.07955899583122036,
          0.05669935700145846,
          -0.04755512816330842,
          0.07669253583710448,
          -0.16882903578889605,
          -0.14806951965579573,
          0.5758676231993181,
          -0.0838075683372371,
          0.20887717739957526,
          0.0564029444572959,
          -0.8295419681153545,
          -0.37476646154026777,
          -0.06942296203822895,
          -0.09915404023641859,
          -0.06098452348415366,
          0.07715361346562531,
          -0.07371334657283468,
          0.5808011966619265,
          0.008862860953876176,
          0.07030786675979746,
          -0.06146855611623341,
          -0.009247987521552682,
          0.07410437091208485,
          0.34910147341849485,
          -0.011190602246799153,
          0.3154162876358822,
          0.085285903257446,
          0.05669994252054153,
          -0.11994634577886942,
          0.4468558818751274,
          0.015480936470014424,
          -0.023019028169729776,
          0.07394390317826377,
          -0.025378073194869715,
          -0.48057941945936583,
          0.05594401100123171,
          -0.44691540447024564,
          0.0061289760827483,
          -0.31398693016324386,
          0.0007674538678630395,
          -0.052426500827113615,
          0.40488362475240414,
          0.31476861883407,
          -0.12802667846782506,
          -0.5590764275398364,
          -0.09293343776658831,
          0.03407466299691979,
          -0.014692856680433455,
          0.10203894721045288,
          0.2764603070109506,
          -0.7848657306749468,
          -0.09223490707023141,
          0.002147023407274536,
          -0.11535817914550933,
          -0.24660592931257644
        ],
        [
          0.018905230083982767,
          -0.015086924911979133,
          -0.30199281199092964,
          -0.02104021972627144,
          0.7027865324308806,
          -0.08339176619085273,
          0.02740011053346024,
          -0.2574060716282325,
          0.023586339015224903,
          -0.13651227009995978,
          0.03826507051366647,
          -0.854637362762976,
          0.09821918254454044,
          -0.12404433043913894,
          0.04745903373885619,
          0.016058996059536645,
          0.014140697984330102,
          -0.24581027185825935,
          -0.059613017841413644,
          0.08379586405535878,
          -0.04037981211785042,
          -0.08024754639767841,
          -0.021233685776767843,
          -0.046174351292998704,
          -0.6832630831766755,
          -0.0876077879919598,
          0.07156787842844511,
          -0.05316146465692109,
          0.13435753427247277,
          0.7133939920779184,
          -0.388556543460093,
          -0.2129728708963,
          0.07874265010437072,
          0.007426294248002093,
          0.011610779048418968,
          0.4913550455330648,
          0.47278024683169434,
          0.08090471059337632,
          0.32392916836934355,
          0.10153683948079964,
          0.13201538071095834,
          0.11733673710799003,
          0.33671515954936077,
          -0.08138293254805401,
          0.1653649859541447,
          0.06933732665733895,
          0.06394142036175403,
          0.4304956477571073,
          -0.10916365713689778,
          -0.0004166793098739625,
          -0.1102246139642344,
          0.22526603207028825,
          0.03760404551843094,
          0.06897596319508544,
          0.05587827689168945,
          -0.031842030457342935,
          0.07357232806218854,
          0.1104747611594967,
          -0.8980171585599955,
          -0.2312391485738853,
          0.054518782654028757,
          -0.08028110828334843,
          0.41102982999029475,
          -0.057386677988568335,
          0.0014753235853344445,
          0.2450041772540768,
          0.03845475641192243,
          0.8185853847998049,
          -0.2405213673796168,
          0.04538630287885494,
          0.056066749737487175,
          -0.218521585901154,
          0.058815248974336466,
          -0.9536577325570962,
          -0.022298396258835413,
          -0.49416163466174823,
          0.7130847537364718,
          -0.2683534322282379,
          -0.07274954364840808,
          0.04544677698683199,
          -0.438550810001245,
          -0.03946153096527183,
          -0.5707117650532821,
          0.22928643010718378,
          -0.11349142931433341,
          0.21540715541040587,
          0.02949726624022811,
          0.8147477931278772,
          0.006001887405255764,
          0.16058126015209614,
          0.0016051367560383338,
          0.09383535979800788,
          -0.09609121543352607,
          0.09451742244272554,
          0.16533086487401755,
          0.0048194921473207935,
          -0.49990531913199204,
          0.0616985422693541,
          -0.06405540563261555,
          -0.07011927071231892,
          -0.11457171590718751,
          1.2481269322166293,
          -0.05008432893291772,
          0.015381521706526497,
          0.04127169853107229,
          -0.7581709222883497,
          0.728414123352957,
          0.23668652225195283,
          -0.018137264551290354,
          -0.0546883327467477,
          0.07616526535836662,
          -0.036534102615645284,
          0.13715028282492536,
          -0.09583976587405509,
          -0.05621434541011783,
          -0.09205134576408264,
          0.758228996868593,
          0.01216122354938298,
          -0.39206303360614586,
          -0.02152523373485631,
          -1.1595001927932662,
          0.012874291602935723,
          -0.2781205414182265,
          -0.6317427889157028,
          0.8950838598903478,
          -0.08140209915100731,
          0.016798237185968717,
          0.24819017584323408,
          -0.13313529981397187,
          0.1768076622950992,
          -0.002042416306245633,
          0.43707767431096184,
          0.010412999321291883,
          0.11264688689328022,
          0.04731066202140236,
          -0.02693924406542836,
          0.6732785225949063,
          -0.7970295053742292,
          0.06948724075379428,
          -0.9418628315566066,
          -0.08434033127408876,
          -0.10732251851738518,
          -0.06786712256118496,
          0.00734616521704499,
          0.4079451367607606,
          -0.47762487929488967,
          0.10885969860390744,
          0.058365608630453536,
          -0.08271295981182344,
          0.12127067506797751
        ],
        [
          -0.03338614047155382,
          0.006291232450487498,
          0.23872046798581667,
          -0.053668087717354415,
          0.5086357865920756,
          0.010099115073575811,
          0.09936442679863952,
          -0.2929315161341155,
          -0.10856505055005865,
          0.047344006907709575,
          -0.08700533115107964,
          0.477674753002574,
          -0.19836932403601248,
          0.05718907918944784,
          -0.023151863431101875,
          -0.06543910043648268,
          -0.10152798742782779,
          -0.25355924514040484,
          -0.04315182202876212,
          0.008747199120490951,
          -0.003397626490752645,
          -0.03028347881508305,
          -0.07209049094836634,
          -0.09356039057212256,
          0.11075927303215988,
          0.050033760353303994,
          0.8999843191453764,
          0.038987088931732285,
          0.09524034096353014,
          0.053965850624387454,
          0.04338829129999053,
          0.03276167060029968,
          0.01192864837075328,
          0.10606928121216752,
          0.08976792781126423,
          0.5636231201953943,
          0.2989972500373213,
          -0.009883052530960428,
          -0.2654889001370093,
          0.11320553694144779,
          -0.01906840984188673,
          -0.2345326941867064,
          -0.5506657479994542,
          -0.06868060026570322,
          0.03640687991439173,
          0.02866579755523278,
          -0.12410398519618923,
          0.2531536802614817,
          0.10556998478974045,
          -0.04562960743037369,
          0.05645687878367233,
          0.22684786409357688,
          0.003280599410946669,
          -0.04602096969871243,
          -0.044782821848037495,
          0.08540447815323236,
          0.07678124470019927,
          0.013861321121234949,
          -0.32964618934675277,
          -0.03226985965386442,
          -0.10090296907367088,
          0.03345789780836787,
          -0.5002215470867393,
          0.03947663645376837,
          0.08517197739986608,
          0.39605358121716183,
          -0.09227036952460385,
          -0.837014778896401,
          -0.212560030389096,
          0.10790988063117031,
          0.07822352047758474,
          0.0956030048642711,
          0.1616432025179424,
          -0.40418632561901696,
          -0.6929192239407423,
          0.3882397421562125,
          0.5371203643062403,
          -0.10396869743474654,
          0.06426906002848345,
          0.02265296994988585,
          -0.2743021412315237,
          -0.10233471854174545,
          0.16983718744948784,
          0.07129354604171717,
          0.11483691652212892,
          -0.5949717468260889,
          -0.06785748053663072,
          0.11146168393750885,
          -0.0402071441847647,
          0.10698062355481248,
          -0.08956699823913652,
          0.0008968067362939744,
          -0.040884814051243966,
          -0.10283643661931205,
          -0.12111149053333635,
          -0.05877327420289411,
          -0.30362086095235513,
          0.09232605489239874,
          -0.11068349951884175,
          0.13314428696243927,
          0.13836574127701112,
          -0.2160125711669288,
          0.00937610292629571,
          0.18307370275686385,
          0.06188174943402894,
          -0.5993001529162251,
          -0.3564805297007024,
          0.04902881261672813,
          0.007936818585415072,
          -0.005179924704229718,
          0.10411379215048437,
          -0.0990929993045827,
          0.25963125423248795,
          0.035581021289011645,
          -0.01852280594671171,
          -0.12901227810325436,
          -0.4940154292131713,
          0.011688901352016565,
          0.6050290133778745,
          -0.033985629388485414,
          0.29237147439249955,
          -0.062256674983530796,
          0.10896405629439884,
          -0.12656846777880035,
          -0.4111580308929769,
          -0.035882559242707085,
          0.04355764612366075,
          -0.09685821728745377,
          0.11608535780839875,
          -0.2463675998729966,
          0.050992510341009455,
          -0.5531575640025248,
          -0.04132202534206603,
          0.2905625288199184,
          0.04887201563340045,
          -0.05097568903417751,
          0.3995622091053276,
          0.4128947173793062,
          0.024457022507374287,
          -0.07013868030952283,
          0.0024331907596023125,
          -0.050542560835107796,
          -0.02953707481082112,
          -0.08595880370474701,
          0.10124702267659723,
          -0.1629364597028215,
          0.09742142778602757,
          -0.08279315497979929,
          0.10273265130245954,
          0.06458367353517006
        ],
        [
          0.06359874691111746,
          -0.033825520196271844,
          -0.9090848052960239,
          0.0525103162957798,
          -1.0029436858488134,
          -0.005152100161433696,
          -0.03733656565516886,
          0.3435890350999538,
          0.004986152057569999,
          -0.07908456688629598,
          0.043135906248418905,
          0.16645186554934718,
          -0.014215696481465824,
          0.07276873211596933,
          0.020712747278549222,
          -0.09816828356527448,
          -0.08427162005817215,
          0.12671563018519205,
          -0.019367246362815498,
          0.09766068916631865,
          0.05388992949330708,
          0.017568872473271064,
          -0.11307650168215465,
          0.0017088192008523156,
          -0.5974936008963896,
          0.06447821020898879,
          0.43786369734811215,
          0.028383178579308617,
          -0.06434740808183012,
          -0.5295782840827871,
          0.20436198684668608,
          -0.042374490481834386,
          -0.08553462660471867,
          0.07971818301113022,
          -0.18916589764316993,
          0.36274986191281383,
          0.11457782597828929,
          -0.058526468915627884,
          0.3350062381420421,
          -0.07008776641776275,
          -0.21862636892106488,
          0.08869827683276374,
          0.2689416390063002,
          -0.20452103422925288,
          -0.053061105191041444,
          0.044994898973740254,
          0.032789093357716494,
          -0.5200241658893103,
          0.0018870876096798513,
          -0.0482445836014993,
          -0.06214072288793958,
          0.3277618771191387,
          -0.041952575212496054,
          -0.07715729586137957,
          -0.043435104331680546,
          -0.014416512800151908,
          -0.03094201640243368,
          -0.07687304533009127,
          0.317917562409957,
          0.01559176041034824,
          -0.01937937127299411,
          0.10570819398293971,
          -0.3328073291298503,
          -0.12286965020088822,
          -0.11230332304682682,
          -0.1855462797191529,
          -0.02527755668197167,
          -0.021606358170406577,
          0.005771457426000646,
          0.01970128533218895,
          -0.03932433184910155,
          0.10465655483403088,
          0.052022953367152,
          0.17345862107335527,
          0.02129514159497775,
          -0.8363105673696899,
          -0.4319479181627392,
          0.06835573073125056,
          -0.12708597505907407,
          0.08332994637597763,
          0.13189847421817896,
          -0.042330670146637724,
          -0.062359710224778556,
          0.09686191599009072,
          0.09757614033957475,
          -0.6867018647233295,
          -0.09842367580345117,
          -0.25335567314246155,
          0.052066909341727224,
          -0.03409638161749215,
          0.06948347790158212,
          0.061523817962420964,
          -0.10424942360268197,
          0.0180944165985795,
          0.012739032367262487,
          -0.07157899842952282,
          0.02911760635394384,
          -0.052921700749559764,
          -0.09333442770812891,
          0.008498718590846261,
          0.00715107613818107,
          -0.29123373957879883,
          0.08300844732188091,
          0.09402431619494447,
          0.08202412134732825,
          0.4514675125725453,
          -0.19133856961010087,
          0.0027032432412980095,
          -0.08927227157017086,
          0.005426089806662455,
          -0.10683725745419684,
          -0.03775551681913841,
          0.2888901877500775,
          -0.011318098808108377,
          -0.005534399337378281,
          0.10329083943099678,
          0.6164654956657338,
          -0.0746666088060849,
          0.003267569531257775,
          0.0276275455870376,
          -0.5537655603408521,
          0.006144215287355248,
          -0.09418927817759874,
          -0.02173916536188186,
          -0.6588361458297809,
          -0.09355205053274876,
          -0.007973182154509793,
          0.11931545158440357,
          -0.04187497539614098,
          0.06043445770826879,
          0.010830394465458316,
          0.4051251409666526,
          -0.06237614282185332,
          0.3955401229996885,
          0.0341816503799568,
          -0.06528475486195627,
          -0.0837245511133537,
          0.43267686657102017,
          -0.23401111632584248,
          0.36813841249986173,
          0.018238038010684663,
          0.023498397768917597,
          0.09161515760766745,
          0.051699754436499296,
          0.07695175141717488,
          0.4768309575114692,
          -0.0034266220134177953,
          -0.0904069984885369,
          -0.11151465189551238,
          0.06586255967350971
        ],
        [
          0.11332101131586121,
          0.0690271592025366,
          0.09546162792222179,
          -0.11220555392872152,
          0.9931742493419835,
          0.01119296522784117,
          0.05911972687117924,
          -0.5181090942709624,
          -0.029001454754759595,
          -0.0929036322991707,
          0.04980577991350532,
          -0.1416896272439279,
          -0.028862344265187915,
          -0.09799524849029644,
          0.09240124307039854,
          -0.07821264529336551,
          -0.013763659528052289,
          -0.052756360047082534,
          -0.07392176087494691,
          0.014497536229525284,
          0.07317956758828253,
          -0.09235805914597237,
          -0.07061770740094132,
          0.08355095691957826,
          0.060848425659915197,
          0.11429376738483728,
          -0.11628405843008374,
          0.11235262991322927,
          0.19098765616428953,
          -0.47581530719487036,
          0.5060372277320101,
          -0.1998832930870006,
          -0.0792761900129206,
          -0.09100286721787962,
          -0.19140251527204794,
          0.23625544960209105,
          0.27233623785870803,
          -0.0804444735112827,
          0.01499882882088031,
          0.06039907117395378,
          -0.1570287764666286,
          0.13575346641288208,
          -0.1360650625611702,
          -0.19850336202992128,
          -0.15213214248898863,
          -0.09958558675716013,
          -0.13578027208804508,
          -0.5030914633807616,
          0.07748670429778363,
          -0.017819736664410626,
          -0.08796266740517107,
          -0.3949684364763078,
          -0.07892640839368832,
          0.07449635698600471,
          -0.06403490580973342,
          -0.012139776354336206,
          0.03465281031216078,
          0.03892664805870065,
          0.11374218794006825,
          -0.09944056589754717,
          -0.0998852509923177,
          0.10185997119605497,
          -0.03678283660200127,
          -0.004491298246066787,
          -0.008450413293595952,
          -0.07298527743144295,
          0.08990296966668382,
          0.637964291407139,
          -0.14442785991027096,
          -0.0366329234326054,
          0.026542780433975236,
          0.09180763885579163,
          0.01882469319701194,
          0.07851053304217148,
          -0.08519009874376032,
          0.8098256789333008,
          0.5178761728759711,
          0.12374847410811542,
          -0.07307773255295981,
          0.045778062062625254,
          0.17363370149193155,
          -0.023820044377707184,
          -0.12118903432564103,
          -0.03215975305458138,
          0.056486081019715806,
          0.9394749890334465,
          0.017272053512109357,
          0.021519514820484913,
          -0.033966208462852865,
          0.13134826193995475,
          0.03447831704032445,
          0.11194642962696985,
          0.022534446400732412,
          0.404307002513977,
          0.11934378811664323,
          -0.06120572148561983,
          -0.02550582324343079,
          0.05154799174213173,
          -0.07850388854472345,
          -0.2924888959009095,
          -0.12005106907968076,
          0.24309845025375842,
          0.013783669040460106,
          -0.11939165092976227,
          0.05111674514012215,
          0.06258365406863971,
          -0.3377224976795453,
          -0.008996424303365884,
          0.018811290137953122,
          -0.025051151385022934,
          0.0768788763517157,
          -0.060420916149290065,
          -0.2915000456029408,
          0.019132456445729012,
          0.0522137300508922,
          -0.06918284379577506,
          -0.0039768280756796144,
          0.006850906701577108,
          0.257776266120567,
          -0.044560869736299275,
          0.49296921912901154,
          0.011375080695548307,
          -0.09860244689962719,
          0.36233355610460366,
          0.2602391917649316,
          -0.08906024671943497,
          -0.11241341769039172,
          -0.14478956842095758,
          0.03315990648951636,
          0.0984271541243494,
          -9.971405010157723e-05,
          -0.27297484023643864,
          0.1122564414715834,
          0.15006728891717208,
          0.20166559316464402,
          -0.05371164841041445,
          -0.3950586336105226,
          0.37589877404925165,
          -0.18463426972857278,
          -0.6471831694827307,
          0.06918195972369573,
          0.05373293210839456,
          0.09825603717286437,
          -0.10985236998101647,
          0.4560064358296738,
          -0.4298829655853225,
          -0.08714936822609351,
          -0.11545519742025707,
          0.08315948932465755,
          0.03940900571161925
        ],
        [
          0.023169182941903923,
          -0.10363624643914358,
          -0.055836690329649975,
          0.018174400971246233,
          -0.4423631748893397,
          -0.09602117149137887,
          -0.02633972026228392,
          0.18870722301745368,
          0.0871172404754842,
          0.05450021735354873,
          -0.02085040722660221,
          -0.013711389173125798,
          0.152164176971833,
          -0.040639149363411925,
          -0.08453183590493486,
          -0.00883655465394021,
          -0.09935447009506164,
          0.031023497160553123,
          -0.02355217258738896,
          -0.10305779783040446,
          0.038864807377949014,
          -0.11343637696746822,
          -0.07059494142599057,
          -0.10586182949431329,
          -0.19343455475515023,
          -0.02446721076274588,
          0.36033952708356726,
          0.04467968551224334,
          0.2731075578833826,
          -0.3952515831114758,
          -0.19754774659178054,
          0.00796701928053529,
          -0.041768799625602065,
          0.031143806253783834,
          -0.1898884741014594,
          -0.3053736203373839,
          0.16250491139315892,
          -0.1068759697004867,
          -0.02302040250841816,
          -0.08552412239685674,
          0.11140665430265687,
          -0.149845655382432,
          -0.4723759329376103,
          0.07583819750620328,
          0.051621914494624103,
          -0.11199630070300053,
          0.059210161477927806,
          -0.34348821097902443,
          0.04777194872974304,
          -0.0023471215929428213,
          0.09001826208364079,
          0.12901071888762053,
          -0.07478474651246576,
          0.04199423352883133,
          -0.045728430848664854,
          0.07461247109227379,
          -0.02116864200831766,
          -0.060029921531045465,
          -0.13946785132191014,
          -0.004271470385993832,
          0.04892084681799866,
          0.011865636311286558,
          -0.3018730091843499,
          0.09485471942792348,
          0.0020699951808679164,
          -0.25198308245306494,
          -0.04191333513378967,
          -0.04549134760830095,
          -0.026629248426748173,
          0.07751549847279446,
          -0.0717772759212481,
          -0.13170013342964323,
          0.06780123367545532,
          0.030462423098362786,
          0.08666492912834235,
          0.41207262610540724,
          0.09544773271180404,
          0.1088603889488378,
          -0.07718550741850155,
          0.00406737577711486,
          0.16133815277272448,
          -0.08715468117079751,
          -0.02725978302822171,
          0.08701955155313486,
          -0.033218957057227785,
          0.2086876607465701,
          -0.00031197052199718355,
          0.03579206653423397,
          0.08169736825176038,
          0.04860447299726301,
          0.08022719864794561,
          0.014585505329940456,
          -0.00533593128500712,
          -0.5447833650774537,
          0.11789797196249588,
          -0.07732142057522372,
          -0.025181098485069803,
          -0.037599384234079825,
          -0.07052721668771833,
          0.1614244167124293,
          -0.0495980921360978,
          -0.5535722614737092,
          0.02919756413520851,
          0.005684691500188848,
          0.0998528337429613,
          -0.05106528505838903,
          0.5725528970187549,
          0.2648526772461369,
          0.004345940339105031,
          -0.03088503500541843,
          -0.07140297353500066,
          0.020744531116760598,
          -0.12777664397177013,
          -0.056451678431102686,
          -0.016248202886025732,
          -0.007001307409290901,
          -0.024159900105946836,
          -0.09592479684274038,
          -0.21625603934570162,
          -0.016716373014973092,
          0.010628461374385209,
          0.026394345480482372,
          -0.044337269773553616,
          0.02374741248671648,
          0.5335700084031663,
          -0.11272876635744648,
          0.05574757340622512,
          0.03754838699934993,
          0.0333650813134396,
          0.1671892794519853,
          -0.03840603062740601,
          0.5728272807871794,
          -0.08666789879510499,
          0.0834486876525372,
          -0.08014650680452619,
          -0.22942021661769021,
          0.301171955950836,
          -0.45265247898916944,
          -0.43810720774184886,
          0.16376869727133,
          -0.042245071752353126,
          0.08417774303210308,
          -0.06349322567409607,
          0.07737859747971877,
          -0.049998288205611384,
          -0.05781635251324071,
          -0.09726889571084156,
          -0.0967183497663573,
          0.012005425273329658,
          0.13342399799452398
        ],
        [
          0.039436163095410745,
          -0.06410181142297525,
          -0.2535910122232441,
          -0.07660533141447835,
          0.8446886437668157,
          -0.018356816762618477,
          0.11785862978930821,
          -0.6941417866171388,
          0.019178006571961958,
          0.18014200962385002,
          0.10887315841096823,
          -0.20100191221385214,
          -0.06209193368696091,
          0.07188370322468128,
          0.016976367590995658,
          -0.021484833201279516,
          0.05830808835074622,
          -0.05561280169461994,
          -0.04028093666273268,
          0.05623758030410406,
          -0.012277275186707357,
          -0.11459882809393356,
          0.08109269189553103,
          -0.057178776172681994,
          0.1747306661387191,
          0.08392048121953748,
          -0.1618249794132589,
          -0.04529326699620228,
          0.06771072601804785,
          0.03503205805027098,
          0.33326635967334683,
          -0.13407795856705032,
          0.08874414169287445,
          -0.10727239380791803,
          -0.02749094385250398,
          0.12386698970913902,
          -0.22890913272989014,
          -0.012265253315976722,
          0.21920819703335848,
          -0.0326949494787197,
          -0.1027339018892024,
          -0.9358236686213338,
          -0.5586439514996515,
          -0.09155948127860714,
          0.09275914905536667,
          0.07099175052614892,
          0.02112275590720075,
          -0.14802993910787693,
          -0.07561208814035193,
          -0.08217513776760224,
          0.048285455255232236,
          -0.6012802431934939,
          -0.11468668829637631,
          -0.022929056179582376,
          -0.09913698774338263,
          0.07080277860710246,
          0.09733969469040114,
          -0.07932144373670136,
          -0.24621180862617448,
          -0.020815925125059115,
          -0.09786650194531742,
          -0.09782393148917855,
          0.5156803018858122,
          -0.013379960637398429,
          -0.0815472542063364,
          -0.5161906886141819,
          -0.07009518225951199,
          0.1670079878244135,
          0.07936148230818246,
          -0.05055023676211051,
          0.0704460902254024,
          -0.18126833059994343,
          -0.05454489682657319,
          0.2142275338080323,
          -0.4679194305795915,
          0.14398048583898215,
          -0.051647151516271146,
          0.02432317534104221,
          0.08303495177633104,
          0.02926733068479728,
          -0.028230651341778438,
          -0.08452958699839161,
          -0.31305522068372904,
          0.014255825389658796,
          0.10216909937881384,
          0.6644527743784424,
          0.06833391333790702,
          -0.32682341247792085,
          -0.1057668170007608,
          0.13912990756897672,
          0.04118768581902699,
          0.1111338362320452,
          -0.07623532888472666,
          -0.023168816648927074,
          -0.044155857716714646,
          -0.041129715775308835,
          0.06633437855606057,
          0.036233805900645726,
          -0.031941102849035424,
          -0.2058302370106745,
          0.061944064445224226,
          -0.24281391343299155,
          -0.024268390732387138,
          -0.05276113378713608,
          0.021992303149329772,
          -0.024501814288889152,
          -0.6057983858926537,
          -0.05832015354344862,
          0.06514525376972936,
          0.06857871924394959,
          -0.10267371753561924,
          0.05635578887704068,
          0.1790552397652403,
          -0.07562882815597975,
          -0.11233863257950713,
          -0.0025506612970383,
          0.4748320509204986,
          -0.015168850826588663,
          -0.22043680367374882,
          -0.12785288230360997,
          -0.19177892113270953,
          -0.08754848827910376,
          -0.01970667431400985,
          0.30553091863365217,
          0.015259239100433556,
          0.00026720307301644015,
          -0.03317901171361139,
          0.05590446893350625,
          -0.005391127660685981,
          0.44929422582257567,
          -0.050028314930535146,
          -0.0014826063855650916,
          -0.08811593774155009,
          -0.01428235707295575,
          0.09545984552666335,
          0.22455602384755408,
          0.09909990030023261,
          0.32437443813154687,
          0.25773745030824824,
          -0.4775438809467152,
          -0.10302994623507648,
          -0.11403451914894505,
          0.043593665571851986,
          0.0783415189202372,
          0.3520810135857431,
          0.46248101356133176,
          0.02669202523047984,
          0.04211340714329028,
          -0.06647153984165452,
          -0.10866165473885082
        ],
        [
          0.005484114878095491,
          -0.023542278103176145,
          0.2517240952474347,
          -0.014704790272032394,
          -0.8530038865916718,
          0.012964525607262536,
          0.060156569797676376,
          0.10667834519502072,
          -0.0676338605222601,
          0.0002650687852841344,
          -0.01976060270684109,
          0.18748299237250177,
          0.02473401133713252,
          0.025877066978076034,
          0.1107771221886879,
          0.09473679112501027,
          -0.06804809321372514,
          0.04222513671370246,
          0.018664085824183933,
          0.06537771517335915,
          -0.0530019933677524,
          -0.02200575814947478,
          -0.08364281467868598,
          -0.06190309505299834,
          -0.09335657317518009,
          0.10029028034826558,
          0.08805244746694244,
          -0.05103314728573477,
          0.2803352542499844,
          -0.06030187893504098,
          0.522395885945793,
          0.07401853020357821,
          0.06760995623279331,
          0.02229789568510786,
          -0.0837271822269847,
          0.3354981032845775,
          -0.23974613692548327,
          0.08740367291358632,
          0.14464114369786943,
          -0.09749972799399148,
          -0.03307310064969729,
          0.32318651273702265,
          -0.10738315509353343,
          0.0592260202870314,
          -0.12702689465873573,
          -0.1091852681336675,
          -0.02810152934510153,
          -0.5492525614355145,
          0.05104716530940067,
          0.006935807238616719,
          0.010108101750175182,
          0.13501513497581008,
          -0.07701083060023749,
          -0.06367102443689313,
          0.06023820073847804,
          -0.10128739308964077,
          0.008525885848273794,
          -0.013875265927992726,
          -0.007687195146179568,
          0.1500143081175982,
          0.02929465858612457,
          -0.10837478169931918,
          0.5969562701451031,
          0.07816684203805332,
          0.06483761027562618,
          0.23457785762789285,
          -0.0642389811054148,
          -0.3248415262907173,
          0.13261416282693816,
          -0.11301535607555953,
          -0.04249363574661869,
          0.10853201343129203,
          -0.13456353801233994,
          0.34723489129441404,
          0.3448975984715617,
          -0.6034340531730896,
          -0.3985537886692364,
          0.09983410326730212,
          -0.039269721882386595,
          -0.0581106014965863,
          0.1599318719339982,
          -0.053656884545407,
          -0.10755778852543957,
          -0.02245423035986817,
          -0.1145874178988716,
          0.3379545349246651,
          0.022925998199369645,
          -0.5465240523333268,
          0.07831598462029901,
          0.12028485648352187,
          -0.07826028611102219,
          -0.01720533029354247,
          -0.031455179983284204,
          0.19429715731693478,
          -0.047147924262713733,
          -0.06339076179551854,
          0.15097670005531674,
          0.013054415322078053,
          -0.005037095559583513,
          0.0738721303784947,
          0.05407634299954334,
          0.20653241865497407,
          -0.038612883678894455,
          0.16372812844766213,
          -0.030188414877360178,
          0.3153287079582607,
          -0.5307045474082005,
          -0.05454076235438152,
          0.009229616634942102,
          -0.019543077108292888,
          -0.030392299246043794,
          -0.03801501578801155,
          0.09592764915604479,
          -0.017337206603568904,
          0.09092259397595968,
          -0.07941342378379644,
          -0.012052825508903698,
          0.015003031663026559,
          0.06588642097494884,
          0.09465441045301609,
          -0.12206667741298839,
          -0.023437890512786268,
          0.10627953660962952,
          -0.43548724826191787,
          -0.6466314190480462,
          0.1030200023461131,
          -0.10843432141449455,
          -0.04789147472121194,
          -0.06654778645864666,
          -0.3725487808285642,
          -0.11873258631204257,
          -0.09499679987288452,
          0.054344902995729895,
          -0.14372067438161668,
          0.14117196975648227,
          0.09571474926205314,
          0.04504737562903204,
          0.34823392722523067,
          0.18133767053915,
          -0.07366795455965731,
          -0.03537901940463326,
          -0.08948490513116027,
          -0.09422438935658381,
          0.09635463240418393,
          0.3180248698736565,
          0.44918352533067346,
          -0.10376116550245368,
          -0.031396169201422165,
          0.1010708170764336,
          -0.049095394511875876
        ],
        [
          0.026415793486545616,
          -0.07466363134976288,
          -0.10735171749070933,
          -0.0374948888885721,
          -0.17377839504718495,
          -0.11267976474124763,
          -0.01565066587657346,
          -0.28005922266363736,
          -0.03508381709030542,
          -0.14342004195190475,
          0.077988796274812,
          0.7450993052508432,
          0.07484774695256197,
          0.006149834890742009,
          -0.008055457427980785,
          -0.09079398694042046,
          0.018418703485392506,
          0.028360310974970007,
          -0.04645709726891072,
          0.04418367138979256,
          -0.08109493327540565,
          0.11527527848953732,
          -0.052350881774173824,
          -0.020133476037335566,
          -0.008308531508545443,
          -0.05310411273186847,
          -0.3898751284403965,
          -0.08817796019097165,
          0.18744319830491973,
          -0.07102713874471453,
          0.1373529374151195,
          0.08223943155193149,
          0.00473721638082651,
          -0.05506197829706374,
          0.08786934589403968,
          0.07157506674689802,
          -0.23641314377309092,
          -0.016494267438681997,
          0.07602057144536606,
          0.07307567281891662,
          0.06299658655470214,
          -0.09631102670073566,
          0.700434933393837,
          0.10172521264530908,
          -0.04833679872928173,
          -0.026705930242936774,
          0.0642102619784602,
          0.007113556648698281,
          0.0072073393131001995,
          -0.05604057694485511,
          -0.0850531342315514,
          -0.07922636055770807,
          0.009829990572385624,
          0.0023586695336787642,
          -0.04213017615500279,
          0.05555954973865257,
          0.11169669291044507,
          0.07324017793024955,
          -0.016571361008963673,
          -0.07292866661021939,
          0.0372856375781466,
          -0.037469229198719055,
          -0.33354114482905634,
          -0.02367361734889169,
          -0.08065221988837493,
          -0.3264248511987878,
          -0.019552054106304156,
          -0.1128950944224138,
          -0.07441371891974485,
          0.09670706319596402,
          0.1072170479847534,
          -0.1497831260631653,
          0.03023793169629805,
          -0.056655288289184626,
          0.10764982209436608,
          0.1782756376423084,
          -0.20277930230682595,
          -0.06439674816287623,
          0.06546419044525373,
          -0.11343127543687469,
          0.2182822352142093,
          -0.054143450326743794,
          -0.12194873026726653,
          0.106830870596855,
          -0.061174717419090016,
          0.11599270648586271,
          0.10915213348727522,
          -0.18981898506117087,
          -0.08131510342850673,
          -0.03624303645344995,
          0.0669304353789111,
          -0.032971433403644106,
          -0.04530350903617596,
          0.34814914948377745,
          0.0014608820698757499,
          -0.08181678858237872,
          0.020093204825862732,
          0.016882637291650654,
          0.061172971839680415,
          -0.07862740391671705,
          -0.07653950849350863,
          -0.09561593728511474,
          -0.025033422039784405,
          0.13711955040031712,
          0.02919749933010772,
          -0.47194503038284685,
          0.016849072375807947,
          0.09164248700046541,
          -0.06958557469947269,
          -0.06366384401934211,
          0.030722114219231413,
          -0.014905147180954804,
          0.19365750246746732,
          -0.05633141760033193,
          0.0053444628528856114,
          0.056957157101167825,
          0.24931190610168633,
          -0.03064442154112521,
          0.44500399941854907,
          0.06794896060132306,
          0.17467025463172275,
          -0.029728633280863576,
          -0.0558424866100558,
          0.30838336347343087,
          0.142180728902128,
          0.09919218527279532,
          -0.03770963657561952,
          0.06748367949649342,
          -0.11276443907819357,
          -0.6398307733348773,
          0.05942457954575852,
          0.06727971998054302,
          0.0066587912442814395,
          0.018468254816370214,
          0.03797401145910595,
          0.08871186730370427,
          0.0933665747898582,
          -0.19508622907333611,
          -0.22133667380583166,
          -0.18084505035470302,
          0.055598131643330086,
          0.018853022899848842,
          -0.0729935827984687,
          0.08027179405692884,
          -0.1259418341223503,
          0.1191875737231285,
          -0.08515553939336108,
          0.02273027101561117,
          -0.09820945993544707,
          -0.03127614639208239
        ],
        [
          0.10335417538792327,
          0.056893015105975046,
          0.14328673505544529,
          0.058956297164360426,
          0.4058089644706813,
          -0.09992306417649069,
          -0.002251309307371853,
          -0.31040715643616096,
          -0.06361894031734876,
          0.13327546203763718,
          0.06867663202570445,
          -0.39419515346772127,
          -0.19135558216150522,
          -0.0899433868529379,
          -0.05716989402483419,
          0.07769301437240045,
          0.03748484071667534,
          0.015535884963142415,
          0.05898278990867825,
          -0.02126213765151642,
          -0.08465821984518773,
          0.07504228094521118,
          0.02054026645033135,
          -0.056074014378182165,
          0.24906180273500012,
          0.06269348264814403,
          -0.09747166236315442,
          -0.03635198876040828,
          -0.17438600292139975,
          0.025725227363580173,
          -0.4976691422863421,
          0.040856425097640724,
          -0.05865863121874406,
          -0.04965778161801438,
          -0.04652553994381405,
          0.5559944467083651,
          0.039835235197607594,
          -0.0910236309080303,
          -0.18403895048739244,
          0.04334044735964441,
          0.10325261234208512,
          0.006778646506205743,
          -0.16056262567568236,
          -0.08856427591130701,
          -0.08786650572579773,
          0.10099972881462942,
          0.0669126590476928,
          -0.46346982444493884,
          -0.10980469454646834,
          -0.09189662962887489,
          0.03123948382899869,
          -0.020422474895017112,
          0.11283928337178563,
          -0.10390841481670615,
          -0.09047810078819785,
          0.04586433443997193,
          -0.025817551137239006,
          0.08647620066925031,
          0.03428409329187832,
          -0.08589433224488645,
          -0.0379793756376181,
          -0.027702619707297396,
          0.05951182326530762,
          -0.05991533530875427,
          0.09657239332393275,
          -0.12283866680745478,
          0.01639985808112905,
          0.029251899070502473,
          0.014873021291548567,
          0.08307500308410748,
          -0.028734714909724055,
          -0.09157790538145873,
          -0.023728864971162104,
          0.4238370043055378,
          -0.11155682282090061,
          0.3888986952665148,
          0.39892444835753177,
          -0.17699659523328934,
          0.05510137817555547,
          -0.08979327350244004,
          -0.04367946419440479,
          -0.023302908335333973,
          0.07161899363042473,
          0.052148040389040085,
          -0.018116289760379028,
          -0.08031616101990383,
          -0.06830785632037946,
          0.4703834825441873,
          0.04136640304468341,
          -0.051311359997398796,
          0.08959342586976916,
          0.1053772069943985,
          -0.006541363730787556,
          -0.17601596759894764,
          -0.007675465082285434,
          -0.07736460202623295,
          -0.05473244734365159,
          0.05660304370605011,
          -0.1085975689917524,
          -0.04226598857592597,
          -0.06399043166638292,
          0.4098935979635887,
          0.03615196274273017,
          0.011884979383977475,
          0.02213215632550292,
          -0.2780525589560317,
          0.14044836776422662,
          0.09681944430664623,
          -0.044048703531493025,
          -0.052707570868281796,
          0.008901197343857407,
          -0.0543639706998732,
          0.06650525652298375,
          -0.028430313607652642,
          -0.011314717457121917,
          -0.03895225706206165,
          0.08478947322499461,
          -0.04435272454514661,
          -0.10128493423613964,
          0.01991119289383064,
          -0.24608609814837268,
          0.04155045596705166,
          -0.05281992780134998,
          -0.25127722538436076,
          0.5978357999112245,
          -0.03357943209238451,
          -0.08750072983015125,
          0.06004026375231197,
          0.06228654841083754,
          -0.15112153476259424,
          0.030799833996111057,
          -0.23752635158434637,
          -0.09164778014920888,
          0.13638689448532185,
          -0.1747079333759016,
          0.031569147233225195,
          0.22731554763347567,
          -0.06973278963817117,
          0.13287513921462324,
          -0.2604621656722474,
          0.05412287295830593,
          -0.020970952691154742,
          -0.04929411974641285,
          -0.02406632751469283,
          -0.054439704868052274,
          -0.2643550895088314,
          -0.07330331697514335,
          0.05272686352057971,
          -0.07744357575638941,
          -0.054837674139417224
        ],
        [
          -0.0578641929198501,
          0.1088591081024929,
          -0.23010737792760752,
          -0.08551559566827228,
          0.4771733866306793,
          -0.010476595495580499,
          0.01284606095259561,
          -0.09908448078988968,
          0.009168625506413026,
          0.03318149497054779,
          0.008716955523500769,
          -0.4775435093513382,
          -0.12047815395296019,
          -0.08252148197750969,
          0.08737916382491707,
          0.05112375767672277,
          0.060822535862909755,
          0.09709024512711126,
          -0.03561354831376537,
          -0.03462224843588764,
          0.09031021837634738,
          0.07168782834565933,
          -0.03520274467741639,
          0.03061977103752969,
          -0.20029686884373743,
          -0.09034845754835763,
          0.5590790684249385,
          -0.08632596055083766,
          -0.13106789704261745,
          0.23166824535323918,
          -0.1538807669955464,
          -0.1267907708356241,
          0.026532875017026777,
          0.019213486555332875,
          -0.023864608439864307,
          -0.17029167607204107,
          0.09044738119953011,
          -0.0868914264327291,
          0.09751191392905344,
          0.0377991639113936,
          -0.011998279523690702,
          -0.7167124353039095,
          -0.28078044306914224,
          0.09901360461779331,
          -0.04877667553235725,
          0.09265076997664112,
          0.007569184591028673,
          0.07468699543340798,
          -0.045100804773329214,
          -0.13027934024248208,
          0.11513996677339514,
          -0.02109845267976153,
          -0.0763896356141306,
          -0.04627422965768144,
          -0.042482182523857596,
          0.0023953466707972515,
          0.02088035934678864,
          -0.008808065577590528,
          0.10503671453696876,
          -0.05926512416401702,
          0.028681438508594188,
          -0.021051178510399438,
          0.18453894833035928,
          -0.03755187828314676,
          0.0451378494617778,
          -0.017678109661853333,
          -0.1100737954293032,
          0.019399870564219775,
          -0.010849626227031898,
          -0.10172826745781019,
          -0.048588337529224826,
          -0.09064810342631932,
          0.04850365218486082,
          0.04530371549980824,
          -0.4439633710589641,
          -0.23775009011842557,
          -0.05444039009159855,
          -0.006614113916969157,
          -0.05636294975008987,
          0.07124835619108125,
          -0.22925479741764032,
          0.09335407461947832,
          0.07967231646655312,
          0.16147801547123108,
          -0.10142008591965776,
          0.047729539931394366,
          -0.04686591996584883,
          -0.22507685504455865,
          -0.06474405702228965,
          -0.07244415365970565,
          -0.037589815773034906,
          -0.004967811240642684,
          -0.013208969641649694,
          -0.098351703580278,
          -0.008979611019052383,
          -0.07406003985988797,
          0.0624053115307153,
          0.021376943090746173,
          0.054507793192086956,
          -0.246199914513608,
          -0.027028329068090114,
          0.009577860495370303,
          0.0026145219038671203,
          -0.19042762177611533,
          -0.013554840267942986,
          0.14613114100619712,
          0.07960800942279882,
          -0.10931448067866878,
          0.06742495497293197,
          0.030109461349693004,
          0.00614355548359932,
          -0.017591940963134392,
          -0.23479170137316008,
          0.043472364621112286,
          -0.10274768462321028,
          -0.13700216959028216,
          0.4281558259887604,
          0.038426147365790225,
          0.020618043234360596,
          0.04718174798065588,
          -0.17387024103157,
          -0.11085646075524408,
          0.0012319304679269767,
          0.05890854305472296,
          -0.13605036588529457,
          0.04810798307158651,
          -0.10797401054112736,
          -0.0536104483286275,
          -0.023620522513024413,
          0.10736461908062093,
          0.01830303226490547,
          0.01517333812103385,
          0.04627723016792639,
          -0.15595415556463035,
          -0.002226569015589808,
          0.08869581448447195,
          0.06290807826556458,
          0.11190375229994257,
          -0.19273516469157204,
          0.0687966074051603,
          -0.02995832492691235,
          -0.07992004893251911,
          -0.10410434468557933,
          -0.10663799902844666,
          0.20630035916546838,
          0.3419649822657791,
          0.056626049427216975,
          0.06320203814565584,
          -0.015730876544429388,
          0.013301703288759712
        ],
        [
          -0.03469698091487478,
          0.08749687051190799,
          0.13454662382535837,
          0.11061377784010534,
          0.17921786201130646,
          -0.10377844522350461,
          -0.08645755431975878,
          -0.1579422352792131,
          0.060037066491716286,
          0.18857041074593214,
          0.06022539362722084,
          0.04789739274983284,
          0.03935044989241771,
          -0.031959842642299584,
          0.033461694648991396,
          -0.09114538915954364,
          -0.019285259237560227,
          0.10654261971105072,
          0.060785968660108325,
          0.09686427640206381,
          -0.07839861142758225,
          0.04278926058508744,
          0.016026072191285413,
          0.09193192596710024,
          0.05606078163924138,
          -0.05531804653084993,
          -1.028291177415131,
          0.023788188906308162,
          0.08618009002184038,
          -0.06691453362438951,
          -0.19613028039687488,
          -0.10386634797428954,
          -0.07466053892899016,
          0.0667980046408147,
          -0.10808744056316417,
          -0.266777922258264,
