{
  "layers": [
    {
      "activation": 2,
      "biases": [
        -0.0717824962749807,
        -0.12251236211430021,
        -0.3016787568683594,
        0.16797886525943015,
        -0.19821475284848739,
        -0.1014891200966769,
        0.04820596477235684,
        -0.03419363101113512,
        0.0,
        0.1141062972497435,
        -0.25726813336456894,
        0.3017166383528115,
        -0.116146302183268,
        0.0,
        0.15660010813070585,
        0.1669523922466078,
        -0.36759622657153257,
        -0.006235353168956666,
        0.04063155963305074,
        0.035377856291857225,
        -0.41946679617825594,
        -0.034431933665592704,
        0.0,
        0.0,
        -0.1078662059584532,
        0.13925431242799013,
        0.12743399664723665,
        -0.03028497685759447,
        0.13404713322877457,
        -0.030639681867855057
      ],
      "cols": 30,
      "rows": 30,
      "weights": [
        [
          0.03562822540999031,
          -0.0027263700816381824,
          -0.9208342389521034,
          0.7117595584865324,
          -0.3737152555988952,
          0.2919273702136388,
          0.03861332729062184,
          1.164298303473482,
          0.06046057386052695,
          -1.2031423129957448,
          -0.7364297041387453,
          0.6751471610992256,
          -0.34459302375529355,
          -0.3043295093387248,
          0.12463329318746579,
          -0.3490476205201525,
          -0.743322486984524,
          0.11504825725652236,
          -0.1076195223020318,
          -0.3315742238341474,
          0.6537601200378953,
          -0.9753824940117765,
          -0.12610281671931595,
          -0.10084366569585573,
          1.0563706260393395,
          -1.4198242239461867,
          -0.33530361653691015,
          -0.7392180579223505,
          -0.14638347911124144,
          0.27562060221274015
        ],
        [
          -0.20184953161430116,
          0.5586137078630737,
          1.19106488746183,
          -0.33841323108476884,
          0.2801630587994445,
          0.42484790825343377,
          0.7202818539010959,
          -0.09831556334849698,
          -0.19517510424065482,
          -0.586288237476776,
          -0.2215953980582708,
          0.17395146836292139,
          0.46592443086801805,
          -0.19817589961108845,
          -0.7226403091410797,
          0.13219458589291821,
          1.148123883767281,
          -0.21805024045824523,
          0.18180429274786752,
          -0.8162672747576732,
          0.5959551541640397,
          -0.07500453093595884,
          -0.05155275669570096,
          0.10133650000386353,
          -0.13126054612805163,
          -0.06854446307833707,
          -0.8046703408497788,
          0.1273543120838464,
          -0.651580053549392,
          -0.30190866746786427
        ],
        [
          -0.03976968956902311,
          0.2196882668430186,
          0.10979532482926746,
          0.2400425086870437,
          0.5305841885032246,
          0.3973326339286705,
          0.11787885937347489,
          -0.17274693873753522,
          0.2388676859916582,
          0.10342945932963601,
          -0.3071645885619823,
          0.07989123920797701,
          0.3538914054490492,
          -0.2315130742269021,
          -0.5002448207021383,
          -0.3600204000082715,
          0.45376796102179895,
          -0.23770331982198828,
          -0.32516769008965923,
          0.00877425882899916,
          0.1481534163351989,
          0.5740927789723295,
          0.01689710149003454,
          -0.04019220175479246,
          0.20558766498279823,
          0.3002584025512395,
          -0.2263055993741533,
          -0.3412755970504682,
          -0.21344111643916872,
          -0.3181405867964035
        ],
        [
          0.4364548048927245,
          0.06624277404004789,
          0.12270402038160795,
          -0.28449313513595903,
          0.6090642458588789,
          0.25292322901000375,
          0.24014732177275358,
          -0.8006680927508533,
          -0.17851888797496196,
          0.35358291205434544,
          1.103346215207025,
          0.08415542001325133,
          -0.21066124964367403,
          -0.17380546036962377,
          0.21922287287035905,
          0.09265483025583346,
          -0.36808841060804903,
          -0.07317616027245125,
          -0.2503305349462975,
          0.05158448193884024,
          -0.42779304995310746,
          0.38736114787412135,
          0.01705085988979529,
          -0.04782668083135611,
          -0.7595753592760722,
          0.17952868440990608,
          0.30787156230419577,
          0.45909452616319535,
          -0.3739497440848468,
          0.22722845530381938
        ],
        [
          -0.4944697416602742,
          -0.019516791266605032,
          -0.7889691239310361,
          0.1078503980364828,
          0.22838803827974355,
          -0.1582119069545406,
          -0.022226015633532333,
          -1.0963446562759243,
          0.0020937725728774905,
          0.6835180222490708,
          0.370474924351511,
          -0.27153512968332866,
          0.12517476184390716,
          0.16373003128202307,
          0.18361690874403305,
          0.03729046169453707,
          0.6153866768403422,
          0.10880355882929127,
          -0.3270047532840493,
          0.390064196611986,
          -0.8336195145562068,
          0.2835672169357508,
          0.07144615653484848,
          0.027956482200016456,
          -0.07860123781023111,
          0.8813080332906316,
          0.34261256908425974,
          0.17192690231943283,
          0.15977716990586788,
          -0.18258140159156247
        ],
        [
          0.47915890255492194,
          -0.15321741788000215,
          0.4515886319956316,
          -0.05849024424095246,
          -0.12658034718143,
          0.10505596947408812,
          -0.4444728993271871,
          0.41939193120133605,
          -0.22747416153335973,
          -0.4576757529749937,
          0.6019449948609044,
          -0.5181150385870736,
          0.1717858458560383,
          -0.0033841215620523477,
          -0.6188575690168502,
          -0.40529209760167956,
          0.39131847118654345,
          0.15044534347610658,
          -0.07410044049891519,
          -0.4989349403076813,
          0.7764891770948475,
          -0.15556025546909216,
          -0.23750245075216103,
          -0.0498639653444489,
          0.7747950395204881,
          -1.0385223454099686,
          -0.09104169920973075,
          -0.26253737574971725,
          0.05724994913540671,
          -0.05770373331514481
        ],
        [
          0.017439640322450715,
          -0.08557769067173199,
          -0.4048553822094969,
          0.08263706933353496,
          -0.2569064213576614,
          0.12109933936131352,
          0.03253750666524888,
          0.06274365154518578,
          0.03545825239414817,
          0.05635672453715992,
          -0.03789114708628981,
          -0.04568116318442833,
          -0.4378826973928438,
          0.04406678961673651,
          0.7427601942378461,
          -0.08741821869351546,
          0.06295642224264662,
          0.2699432182424597,
          0.038281037325627536,
          0.11698428535976997,
          -0.12322843132553428,
          -0.23621650796980148,
          -0.2768271270422085,
          -0.06008559953236962,
          -0.235597052938,
          0.31075350619137504,
          0.45886639760699643,
          0.0987264253850209,
          0.16814331284108217,
          0.10568867457776449
        ],
        [
          -0.480704134873534,
          -0.15456045840306396,
          -0.7094574327290657,
          -0.19489011334683473,
          0.25815148058184095,
          -0.05927623086070602,
          -0.17172358447576533,
          0.778778477054383,
          0.1737368127258463,
          0.336142016702249,
          -0.23568506707755296,
          1.058164162183764,
          -0.2785660127150589,
          0.025105077056172962,
          -0.19284849992939432,
          0.06903673193979917,
          -0.6891677907025857,
          -0.14210007789646958,
          0.32211285631041875,
          -0.017825767810071936,
          -0.5315101631750896,
          -0.028010093257002475,
          -0.29063055867894927,
          0.17281331724450744,
          0.1951959974482034,
          0.33517831717054675,
          0.3360640728144214,
          -0.49453977179769537,
          0.46945284946627236,
          0.20028582548565968
        ],
        [
          0.283681134304188,
          -0.020015686653967305,
          0.29068854679461875,
          -0.009202953323914168,
          -0.03798142872614249,
          0.13573772323561323,
          -0.09323573103877325,
          -0.30641980818010234,
          -0.0525799161831059,
          0.22457942888999397,
          0.03963840681736139,
          -0.3435130077514676,
          -0.09515664502884452,
          0.09319021663747819,
          0.26136508085007704,
          0.0797162623348698,
          -0.12444342256214116,
          0.01971886148843058,
          0.09183461070435829,
          -0.31622428760131516,
          0.35086494382834227,
          -0.28614614921818915,
          -0.17372582102148593,
          0.23761982979708784,
          0.3754963077486188,
          0.2223593327997023,
          0.02513070869467133,
          0.24753681640288794,
          0.22117543006616222,
          0.261828252916947
        ],
        [
          0.3958942051092085,
          0.43334246387573727,
          0.17744920445188503,
          -0.5534840671878538,
          0.06666468614539102,
          0.09357657193610748,
          -0.0038451571977386107,
          -0.09281234263687636,
          -0.17027303841544844,
          -0.11008511506477162,
          -0.0975190523328893,
          -0.46759847019901735,
          -0.02974981653812477,
          0.28807371071406385,
          -0.07901713830451855,
          0.4270645576412365,
          -0.07808791855588515,
          0.09044949518399246,
          0.3844655198843122,
          0.08127301819323823,
          -0.25525270425661595,
          0.2687279262988957,
          0.23731749136790461,
          -0.28020539300804564,
          -0.1163356849203368,
          -0.1584390622228464,
          -0.02936444297273399,
          0.5638225495294173,
          0.2905293983782079,
          0.08321747508730258
        ],
        [
          -0.0001123800842334499,
          -0.6232171569574786,
          0.26229722154824114,
          -0.26041106164743055,
          0.6005879745053988,
          -0.17267579752601572,
          0.355051048654596,
          -0.15364405230289033,
          0.0823258039415416,
          0.3622140802241472,
          0.4554767488056577,
          -0.20970209697548545,
          0.5125166169281934,
          0.20775825348145446,
          0.14572724149510238,
          -0.19506795304498112,
          -0.09378005571931769,
          0.04425156007506335,
          -0.08633967646298722,
          -0.012580002482745396,
          -0.21783961179667813,
          -0.2643828681403606,
          -0.30196311602125586,
          -0.14814876347270092,
          0.03959918684434064,
          0.09204715053330621,
          0.5101912715488501,
          -0.44552097310960237,
          -0.20321160495598248,
          0.02381128630505408
        ],
        [
          -0.24735139550450794,
          0.014064109861645429,
          0.6447189389586155,
          0.07322663955153491,
          -0.004326420299757778,
          0.19334583982603126,
          0.7123900480871755,
          0.6253559764165213,
          -0.1629172441928121,
          -0.21624219973572817,
          0.1856479977852217,
          0.07281362391334915,
          0.2526351221243424,
          0.005973904881161235,
          0.043456453785728176,
          -0.6579157012397618,
          -0.34253227409636544,
          -0.051350254856371055,
          -0.08217949826292827,
          0.21700838084706842,
          0.23011954748075628,
          0.028512243599594426,
          -0.2709019310321772,
          0.04116193089748423,
          -0.01415258808954421,
          -0.005260084616964497,
          -0.39074088845019295,
          0.125354076123039,
          0.40464093739494006,
          0.24093823592585434
        ],
        [
          0.18379755655247954,
          -0.0611117611371595,
          -0.1645243080857688,
          -0.4977691976630139,
          -0.051974209833531564,
          -0.47086696398838895,
          -0.16622189315307487,
          -0.3499299483017706,
          -0.25012497480958806,
          0.30640299845260976,
          -0.05156597346942938,
          -0.4055695396272557,
          -0.008329812302817067,
          -0.15701025567805624,
          0.03358529871947571,
          -0.17081107119095662,
          -0.0917003392295381,
          -0.0568192163556363,
          -0.1441645414534031,
          0.37389198936417645,
          0.4638913367491871,
          0.19478246534830923,
          -0.0013797473698280447,
          -0.09777945082418261,
          0.0879831889103826,
          -0.5458113718811457,
          0.15263304061327013,
          0.21905495083813487,
          0.24082925722454812,
          -0.2029072018328539
        ],
        [
          0.0299186915220161,
          -0.294242683006889,
          -0.22850080658154154,
          0.09520667284648253,
          -0.5638491786505736,
          0.18386323853405734,
          -0.24082424881038336,
          0.16301191991021383,
          0.0814698030971058,
          -0.08547918218387879,
          -0.19754066807737128,
          0.11444200492769918,
          -0.06535317798146172,
          -0.26688753659541914,
          0.36812285723781035,
          -0.19783875736189607,
          0.1512227980820408,
          -0.24636497773246277,
          -0.15598199182282052,
          0.28887756282227744,
          0.04723342982298601,
          -0.050024290921765587,
          0.211440640545852,
          -0.259757778547288,
          -0.08852376595086844,
          -0.12535004479581874,
          -0.2601687130649952,
          0.14310555531780336,
          -0.2914091867728052,
          -0.21396221626605308
        ],
        [
          -0.3089965657207392,
          -0.11128422279856444,
          -0.22348156030154812,
          0.2357243273375458,
          -0.4039052339110752,
          0.10459808744100756,
          0.25787193144288717,
          -0.23304409464246748,
          -0.0032461998516053795,
          0.09665111607085368,
          -0.0156570230399952,
          -0.0058328470753168825,
          -0.24179134865224358,
          -0.204194376380604,
          0.27569452209024115,
          0.204868528340082,
          0.09962805796731754,
          0.026377595080950802,
          -0.11142336934971454,
          0.11089871927571229,
          0.02044324374966142,
          0.3738812124573492,
          -0.08478884309041003,
          0.09155358419542284,
          0.1516603976085553,
          -0.08951706952481739,
          -0.20415072462836828,
          -0.12076391260917291,
          0.07134536781797281,
          -0.27286624048069574
        ],
        [
          0.07093822238181921,
          0.017320334794835694,
          -0.1678004115785279,
          0.285650550062348,
          -0.24201576067530237,
          0.27588965782397024,
          -0.32794824750997564,
          -0.14948165847476938,
          -0.1677051510355733,
          -0.18093412627308889,
          0.4080453402600085,
          0.2672287468127778,
          -0.0719401665878664,
          -0.19116701408618436,
          0.44420840854519056,
          -0.1942570498000196,
          0.15120025341170948,
          -0.31638330697774114,
          -0.20789793213190316,
          0.49806167724332023,
          0.2839636305469801,
          -0.15341905592975372,
          -0.12377214864984369,
          -0.023219865461782764,
          -0.10370754043645306,
          0.26664644969815865,
          -0.2621653589628578,
          0.1715939522491022,
          0.07365943413145924,
          -0.0001768753379605646
        ],
        [
          -0.16223013402748732,
          0.04308275366851711,
          -0.012995731551551985,
          0.06969439146776973,
          0.0943629812593496,
          -0.2975315854210385,
          -0.4632187674726191,
          -0.18058667391879119,
          0.2338328192128574,
          0.18713217532299764,
          -0.11046812013671149,
          0.07387925705310429,
          0.15571328303907314,
          -0.06990301542696835,
          -0.11084909193995578,
          0.3737351993983905,
          -0.6780254633501734,
          0.263945928367383,
          0.03377602003868754,
          -0.5468095635536453,
          0.03744049669114124,
          -0.2290441660243364,
          -0.09225749916271356,
          -0.031215551404852847,
          -0.06332497493582653,
          0.32534927817536224,
          0.20108740967499775,
          0.27502553485551773,
          0.06414105813513787,
          -0.31571223492749856
        ],
        [
          0.012436556334636745,
          -0.05477606612293699,
          -0.021562783932896082,
          0.3381624388873695,
          0.22900920849341866,
          -0.02158626408071276,
          -0.18336942711423362,
          0.06415106591170854,
          -0.050483546767797684,
          -0.249937465480296,
          0.014091484583698003,
          0.03454417141033847,
          -0.04278253754165611,
          0.24239823751245934,
          0.08524737059852924,
          -0.11306328351982525,
          0.02584126365192111,
          -0.21325277095863,
          -0.09585359516791982,
          0.08361942642007827,
          0.08447374599556413,
          0.0859722574713044,
          0.2091761188462401,
          0.2983191265891154,
          0.012294565122663593,
          0.03043609902685565,
          -0.11224689683488695,
          0.05742694650142428,
          -0.17329997765300337,
          0.008099738729414406
        ],
        [
          -0.08015770954116384,
          -0.04650141344955513,
          -0.10432603858687332,
          -0.10863512503156336,
          0.3077475486417921,
          0.10172602628800001,
          -0.1002032959456414,
          -0.2975257280582922,
          0.2783534628171962,
          0.47468337791866466,
          -0.5671959790034473,
          -0.4222099121243717,
          0.24241098402415445,
          -0.2913594890360012,
          -0.5812285797626932,
          -0.010886067738193913,
          -0.3707928156633618,
          0.03353132119223505,
          0.4162460874284694,
          0.1540858866303091,
          -0.3087518297967642,
          0.03750092136120289,
          -0.1972731264464048,
          -0.2578973797197395,
          0.470064142991405,
          0.10978378685747589,
          0.4528591033291236,
          0.5597053914035015,
          -0.6780802269025121,
          -0.018944697768479943
        ],
        [
          0.17495975249918042,
          0.14456331835005495,
          -0.0063652628415913305,
          0.43323209536403,
          0.21872865762244842,
          -0.17777945204581647,
          0.12619298145314975,
          0.7084440671400456,
          0.013079115516012377,
          0.2100993109975248,
          0.015225601062403584,
          0.26849039503404026,
          0.13006691920416297,
          0.2242523086809403,
          -0.07468364206247433,
          -0.10996068644456414,
          0.2562384679274387,
          0.30321273547096866,
          0.5628246543257992,
          -0.05076360129068419,
          0.2707190665141555,
          -0.23926503826251574,
          -0.23753726419702012,
          -0.26349992288036184,
          0.09249351884296647,
          0.480798133101987,
          0.032132670279492986,
          0.16774649605867925,
          -0.027272761895256376,
          0.2522982378237774
        ],
        [
          0.024342951639947274,
          -0.16281932565233612,
          0.09233142049704911,
          -0.3234861124685569,
          -0.11839527716473942,
          0.310396404858673,
          0.16530997218645532,
          -0.1805273974743523,
          -0.27383067009942963,
          -0.23758060451380797,
          0.34509859205655424,
          -0.19603809807641437,
          -0.21045317340129835,
          0.20603661188938566,
          -0.22472685009283894,
          0.08057120310546287,
          0.005922907832569954,
          -0.16855596152449542,
          0.2922611455868239,
          -0.20220653638750985,
          -0.4067515470693226,
          -0.29884623006084593,
          -0.22948116275529556,
          -0.18956855044207147,
          0.1889990411966592,
          -0.2043007485497624,
          -0.13032347754069318,
          -0.031072734290448465,
          0.0015004033398488613,
          -0.18844393913364496
        ],
        [
          0.3551001917605956,
          0.14016976616025992,
          0.37254835332687297,
          0.6679617933530494,
          0.26014046712673594,
          -0.17575422501527113,
          -0.14416165565320704,
          0.6821569556792447,
          0.10683424794528948,
          0.45827808467326653,
          -0.14000437952426717,
          0.41892521381862513,
          -0.21475160470266855,
          0.1632981405292026,
          0.0719309688385832,
          -0.01156366891472028,
          -0.6085530665993494,
          0.15574311253473133,
          -0.23221129997691944,
          0.21724369185811412,
          0.503642637446285,
          0.6389663354571669,
          -0.17606808689701658,
          0.23234310576350106,
          -0.3955037414366819,
          -0.05881929244912144,
          0.05725279177328251,
          -0.08906715298500435,
          0.5648062559289513,
          0.16252584246632007
        ],
        [
          -0.14436443633380827,
          -0.16785251816025018,
          0.3218245458689633,
          0.5133646787203361,
          -0.22111100319563767,
          0.051383353067935296,
          -0.34955266577716265,
          -0.13138784444848906,
          0.02194977287435237,
          0.19705683894965156,
          -0.4538401978243736,
          0.18167213237276525,
          0.0682100223059751,
          -0.30516115184533743,
          0.10762441833801749,
          -0.021066003207301964,
          -0.6211296546109428,
          0.2892468277236641,
          -0.07128151947562697,
          0.22859125521647772,
          0.15483764318742257,
          0.47744937399693677,
          0.08309790741143046,
          0.21012379124720684,
          -0.28318521932984925,
          -0.449648059797986,
          -0.1417498693380253,
          0.4510311866925255,
          0.4318024575659972,
          0.05650390068732321
        ],
        [
          0.19615372042095167,
          0.16061107180737877,
          0.32566999615233166,
          -0.031065053891247977,
          -0.17532974698462828,
          -0.18748319000922825,
          -0.06779036766614756,
          -0.020567257038042654,
          0.18825752360726014,
          -0.09596296100834818,
          -0.6398402810749704,
          -0.3065987388600463,
          0.2643923803975315,
          -0.26156980350889686,
          0.10852478300447317,
          0.26816236450187086,
          -0.15994547301217615,
          -0.25395181666628225,
          -0.12937728447612282,
          0.06318988412878944,
          2.1505726352765327e-05,
          0.4406767141827889,
          0.16471513355519835,
          -0.08113138424079672,
          -0.18685479795951462,
          0.0936491786706564,
          0.24363349606099802,
          0.009760331344881724,
          -0.0657347230295623,
          0.1806757136053141
        ],
        [
          -0.25612352046724574,
          0.360424800453387,
          -0.03811590865927495,
          0.3181299558337283,
          -0.2807144075463718,
          -0.3384726020902002,
          0.3019180038688865,
          0.2995536053869298,
          -0.1308274972594354,
          -0.08910456361637843,
          0.5209841960224806,
          -0.30414844861098383,
          -0.0583644005382514,
          -0.005284407948238041,
          -0.1336424564350879,
          -0.004034060039591665,
          0.4005134979302364,
          -0.038943489467009394,
          -0.18985009622759988,
          0.025576061920337474,
          -0.129904332583482,
          -0.22154437389503978,
          0.10938595081947304,
          -0.0010478704654228888,
          0.06648189035187135,
          0.2579945291245213,
          0.3850243822342433,
          -0.3416802288968997,
          -0.08262168264116312,
          -0.0357405781346684
        ],
        [
          0.23263220913739938,
          0.1262218484325608,
          0.01656365159333214,
          -0.6784248616674469,
          -0.028554791869829097,
          -0.04599930522384057,
          -0.11191179212909083,
          -0.05575816935187302,
          0.23013844176049505,
          -0.14374693461557267,
          -0.154338195788875,
          0.2771169801505234,
          -0.00035428970166438467,
          -0.2712699013221507,
          -0.10575760571760642,
          0.029016870280334926,
          0.1873299911259561,
          -0.2771020845387354,
          -0.6620628460250834,
          -0.11008094145383904,
          -0.07745443829389612,
          0.10809064234802614,
          -0.09855619901218587,
          0.0971959845801464,
          0.222400107536685,
          -0.02132336595942553,
          0.12215020269282703,
          -0.05770637480118982,
          -0.34455320497040337,
          -0.2325502808849307
        ],
        [
          -0.1735826587210923,
          -0.12605371107686456,
          0.4491397376277834,
          0.10257296108103463,
          0.2580206025112883,
          -0.13992264099272325,
          0.02876396038870696,
          0.21902375418998646,
          -0.16124324932135128,
          0.0866668293196904,
          -0.3690968195956907,
          0.07290300007963416,
          -0.32423192792720934,
          0.13869890938262608,
          0.11657601460539768,
          0.127206221130396,
          -0.12258927911469196,
          -0.11517476115857583,
          -0.26881588735971274,
          -0.20438816518133737,
          -0.2059362434373594,
          0.2841351184371749,
          -0.03299840161116062,
          -0.059726404464064874,
          -0.004221824612266071,
          -0.3074375731319754,
          -0.19030411754497206,
          0.11535025907732861,
          0.4089943539462825,
          0.16099465435835555
        ],
        [
          -0.27643656173646286,
          0.12336563712064319,
          -0.20577622800556117,
          -0.19639529936810643,
          0.02541357031692685,
          -0.008281776436349395,
          0.15292263678838675,
          0.22497802236840275,
          0.0566634203499214,
          0.17620327770201574,
          0.5530819162100645,
          -0.12151415627929363,
          0.20764449056044354,
          -0.11852108233245313,
          0.3737281344675891,
          0.07273607439934815,
          -0.1952777672059878,
          -0.30986666270856716,
          0.23792276746222982,
          0.3530226420154019,
          -0.09204727389940237,
          0.11363969822771164,
          0.059365714757219114,
          -0.11475049009489977,
          0.22668335701004716,
          0.13226554271319146,
          0.1245438970738629,
          -0.3399056691447585,
          -0.3043383619846627,
          -0.3188107296743494
        ],
        [
          0.5626760121175862,
          0.26236758179795017,
          0.12357794037216552,
          -0.31175844332711306,
          -0.12302046680307743,
          0.03344510505331852,
          -0.024221792692463003,
          0.3948153355209753,
          -0.13592542158661516,
          0.1396269870833509,
          -0.2319849387160528,
          0.39224056096082965,
          -0.0234025406977651,
          0.2510951445393256,
          0.32982151634398704,
          0.3310967641726232,
          0.47016704242696367,
          -0.1317900084748263,
          0.16288133188851447,
          0.1670198902884382,
          0.24097348822860543,
          -0.12387277882240498,
          -0.2552616245587187,
          -0.2545698543026629,
          -0.3454537403265036,
          0.18585433948450225,
          -0.06522869093381586,
          -0.022293542454876726,
          0.17843588580070513,
          -0.10854575923172423
        ],
        [
          -0.15821867536495707,
          0.012737081244251939,
          -0.17801593388855744,
          -0.038564819065983566,
          -0.05793066803233442,
          0.05696459921408696,
          -0.04342875424479234,
          -0.4048808149788796,
          -0.06917890060386418,
          -0.198725840703067,
          0.0738031204503781,
          -0.1735746214548936,
          -0.013418920904691463,
          -0.2196709882739869,
          -0.19320177207035655,
          0.18330748375924527,
          0.30940289030295376,
          0.27215360456311294,
          0.2568900598456446,
          0.06919738604616439,
          0.10534231331294908,
          -0.30957933612485666,
          -0.23625017396162987,
          0.006132942962720078,
          0.03683266862860841,
          0.23873679935490466,
          0.12264646736023208,
          -0.11657997970156776,
          -0.33468925402688676,
          0.011239226649961983
        ]
      ]
    },
    {
      "activation": 2,
      "biases": [
        0.08729885184990395,
        -0.03182309178036314,
        -0.008772782657865906,
        0.029953579730209356,
        0.07828734469866837,
        -0.0785503695106577,
        0.19577780827340868,
        0.20662596611698109,
        -0.06524587508092097,
        0.0,
        0.2890038595912961,
        0.0,
        0.14010025282487149,
        0.17565927715656726,
        0.25305965711020956,
        -0.11079060576896443,
        -0.09680975242786778,
        -0.20755221598995938,
        -0.021798998241161584,
        -0.14620218915130434
      ],
      "cols": 20,
      "rows": 30,
      "weights": [
        [
          -0.3397703438823179,
          -0.2711171659750592,
          0.2802891875977696,
          0.10635121621003929,
          0.04581101420504103,
          0.2303718110976544,
          -0.12973449234551038,
          0.14521465419342083,
          0.12059249464443615,
          -0.0755391510531391,
          0.16694460257640945,
          0.1205182538720758,
          0.16820306257328022,
          0.3183507281132531,
          0.31778021506445153,
          0.23904219352112555,
          0.25966430902886956,
          -0.030090731896759208,
          0.26260267399191467,
          0.25391415533369766
        ],
        [
          0.3188949150003396,
          -0.3090675306781008,
          -0.034432810380720706,
          0.13842700168994343,
          0.21995257485093106,
          0.20950882586851383,
          0.2322216191019545,
          0.5338013403695715,
          -0.07590101049067788,
          -0.33967996363591096,
          0.3576899626300609,
          -0.2563317045805573,
          -0.17831414930094938,
          -0.2712245775049966,
          0.18014646666358183,
          -0.5348346182104613,
          -0.13819371388787305,
          -0.045386399950494864,
          -0.09098010072609297,
          0.5003353633702518
        ],
        [
          -0.5566356240255848,
          -0.03787024406284963,
          -0.11331920311293653,
          0.43566735445034516,
          0.02864443838263997,
          -0.18572471444578462,
          0.37200849418237164,
          0.21349839199891604,
          -0.1762579903965999,
          -0.1616870817360233,
          -0.12940891218909598,
          -0.21019030011557166,
          0.24509824684796883,
          -0.044570959778865556,
          -0.06025063648451298,
          -0.20195927128026436,
          -0.4955821310726377,
          -0.42355552056942,
          -0.37941224974459226,
          0.42915896070351023
        ],
        [
          -0.1793100319260151,
          -0.30163064709541343,
          -0.10328944880593838,
          -0.17870784970918313,
          -0.1932736640626813,
          0.18310244053136046,
          0.4013834566250638,
          0.43605839995932416,
          0.054753709753531846,
          -0.23347582328913524,
          0.312682885276419,
          0.02245307506922153,
          -0.009018726585575794,
          -0.3666997585830327,
          -0.49857951228928205,
          -0.19685100114371437,
          0.3710203815358893,
          -0.11896162894457,
          0.6857406454361409,
          0.1779918090566169
        ],
        [
          0.0798085062819125,
          -0.02714017821860262,
          -0.2163649636262689,
          0.4660591583333034,
          0.13939688247625712,
          0.1466408451435646,
          0.183703165279397,
          0.24776187722192983,
          -0.30123576789900863,
          0.10614760755231935,
          -0.0029918609458043873,
          -0.21824336160906602,
          -0.0014286615570888676,
          0.33897531929111363,
          0.10413265294350217,
          -0.3170438149539925,
          0.568989331160844,
          -0.22991533704755995,
          -0.25669090752286927,
          -0.41634374351078957
        ],
        [
          0.21929639861068032,
          0.13720160009419163,
          0.2230480028007149,
          0.0029386463646078696,
          0.052494893880107085,
          0.07453082496576631,
          0.05026800658524788,
          -0.1449608171275796,
          0.5134384456432691,
          0.010508335887585693,
          0.1857394206462079,
          -0.22538845571746782,
          0.16963560779374967,
          0.10202177646721662,
          0.39230226583476097,
          -0.19381095867675904,
          0.47436901939751036,
          0.01876527264132928,
          -0.2246178306496599,
          0.3377913213125258
        ],
        [
          -0.06447823518293022,
          -0.17883059207341448,
          0.001663733009720217,
          0.21136903181574423,
          -0.07761752305291363,
          -0.02203332850933866,
          0.34621933591049364,
          0.09520422087034787,
          0.5490977694023721,
          -0.05558110937272286,
          0.10866112662023011,
          0.23775107116691988,
          -0.385803355069403,
          0.07528515819578004,
          -0.13939221536224322,
          0.012332822472081515,
          0.30558302173966945,
          -0.021983439433625882,
          -0.4195311504748932,
          0.5369921365233941
        ],
        [
          -0.29329308793967207,
          -0.05543263448781155,
          0.24455569126159563,
          -0.36188119094365956,
          -0.28323479633826243,
          -0.04876084790516189,
          -0.19615441760399266,
          -0.059359116926957424,
          0.3007825758866003,
          -0.22990978621460648,
          -0.3334614138296032,
          -0.30537012049202633,
          0.34137528059323885,
          0.15214450757518044,
          -0.09430848518347744,
          0.21852841601754813,
          -0.04720263059200065,
          0.30747913130629606,
          -1.3835899397133278,
          0.2703806126558213
        ],
        [
          0.016788311333553047,
          -0.07953952638337966,
          0.00952856563826697,
          -0.1795454901942136,
          -0.2795532545450555,
          -0.11463517925777417,
          -0.05631500509233191,
          0.08272866923572357,
          0.3392950358629757,
          -0.2348353842394404,
          0.0919562651427782,
          0.05733787861117595,
          0.13166560773182306,
          0.15579285738821969,
          -0.16859768043075557,
          -0.16507866968013238,
          -0.3403528629575374,
          -0.04369598029263277,
          0.29911495836501445,
          -0.05528603309512017
        ],
        [
          0.08939436982393663,
          0.2919257212756275,
          0.10079795347865925,
          0.2299156332393776,
          0.14019151050218914,
          0.0017839885834381997,
          -0.17904536012843053,
          0.0702150503147221,
          -0.7331148988186991,
          0.11907737568281332,
          -0.25528462170564614,
          -0.03534351328907445,
          0.019646156865804402,
          0.0698167086700329,
          0.026605034894046194,
          0.26591021967968537,
          0.34839331238927473,
          0.12218654352521376,
          0.20075971523617497,
          -0.3155676287540615
        ],
        [
          0.20265696358128976,
          0.0755731156598342,
          -0.14241072344146313,
          0.065334065112789,
          0.3143577436244037,
          0.08959757408685198,
          0.21281886663020116,
          -0.3992203535250543,
          0.39914016208796516,
          -0.22446012555085212,
          -0.15097785157571303,
          -0.27141101486334146,
          0.6935657779973956,
          -0.07719348238760883,
          -0.07129973962654107,
          -0.14174614844232894,
          -0.1873719945324789,
          -0.2665704470958594,
          0.4339317462563301,
          -0.1722614156015323
        ],
        [
          0.10485668450503442,
          0.01826407926409638,
          -0.011833754503048688,
          0.21979647396231436,
          0.18047569876059433,
          -0.3117845484983419,
          -0.2336692881913132,
          0.1853836708605945,
          0.3510969294969166,
          -0.09467124815649337,
          -0.05935359124730334,
          -0.07591999478451182,
          -0.5923675053115991,
          -0.27507015939586915,
          -0.26454856376121705,
          0.37700866277170986,
          0.0775904420197393,
          0.24046421371010057,
          -0.8133449703827094,
          0.04358369810254067
        ],
        [
          -0.22886444142988382,
          -0.20527345208124748,
          -0.031633086602996144,
          0.004480034144556193,
          -0.011771465765453995,
          0.1974528667677961,
          0.40862911714130595,
          -0.2278705180638531,
          -0.3648754715712718,
          0.26861422810030666,
          0.036000706097944486,
          0.18768267345887976,
          0.16782420884598845,
          0.010471210009610668,
          -0.3961276058991883,
          0.04929820847148189,
          0.014028175944103383,
          -0.38894789048934936,
          -0.143173304876537,
          -0.23698623014478407
        ],
        [
          0.1578761721882737,
          0.1493123916026657,
          -0.2323645142523991,
          0.016713000626376356,
          0.31785238910007785,
          0.12467456093534567,
          -0.07887472126498901,
          0.2138208362691198,
          0.30533725426514424,
          0.1821068343324225,
          0.26357638135939643,
          -0.028237921047562425,
          -0.201956291287601,
          0.02874457029337615,
          0.08895693714733638,
          -0.2968935623746007,
          0.07834721950109376,
          0.27740858169044313,
          0.2570448813466007,
          -0.25590069221033956
        ],
        [
          -0.042135941331125026,
          0.07544529076659306,
          0.07505938221286933,
          0.014712288431643168,
          -0.4175084529662769,
          0.41165484758883025,
          -0.46192505752242696,
          -0.19744747199337698,
          0.3788575463811702,
          -0.21062251069499738,
          -0.0826544998865737,
          -0.01281777250949671,
          -0.4109317507197116,
          0.24478346115588595,
          -0.0036875244861816763,
          -0.25287733837566073,
          -0.06815691399618992,
          -0.04643860861625896,
          0.09786555100667012,
          -0.061415205918825565
        ],
        [
          -0.2443856905560589,
          0.09699214960657981,
          -0.27380776783573957,
          -0.5884265060837481,
          0.007139319065781081,
          0.24464784766128223,
          -0.06438760397132505,
          0.08295412607417234,
          -0.00855685654838771,
          -0.3135069030631447,
          0.3894285752002083,
          0.03881789445682754,
          0.22270966456862792,
          -0.10432114099926544,
          -0.13983460972129982,
          0.3231521543639893,
          -0.08170669247919869,
          0.13819128133951908,
          -0.10691192844659093,
          0.32057466711342597
        ],
        [
          -0.1803881528854081,
          -0.06118953315350576,
          -0.1746049552602499,
          1.0491065942067155,
          0.29582434571895005,
          0.3385887472943712,
          0.05590356869677681,
          -0.058033992274170186,
          -0.27636873310243076,
          -0.2119631577484193,
          -0.29592862659392905,
          -0.2243921560527563,
          0.3575839899699373,
          0.39695752914958826,
          0.12281846545300232,
          0.3462999999303856,
          -0.3936883373556757,
          0.0880593721712039,
          -0.09116948870425652,
          -0.13993321877091938
        ],
        [
          0.32786632058354964,
          -0.2601547617242429,
          0.12185522112629855,
          -0.1342973916054931,
          -0.11803248612739581,
          0.34705776849638087,
          -0.1925426616660709,
          -0.30376038410227046,
          0.030920127304867488,
          0.017308729984050277,
          -0.3210565298172681,
          -0.33794853971613975,
          0.16871913078869447,
          0.14000997540293164,
          0.08129101133630232,
          0.32191643082814075,
          -0.20200724824583502,
          0.14187973018793604,
          -0.2817438617072199,
          -0.20647675135704902
        ],
        [
          0.24419857864322633,
          -0.03202167247707726,
          0.043833365984998596,
          -0.19312255071799408,
          0.0679133399606855,
          -0.12122970437892518,
          0.8119489177669048,
          -0.2355732133319123,
          0.11190274155039281,
          -0.07671082963796802,
          -0.15537630312822528,
          -0.16009882929871816,
          0.1373049636581996,
          0.4148511414090622,
          0.2948935854126602,
          0.19995677807202167,
          -0.10926725693277985,
          -0.09411919661148162,
          -0.29736183733570826,
          0.1358140618977115
        ],
        [
          0.41375427779768925,
          0.11105850492277368,
          0.12491446248141239,
          -0.07433383305993539,
          -0.1337731054611438,
          -0.05520645478570495,
          -0.15869861142965921,
          0.028168805700200885,
          0.056407186670831985,
          0.059707428943834,
          0.16537477939529702,
          0.1331106154520122,
          -0.13018181885346172,
          0.4733737217718541,
          -0.3127072082107562,
          -0.02457208145319002,
          0.2772263303834582,
          0.24013364439903156,
          0.46927003948425267,
          -0.14538786665813666
        ],
        [
          0.28594652628219686,
          -0.10948261953719311,
          -0.32270785598334434,
          0.04059393321244589,
          0.1281211752090818,
          0.2907411510711005,
          -0.07764069786775481,
          0.43413470916776487,
          0.15649570467131474,
          0.298930515124513,
          0.08060504440175027,
          0.07329084600682464,
          0.29400892614771834,
          -0.1077187919357322,
          0.22355886927305454,
          -0.35712750896211637,
          -0.18883275730923701,
          -0.05964547619245736,
          -0.19450852550119052,
          -0.3185087409261691
        ],
        [
          0.4009671905825126,
          -0.35314857161498475,
          -0.15544173531477226,
          0.08747134819084114,
          0.44101966604590004,
          -0.35388145677615124,
          0.3628303658437783,
          0.04901710991370881,
          -0.14545102629423734,
          -0.20781489810854267,
          -0.0322517799843227,
          -0.03528550628433924,
          0.10176380534522747,
          -0.2336344521244846,
          -0.06392051584030817,
          0.29355544476162615,
          0.257217141647826,
          0.3281710042782098,
          0.48504613802777685,
          -0.1469283296664546
        ],
        [
          0.018994791329211922,
          0.05025509815659839,
          0.2201125373245816,
          -0.05823409586768411,
          -0.12996837761860291,
          -0.11903104589463202,
          -0.19031986062661133,
          0.2710808046656627,
          0.25019847072559,
          -0.2377441283930494,
          0.07744634490798737,
          0.010692390694084297,
          0.08136548107321462,
          -0.2188550025655917,
          -0.14780519411458007,
          0.06415840804234318,
          0.1745690066697753,
          0.0022253621145111374,
          0.08304058496615804,
          -0.012032679317126588
        ],
        [
          -0.14471104563667042,
          0.08946094736479236,
          -0.22911015287931968,
          0.21466718976230834,
          0.08395587000910039,
          0.3103045524868472,
          0.045533866745888926,
          0.06863978661824495,
          -0.33366329224374025,
          -0.2707630020953205,
          -0.16866810022474102,
          0.2665467313394193,
          -0.11767725886737328,
          -0.11293316663154958,
          0.29178089304997407,
          0.2819413367929861,
          -0.11277292276489793,
          -0.010636384898750477,
          0.32298094873066246,
          0.0702930410985316
        ],
        [
          0.2799276661084873,
          0.15117302376247452,
          0.03719194296107921,
          -0.30935608647035834,
          -0.18502232315196052,
          -0.35531967429282507,
          -0.26585835693273113,
          0.04401365997413635,
          -0.1262902998536694,
          -0.2698945710974154,
          0.37574893740503196,
          0.07470492547609076,
          0.028803468837251038,
          0.36369448367817114,
          0.19837632887136528,
          -0.31528532599900416,
          0.20462725372099874,
          -0.07132191974792726,
          -0.2832214309147119,
          -0.024195290118914865
        ],
        [
          0.012415658021121214,
          -0.14739206659190798,
          -0.006579233782491808,
          0.22669703941183308,
          0.07243220688375578,
          0.16218109378289142,
          0.1550937491706702,
          -0.2373649469870158,
          -0.20295568695977165,
          -0.2234015728848018,
          -0.17062680130698793,
          0.17525715073553272,
          -0.610870675103133,
          -0.0755925899154111,
          0.0006857613341037712,
          -0.38340229809196674,
          0.2070863893540425,
          0.20107063044323534,
          0.09511764088834361,
          0.19252303203213414
        ],
        [
          -0.0062962343435607636,
          -0.058218607239152925,
          -0.12350498972352429,
          0.03130008662558196,
          -0.09545794021489663,
          0.2539061501856847,
          -0.14313209365178217,
          -0.16373773552812532,
          -0.3798316254973695,
          -0.3169049885660712,
          0.1250292731668436,
          -0.32508110104783067,
          -0.07852890823804516,
          -0.2739482757007561,
          0.16447479893650963,
          -0.03496934302762841,
          -0.04678410280024888,
          -0.2552996899336185,
          0.15215983442974554,
          -0.7317736054472674
        ],
        [
          -0.05037509840323736,
          0.03630685951187703,
          -0.29957810174121735,
          -0.09228936585914999,
          0.21300581730339188,
          0.3419192661702371,
          -0.09799987716019981,
          -0.33609098907072,
          0.09098300646694524,
          0.1805006058534219,
          -0.31225233186673845,
          -0.05699791562287905,
          0.2276995566761253,
          -0.0113704804128796,
          0.13276973401371203,
          -0.10106209409824654,
          -0.5377193990105563,
          -0.32044251796304124,
          0.3360233100368595,
          -0.028508399288106414
        ],
        [
          0.23447641154961366,
          -2.640904558977966e-05,
          0.05497403284424252,
          -0.07270402667967817,
          0.03461028679984008,
          -0.1401719865240803,
          -0.474208178112051,
          0.2431312933400042,
          0.0025628108560461086,
          -0.18651195918404612,
          0.17227160002235986,
          0.20653887337482874,
          -0.07708550295386024,
          0.10816878743030511,
          -0.15627043415332617,
          0.43489786062479296,
          0.4026411371598663,
          -0.05730965136481412,
          -0.3162500639975272,
          0.23064698991602448
        ],
        [
          0.2426865480818266,
          0.04177967330309924,
          -0.26364041192745474,
          -0.12963063878792377,
          -0.16322043549562587,
          0.07116621034775318,
          0.21795762082787112,
          0.12316170336290876,
          0.35646935248546696,
          0.30546369340448687,
          -0.16401474387475562,
          0.2690264427166985,
          -0.16050111398024358,
          -0.024287894322156604,
          -0.1550072192469847,
          0.296084467426761,
          0.0647912287312674,
          0.2402634649894326,
          -0.2268378306847544,
          -0.23663069307346607
        ]
      ]
    },
    {
      "activation": 2,
      "biases": [
        0.42877753265168206,
        -0.046314065967405386,
        -0.09525480657204138,
        0.2493313512102198,
        0.5043721540854652,
        -0.2919631753588934,
        -0.007645132163965734,
        0.07389645241305107,
        0.047069592342792704,
        -0.07926690185412905
      ],
      "cols": 10,
      "rows": 20,
      "weights": [
        [
          0.18704094384462788,
          -0.2396333790792375,
          -0.3492203609620193,
          -0.2916646513924707,
          0.2275310792442167,
          -0.7630652704050496,
          -0.14710882063556974,
          -0.2019183130827318,
          0.24483294206098993,
          -0.1890201454014113
        ],
        [
          -0.1999915388953748,
          0.05670782981792082,
          0.00280868203811793,
          0.36891495668493235,
          -0.09245007044613691,
          -0.12247501062006379,
          -0.2713861867107414,
          0.407427155504383,
          0.12972606199896777,
          0.328401811867548
        ],
        [
          -0.3609960716375405,
          -0.37090394127064735,
          0.3855722829294162,
          0.34072606154751867,
          0.026290109406723057,
          0.4010141121652434,
          0.3910340521401433,
          0.28936010010407687,
          -0.30397887289855846,
          0.07184249654494405
        ],
        [
          -0.34443114803968095,
          -0.2869175672257224,
          0.305135625468262,
          0.3415809860212186,
          0.5356607540473388,
          0.38098761199046066,
          -0.14168514799263807,
          0.5448165588427133,
          -0.07461154591555637,
          -0.025042526136403804
        ],
        [
          -0.2613734737703107,
          -0.4427651514065758,
          0.040179973252175656,
          -0.2880971991554524,
          0.2997471405693303,
          -0.7504660103514053,
          -0.33709964637812684,
          0.11352565484157948,
          -0.11528073018171243,
          -0.30992710734538764
        ],
        [
          -0.1958636116746548,
          0.25460987465667106,
          -0.41497332225064154,
          0.37689000248850735,
          0.08230149700912781,
          0.680482959730419,
          -0.3360340820061133,
          -0.12228744709099035,
          0.41477243420022875,
          -0.08762374319684772
        ],
        [
          0.4178336825851294,
          0.38885794079977737,
          -0.40183221798117313,
          0.26369658263907,
          0.0521951464332154,
          -0.2892888573869159,
          0.0110861370415228,
          0.5322257113841823,
          0.2595443177464224,
          -0.3455210683818407
        ],
        [
          0.33575665215436445,
          -0.4404773574189176,
          0.06884092320562794,
          -0.3147888267004788,
          -0.06161576769713129,
          -0.07913756616500744,
          -0.3832862764371066,
          0.09829067854101471,
          -0.09974336471509572,
          -0.2733927954519994
        ],
        [
          0.5162471246885992,
          0.1701659984908952,
          0.36593585315058286,
          -0.9014536010083535,
          -0.007220506492342684,
          0.1306325037868196,
          0.05794724405296164,
          0.4842372876161119,
          0.1362795117232538,
          0.1716168933955658
        ],
        [
          -0.3173214498680061,
          -0.0784824097218848,
          0.21420938879792853,
          0.39945623554277765,
          -0.17994339143923463,
          -0.0668421839774967,
          -0.08055215082757958,
          -0.21122170684008382,
          0.2174846195212964,
          -0.4031597958198367
        ],
        [
          0.38280178526546005,
          0.18358167860786914,
          -0.03852447873174181,
          0.11103230569742696,
          -0.2815691428745161,
          0.008621348414574913,
          0.3174912347884418,
          0.10314568135915128,
          -0.2610646751117375,
          0.18368601866335113
        ],
        [
          0.07316536047718994,
          0.3154266204855965,
          0.3674297255786083,
          -0.24698764148991786,
          -0.30717277226939427,
          -0.2644484043118695,
          0.06447175852557749,
          0.11720538608192999,
          -0.2497178343287094,
          0.21621034782474247
        ],
        [
          0.07327999411892606,
          0.10245834201745896,
          0.1812340885710827,
          -0.17236637975516975,
          -0.14449654510098708,
          0.10751598435568395,
          0.4181882532955018,
          0.818641817809213,
          -0.3484654230644719,
          -0.21058402370398518
        ],
        [
          0.675752532386647,
          -0.2729507314146696,
          -0.529859914320831,
          0.6478950366880561,
          0.23131652422402196,
          0.36640583840906493,
          -0.17581897341555638,
          0.05454340897157081,
          0.2523861926149581,
          0.06019657269518416
        ],
        [
          0.15009358213085616,
          -0.4383990731068962,
          0.05407449181669216,
          0.004775894701433377,
          0.20089127523788164,
          0.6475340668882769,
          -0.3173443741091398,
          0.11077206965453257,
          0.46582741246845866,
          -0.033268281015363846
        ],
        [
          -0.32133007176795725,
          0.4296498775974964,
          0.10394068660784524,
          0.673476470601749,
          0.1486665264122717,
          -0.019467674785891047,
          0.3250311523428833,
          -0.46935177054618926,
          -0.12990573068215108,
          -0.22998889100264827
        ],
        [
          -0.03597857244311256,
          0.36965909006311887,
          0.23629801366981054,
          0.14775944943756772,
          -0.2309084581981693,
          -0.035088123647306325,
          -0.3627052006463701,
          -0.6282452424131729,
          -0.05520563813136971,
          0.24475197976303975
        ],
        [
          0.3221549297867809,
          0.039207105099388864,
          0.07697524734557688,
          -0.05896639262338449,
          -0.6258648132247803,
          0.2832793092438887,
          0.42942659188458077,
          0.24994203280871882,
          0.3128123159768655,
          -0.3076505745544106
        ],
        [
          -0.14649228644958678,
          0.03828042519103261,
          -0.31539269686291815,
          0.9557746514812951,
          1.2293697413375557,
          0.0627777996539453,
          0.23972562582818616,
          0.3982090840276656,
          0.07352405689680624,
          0.0015328955701768086
        ],
        [
          -0.6980306680697249,
          -0.190304859043318,
          0.21060702716530189,
          0.25678369350766633,
          -0.33445707517842016,
          -0.11662058551922411,
          -0.32589354757241606,
          -0.222226277781296,
          -0.1366945047238808,
          -0.18034611757560934
        ]
      ]
    },
    {
      "activation": 2,
      "biases": [
        0.49584997289293753,
        0.481338790203837
      ],
      "cols": 2,
      "rows": 10,
      "weights": [
        [
          0.8047084591052808,
          -0.2495863613824567
        ],
        [
          0.448552775580963,
          0.5573706126992705
        ],
        [
          -0.05735687473591743,
          0.7293975698934496
        ],
        [
          -0.5520288425303509,
          0.4206699279884662
        ],
        [
          0.24522612248448522,
          0.9289431930838636
        ],
        [
          0.35983521251583284,
          -0.4142391119372285
        ],
        [
          0.1705537035238424,
          -0.6189147133969409
        ],
        [
          1.3026966847111894,
          0.7111105567656109
        ],
        [
          0.08763935789357295,
          0.2164694899549452
        ],
        [
          0.5680545491438813,
          -0.12303006778904285
        ]
      ]
    },
    {
      "activation": 2,
      "biases": [
        2.971027070546547,
        2.282772213850139,
        -0.3399025681959005,
        1.4229546111611409,
        -0.6138139464287756,
        0.0,
        -1.9652020335755584,
        0.0,
        0.6000680937847129,
        0.0
      ],
      "cols": 10,
      "rows": 2,
      "weights": [
        [
          1.321453973163826,
          -0.8517855911536037,
          0.28355319833152,
          1.0168763036801571,
          0.283053415419702,
          -0.2965348301478599,
          1.1299940223640543,
          -0.03584932141155628,
          -1.3440581789931472,
          -0.09449584849785196
        ],
        [
          -1.4284725911434135,
          1.0353141448929508,
          0.49288216442329574,
          -0.27741173785575385,
          0.3001296272422861,
          -0.172296492294878,
          0.8874360324405506,
          -0.06456739308829834,
          0.21472082523956512,
          -0.029895158411397713
        ]
      ]
    },
    {
      "activation": 2,
      "biases": [
        -0.421378788176478,
        -0.23899456679818487,
        0.0,
        0.8626472612294549,
        0.0,
        0.004967672967183491,
        0.8608693002677335,
        -0.4567426067967067,
        0.7151119355226466,
        0.9158584561108539,
        0.30143243957490784,
        -0.195878217858828,
        1.184896635538989,
        -0.23281713472980345,
        0.0,
        -0.903924330432718,
        0.0,
        0.38875840880003254,
        -0.23078981278759425,
        0.20120747195393585
      ],
      "cols": 20,
      "rows": 10,
      "weights": [
        [
          -1.160681664316308,
          -0.8400654526419731,
          -0.08538610700065244,
          -1.0233030210451888,
          -0.18036419108730412,
          0.749044621359807,
          -1.7450201971351915,
          -0.3303115416979164,
          -0.132837208194609,
          1.2268795489300655,
          0.7414098957480982,
          0.7960444062113832,
          0.4580220746812104,
          0.13999514098036608,
          -0.16541386981122425,
          -0.9126612696161058,
          -0.22782248396821572,
          0.7736497913778176,
          -0.6598461283164563,
          0.6843464658913866
        ],
        [
          -0.5054546211945447,
          0.8765431214508028,
          -0.42308599610047926,
          -0.4777486453798574,
          -0.16720930560562752,
          -0.9182380412503417,
          1.410228029738692,
          -0.2397396136727883,
          0.7704526184539175,
          0.016176195679036574,
          0.25426776737488593,
          0.68441895105482,
          2.226316943089376,
          -0.7480622016534425,
          -0.2312002895074863,
          0.3370208040608466,
          0.030316616838119606,
          0.19162865485416494,
          0.8462390885677656,
          -0.39410369503103704
        ],
        [
          -0.10065202963535859,
          0.5011379797561755,
          -0.11016801142449581,
          0.5150081368578081,
          0.003434807953582226,
          -0.932456477455801,
          0.6358422721402421,
          0.841667235969026,
          -0.18049409717574683,
          0.03953104821066257,
          -0.5152270509665754,
          0.5164608388645644,
          0.09040715717821403,
          0.6816053828953286,
          -0.3915480486874731,
          0.3675167936064293,
          -0.29211967167585406,
          -0.7597955588739315,
          0.6433840761890725,
          -0.6962957938066511
        ],
        [
          -0.4663086406032659,
          -0.19040836693550253,
          -0.12948264167531515,
          1.2500167237116753,
          -0.4089501391378926,
          -0.0555719021779999,
          1.1141809062532937,
          0.5210485391478448,
          0.40164644310360087,
          0.22611128746726325,
          -0.4359105114690184,
          -1.4005505585106097,
          -0.4648192561115457,
          0.22038203882617166,
          -0.4472101039794741,
          0.5812201779012309,
          -0.14447045754145996,
          -0.5971267240818681,
          0.16327995517114371,
          -0.1949408111520773
        ],
        [
          -0.10773432452855687,
          0.23702904471402117,
          -0.07340293422663154,
          0.28180731905723494,
          -0.44645284720660044,
          -0.04289315796713758,
          -0.06381265416998445,
          0.48237580478390263,
          0.003907525230272113,
          0.2043317205145996,
          -0.5410261512388695,
          0.29429534283709585,
          -0.17803833790366444,
          0.07498421174753586,
          -0.3885316107285257,
          0.42900557549641766,
          0.2548436654540243,
          -0.7409954988133632,
          0.6065787015265406,
          -0.18045279671242723
        ],
        [
          -0.12073716005258453,
          0.04476121867370196,
          -0.26801915811200744,
          -0.07856929122986557,
          -0.18329770303988524,
          0.01394344286311987,
          0.4355704076067352,
          0.14778705755548455,
          0.40031000164034486,
          0.12580572157876252,
          -0.09469077501694607,
          0.02416720543688849,
          0.28815265050105915,
          0.007625480944895998,
          0.1621399760532331,
          -0.2080016857062725,
          -0.2543324128094678,
          0.005515649203904757,
          0.19592367960403015,
          0.2910341165989752
        ],
        [
          0.9326789695212907,
          0.47859355427758093,
          -0.262656512933465,
          -0.41776591655590073,
          -0.27724918764127005,
          -0.9558157515265064,
          -0.5069907682356274,
          0.9800066994078689,
          -0.342863733332614,
          -0.40352662567787967,
          -1.3632143623061754,
          0.3275272181670559,
          -1.6969390523390944,
          0.8937114404017455,
          -0.23307345005479024,
          0.8905832469311896,
          -0.09731630012674518,
          -1.2045629249058236,
          0.12356128796920249,
          -0.7081938295632325
        ],
        [
          -0.13216662257658549,
          -0.32552143712203174,
          0.42460190283911914,
          -0.26690708572215677,
          0.23856842273511894,
          0.2770696040361685,
          -0.31164462865493753,
          -0.25338635570039547,
          -0.4372076416625617,
          -0.2815212435060152,
          0.17457811106444956,
          -0.3467220086427563,
          0.24054367704068996,
          -0.020634448525956986,
          0.3256215087722291,
          0.2844301290561573,
          0.31227610863987093,
          0.3533152079995343,
          -0.10557400846603504,
          0.03939259796797575
        ],
        [
          0.4327167991191686,
          0.6166500133186577,
          -0.35037597125284015,
          -0.366241250749809,
          -0.09761634347928895,
          0.3208786903218363,
          0.16110899676009904,
          -0.8095638103834206,
          -0.8584626683698359,
          -0.14279332806602205,
          0.4177072754244111,
          -0.24726302257782354,
          -0.31752676455681217,
          0.2256077580539251,
          -0.2792837936300648,
          0.2719570238257937,
          -0.07419887719640587,
          0.12019139270695893,
          0.2504050521408753,
          0.18850229546774427
        ],
        [
          0.08375277555092558,
          0.25618415608773687,
          0.1396766969617131,
          -0.2127744555131047,
          -0.2584165625637662,
          -0.3878134903891796,
          0.29145183872767755,
          0.17917537355282875,
          0.10399532349770603,
          0.2912186573884736,
          -0.026568403583478555,
          -0.10016206924910286,
          0.41195276636944844,
          -0.15434070731061864,
          0.031178827059066164,
          -0.020821613266194774,
          -0.22902478611049065,
          0.07827816431183422,
          -0.15584789295330112,
          0.2950367218777968
        ]
      ]
    },
    {
      "activation": 2,
      "biases": [
        0.0,
        0.333512701748432,
        -1.137134682611024,
        0.02837593096136509,
        -0.39374465417319093,
        -0.733456516706395,
        0.31679123535135895,
        -0.18877018492367476,
        -0.23548150441979993,
        -0.011776369912755724,
        0.22879597865523602,
        0.1362554502213926,
        0.1492572729967077,
        0.07080663249174653,
        0.2459368960839294,
        0.0,
        -0.08493387884997818,
        0.08707496227835812,
        0.09354003627873068,
        0.13610406119163457,
        0.2178395125576466,
        -0.09954693996446316,
        0.20748447812701912,
        0.46923922859286693,
        -0.11541181261133504,
        0.3342165190008639,
        0.22906992896564685,
        0.014500445032798818,
        -0.46991591618350453,
        -0.47017268887223623
      ],
      "cols": 30,
      "rows": 20,
      "weights": [
        [
          -0.017166846399042045,
          -0.6943067185228308,
          -0.03602870043461422,
          -0.11693061868608874,
          -0.26880693777538317,
          -0.4940602804484414,
          -0.08545580888299306,
          -0.12932418531192832,
          -0.04274078745773736,
          0.21103728271698727,
          -0.10440462273147963,
          -0.023338287308334933,
          -0.12517021438075038,
          0.16949382502571847,
          -0.6879311505433244,
          -0.0451084444055435,
          -0.3468638477366965,
          -0.06817865230266992,
          -0.2548805214596542,
          -0.025831797466315733,
          -0.23727498649549744,
          -0.023934794331972764,
          0.26611026722836606,
          0.4659510182657665,
          -0.26868227851964827,
          0.11410087985007347,
          -0.2538816150764059,
          0.18888588133495318,
          -0.4326393481957097,
          -0.8353895734246748
        ],
        [
          -0.3099330492382392,
          0.15476116901519524,
          0.36337576028926977,
          -0.0028130137278153475,
          0.49165096875165576,
          0.2508403794686906,
          -0.8500636505786341,
          -0.5278642437987034,
          0.2680388299074347,
          -0.3364406755228619,
          -0.19162548432121343,
          -2.307448096375043,
          0.3590315397655394,
          0.13476440391264108,
          0.20625043641122282,
          -0.19219173182891536,
          0.1934143015220501,
          -0.4091175478832791,
          -0.3208879779565159,
          -1.0898728946843803,
          -0.3232412680370042,
          0.21289528980150976,
          -0.18333736874424258,
          -0.061402498312053314,
          0.29103229661305563,
          0.10643883340519404,
          -0.5556123708304709,
          -0.8284792441102333,
          0.8145130833062498,
          0.2501586655847623
        ],
        [
          0.271250297068492,
          0.1898742674634069,
          0.12934486167970627,
          -0.05981859656161851,
          -0.07935421626400324,
          -0.23691755309466228,
          -0.22654276607593452,
          0.28133848302660486,
          0.21087392911997616,
          0.19732580696424382,
          0.1457287943431106,
          -0.013404909216647212,
          0.08953674555019016,
          -0.013200479691700052,
          0.032735749351814836,
          -0.23809089413830878,
          -0.044186589214372914,
          -0.2643670584518664,
          -0.13069738403811873,
          -0.3429165767367351,
          0.0386955274221221,
          -0.19104727201480676,
          -0.14343530190463122,
          0.24035057346136937,
          -0.145412002217367,
          -0.07930673827265254,
          0.29727614018634296,
          0.25852753070904505,
          0.20422703614044704,
          -0.21734545640679157
        ],
        [
          0.1460173088605947,
          0.24009588200590745,
          -0.7354337208202172,
          -0.18109785559108146,
          0.3010078249137742,
          0.3257984951222348,
          0.37868173047747444,
          -0.28009388645597266,
          -0.360451722655396,
          -0.07663280513138487,
          -0.09090791408790681,
          0.028578793191495006,
          -0.041213687260104624,
          0.274284192561222,
          0.35383754508916393,
          0.13652802457871854,
          0.2176658908032528,
          -0.1787512396490657,
          0.38578146561793636,
          0.07981663520261814,
          -0.3147890494553637,
          0.09613922579128384,
          0.1870395227017687,
          0.38727583614008465,
          0.3976236550194868,
          -0.3387316777015216,
          -0.4552732095880727,
          -0.38139001769449066,
          0.5639285935935792,
          -0.5377437476445694
        ],
        [
          0.14332585643029094,
          0.06403601939212432,
          -0.19452511230995007,
          0.18844170479442832,
          0.2636028268109267,
          0.10909138851750376,
          -0.30421385796233796,
          0.15726647598271878,
          0.06848930683389759,
          0.103249866017673,
          0.26429810270564236,
          -0.32609326101487685,
          0.07170174991925589,
          0.07376511876231465,
          0.0461025863903458,
          0.005599227273313587,
          -0.33157521041642274,
          0.2807012167175813,
          -0.20677293680084902,
          -0.30627254494970857,
          0.19501014636493927,
          -0.033181290250643494,
          -0.3150814525554047,
          -0.20360669413321103,
          0.3045599926636526,
          0.005218467100418254,
          0.2611251411621388,
          -0.2832072580485727,
          -0.11481645469638739,
          0.25564413703603156
        ],
        [
          -0.05859414289416671,
          0.3931783120681571,
          0.035544857529191926,
          1.13887908824009,
          -0.21325529071427968,
          0.11873553358020086,
          0.09534372433589394,
          -0.20680403406276604,
          0.34724925433287906,
          -0.1944110249847526,
          0.1859558854125433,
          0.13446828195046215,
          0.7224084735136501,
          0.4645479151550496,
          0.3052904927859822,
          -0.11735114916485684,
          0.09971822241794605,
          -0.03914481528843381,
          -0.0460085056746291,
          -0.14899964926992276,
          -0.3447588938952982,
          0.0424147946131193,
          0.6181460847733198,
          -0.36613194855327347,
          0.18325017046245168,
          0.7210932404423042,
          -0.04886496264090496,
          -0.6867258793302085,
          -0.21555445045338012,
          -0.14441676731277164
        ],
        [
          -0.2940806001098784,
          -1.1468338306671266,
          0.39287022716170444,
          -0.2431376106225425,
          0.286184561266526,
          -0.5982357655589874,
          -0.16368517866269142,
          -0.22169144388721276,
          -0.32458948738706633,
          -0.12545131328457218,
          0.609907230845924,
          -1.0435437467647781,
          0.1818296063743661,
          -0.9555601778710359,
          -0.3038221112939881,
          0.1386956456883576,
          -0.33680089542222347,
          -1.2450540888884871,
          0.3370332596167588,
          -1.606276398359053,
          0.08187695521478273,
          -1.7450751018371706,
          -0.1871068819127905,
          1.021290253763433,
          1.126788533072458,
          0.378002850522745,
          -0.4180236978821351,
          -0.2994098996490842,
          0.924109670341551,
          0.0038726005289021945
        ],
        [
          -0.032461568178081365,
          0.20996183764406126,
          -0.19087954690069844,
          -0.9783881522031019,
          -0.1601838618374998,
          0.8419403642023563,
          0.18970951016354676,
          -0.09828011681082073,
          0.014069363760562,
          -0.2454000611063079,
          -0.5052945295830849,
          0.054980419596850544,
          -1.3241276971769642,
          0.11948299672480256,
          0.3663689000944075,
          -0.2826699034819821,
          0.2599867583533429,
          -0.6775639134041926,
          -1.5858835136839768,
          0.29420050333893594,
          0.4070035906381082,
          0.017401693704180543,
          -1.0131139153597513,
          0.40312236749870217,
          -0.6300922163322429,
          -1.3304725345007635,
          -0.00689884328976949,
          -2.1425874128949394,
          -0.8974035136867166,
          -0.5331131212442772
        ],
        [
          -0.33198214633085976,
          0.14334252905884004,
          0.11674824834350211,
          -0.8266598175814479,
          -0.03206702292651798,
          -0.6786564761247222,
          -0.12789398710678598,
          -0.5852660870178942,
          0.004490722891286174,
          -0.26325640964210306,
          -0.30740984833498736,
          0.49870316561156175,
          -0.35830636300225166,
          -0.016594684585278963,
          0.546713922244051,
          -0.16411282175718928,
          -0.025884523588691137,
          0.12038316966645977,
          0.36259364022562607,
          -0.021565079295130334,
          0.6487129219382443,
          -0.36136099970011876,
          -0.4562554048665393,
          0.19210761686466474,
          -0.08748662685008192,
          -0.33628470479237016,
          0.2884446444019398,
          0.09842700298501787,
          0.24033948412689018,
          -0.039723727281137954
        ],
        [
          -0.3418720418924632,
          -0.3763436472395833,
          -0.935703388323236,
          0.11771102261463377,
          -0.6086257529331055,
          0.4655313049130725,
          0.5503654774752178,
          0.36770665776483313,
          -0.11180936878626124,
          -0.23638939297836442,
          0.34440902518815464,
          0.22682705815720416,
          1.0146422314359724,
          0.5004462460672503,
          0.4303116624755543,
          -0.12648930039989917,
          0.9313513681796786,
          -0.025467010443538003,
          -0.854227433232258,
          0.4534141188081167,
          0.4624084179516427,
          -0.1679154089125415,
          1.0399803931901899,
          0.15814426231911324,
          -2.670570362766293,
          0.3489897876243652,
          0.3100136115046412,
          -0.23376880738825456,
          -1.0313218454436364,
          0.07393635856187705
        ],
        [
          -0.2844692191485246,
          -0.09924686548394121,
          0.04656408921668439,
          0.07541885740067596,
          0.2607756069559229,
          -0.393827048475133,
          -0.2635653055850602,
          -0.24092832406442907,
          -0.23950170690425604,
          0.0658075170565065,
          1.0380791055377265,
          0.42369499254803317,
          -0.6735427564829777,
          0.5294281133333805,
          -0.26579940055630896,
          -0.3329207725795062,
          0.06677247042723299,
          0.5140005202248313,
          -0.15239576070421032,
          0.26963544120651073,
          0.6234225120321257,
          0.33078910355325797,
          0.2227917521674227,
          -0.08964016221674999,
          0.11132497791583724,
          -0.5149116042331989,
          -0.14289579601497082,
          -0.11114567542904903,
          0.24124736459633073,
          0.4590946971305481
        ],
        [
          0.07888298387565794,
          0.05836406407357169,
          -0.06807763250808709,
          -1.0394602363059526,
          -0.07380734013196535,
          -0.1087463502454996,
          0.11221457696019475,
          -0.6078916800495314,
          0.004997769581140308,
          0.11525609952326088,
          -0.8289670706624976,
          0.3141691778900545,
          -0.4321860584215958,
          -0.22927160983710607,
          0.054418070456960066,
          -0.18249597325904413,
          1.1603015032762476,
          0.0974218554542337,
          -0.5080679143565393,
          -0.07174185667223505,
          0.4749819272520328,
          -0.49393221634229034,
          -0.41947250500029476,
          -0.6536611322936339,
          -0.6178867273778087,
          -0.30504831192475745,
          0.7803049894046832,
          0.08731291796951625,
          0.22548791995673478,
          0.6977291307414741
        ],
        [
          -0.27178827654925486,
          0.5396661664242092,
          -0.9360532879578896,
          -0.8212451573613933,
          -0.10277746596419934,
          1.5541950004396807,
          0.9895869925830004,
          -0.3538919228151428,
          0.1742655618526557,
          -0.08107399894991933,
          0.02913831180068438,
          -0.9184751634131281,
          -0.5118531235526195,
          -1.0448153443168113,
          -0.4793374651857996,
          -0.09425252178602157,
          -0.52766043079483,
          0.4142374701529537,
          0.6084426160516773,
          -1.010911536236789,
          -1.04925846954761,
          -0.3385042888920692,
          -1.0837523372597146,
          -0.49705861627341896,
          -0.9687874386967645,
          0.4602398259703591,
          0.5783951777660015,
          0.6677876827810293,
          -0.7131188530337774,
          0.07265222451081146
        ],
        [
          -0.18117424268346224,
          -0.05215646707374384,
          -0.42713568151160264,
          0.45727118792341453,
          -0.9338543505377723,
          -0.6236557889343528,
          -0.33917652283069133,
          0.23844187667685232,
          -0.37032227478392743,
          0.24948562775667485,
          -0.0907931078243348,
          -0.024269577217078335,
          -0.22178682051621992,
          0.1409251255551316,
          -0.03266258744942841,
          -0.31487521668329677,
          -1.0328323848205514,
          -0.6458160817126734,
          -0.06837184219845566,
          0.014062742192679945,
          -0.742367029250503,
          0.10039316862030336,
          0.18072242039939915,
          -0.0032360508408110973,
          -0.7642232339670896,
          -0.7379287938563575,
          -0.92523488606398,
          0.40504644120110644,
          -0.7374172396973612,
          0.337118919823299
        ],
        [
          -0.050177074863794295,
          0.25819051452820785,
          0.20039879546758968,
          0.09887984927655712,
          0.32418568614627674,
          0.17560174750919677,
          0.06380889196496277,
          0.08008430862110492,
          0.1346944028340029,
          0.3382633767670853,
          0.31488637319181034,
          -0.27879513235155,
          0.09031733142407776,
          0.2624657011082677,
          -0.18761662032122964,
          -0.34613951173422347,
          0.2230905056439249,
          -0.09680470255962817,
          -0.20665726509077806,
          0.07408419632533039,
          0.30701376284384196,
          -0.2594324464353067,
          -0.06013136400780663,
          -0.08577611981648416,
          -0.2080955397398391,
          -0.0977564339391942,
          0.2534139722447908,
          0.006627069779292994,
          0.007387684854475871,
          -0.17987958021524578
        ],
        [
          -0.16376411126095916,
          0.6752407716791466,
          0.5813370958935222,
          -0.21124162554827094,
          0.6137618438604254,
          0.27946831756305934,
          -0.29152404121391123,
          -1.685508993464403,
          -0.3279872229493012,
          -0.09099743968074764,
          -1.9909482014302151,
          -0.18910540331869471,
          -0.6393192801389739,
          0.4432121658990787,
          -0.13077712402284106,
          0.04547874525088867,
          0.08347811209969909,
          -0.26304361786430625,
          -1.2706611598974749,
          -0.1539426164508923,
          -1.5209786884459913,
          0.2753111874912778,
          0.12828336720492073,
          -0.1524948845423065,
          -0.18786004158568426,
          -1.4194833915160887,
          0.02802499188494097,
          -0.19947114882047462,
          -0.10844418390016158,
          0.10418456875055956
        ],
        [
          0.1917254255192981,
          0.04214028791620575,
          -0.293478791631013,
          -0.16710522343236045,
          0.011256304274305684,
          0.13270270909780738,
          -0.27663684753062073,
          0.23838653370973945,
          0.29005422131696457,
          -0.33951579252082414,
          -0.24760784208333866,
          0.2604144043681577,
          -0.04239238158401494,
          0.11540453248492172,
          0.045203264888011394,
          0.18045513229766857,
          0.03910588342697733,
          -0.20212426770091282,
          0.21837588148269807,
          0.09930909175562934,
          0.3210252532124611,
          0.04628850335719669,
          0.2666134184245906,
          0.23085291139362565,
          -0.005621447375895015,
          -0.14804133456560867,
          0.1796033704094446,
          -0.006266203621636782,
          0.2591932156110948,
          -0.11793606044198143
        ],
        [
          0.021904301704379587,
          0.30235388203283603,
          -0.31017130930006376,
          0.36991849707620617,
          0.04434459808528353,
          -0.7827218727173197,
          0.29850866607700255,
          -0.050571363047081166,
          0.2178900212423215,
          -0.17368761360111298,
          0.5843321512648109,
          0.3081191660616398,
          -0.90182467595631,
          -0.14223151502467074,
          -0.11938325132727891,
          -0.25796568770143985,
          -0.1502198360841589,
          0.15439033722266543,
          -0.6379486865740842,
          0.35921849588387256,
          0.08627730340930292,
          -0.06634683553546057,
          -0.5084547423689737,
          0.6525675194624176,
          -0.25610211492058077,
          -0.07125631307410786,
          0.05232831264815113,
          0.2190991468304888,
          -0.33320588616715924,
          -0.37504451146305884
        ],
        [
          0.25800721787777775,
          0.481862850194601,
          0.3123214082200119,
          -0.15871715928000585,
          0.23821347607545965,
          -0.534608681595377,
          -0.34412471661905897,
          -0.7449570163501629,
          -0.2007825040180112,
          0.11386562443339983,
          0.020972848460450735,
          0.37474800086366655,
          0.5586784949689427,
          -0.14360250297687716,
          -0.1279826381746148,
          0.04026830831371495,
          0.3328310724781868,
          -1.3139575176517757,
          0.036141586455619566,
          0.19243066453225768,
          -1.278042965444536,
          0.7514790489409182,
          -0.26129994173700005,
          -0.8523922158777129,
          0.26772397572993145,
          -0.08490828070793702,
          0.3146665998878755,
          -0.7411510715534599,
          0.28061707724739954,
          0.5655041013554827
        ],
        [
          -0.03509095762999287,
          0.6404941907442142,
          0.22034820640248878,
          0.3796475907814554,
          -0.2332085607151373,
          0.10811037677651977,
          0.24776954013961144,
          -0.5077870820176299,
          0.14295499660489067,
          0.19219812255401317,
          -0.016642539502371916,
          -0.2536090798655464,
          0.28814413658552673,
          0.17340815199309428,
          -0.14790509136652788,
          -0.09599776931056973,
          -0.4539956487277472,
          0.18560168010360056,
          0.274944496334012,
          0.040670652097606064,
          0.13470155442290127,
          0.2561701437806836,
          0.5347398315460974,
          -0.009530600252095772,
          -0.10597518124681446,
          0.5412579716220572,
          -0.2532263125387202,
          0.08695680039603902,
          0.07192566211344589,
          -0.49683892123504847
        ]
      ]
    },
    {
      "activation": 1,
      "biases": [
        -0.9498106615087462,
        1.2753664604190633,
        0.20258012097952025,
        -0.0019194089833927989,
        -0.007653682522447081,
        0.7347708502738015,
        -0.697937733975315,
        -0.23515973555684405,
        -1.21870373031589,
        -0.17643508998862523,
        0.7930220691041063,
        1.7036672112490021,
        2.0436240718118284,
        0.7237437008728987,
        1.6197651673889844,
        -2.4650368210322813,
        -0.4584124445641842,
        -1.223649275977736,
        0.12450387313777406,
        -0.5229781493148026,
        -0.8805422474553312,
        -1.1896315031095255,
        -0.3526929621903538,
        -0.8067319783483727,
        0.18341392458268335,
        -0.12146259635826301,
        0.32331349158054634,
        -0.6282639000266488,
        0.6300301494991765,
        0.6845832629799485
      ],
      "cols": 30,
      "rows": 30,
      "weights": [
        [
          0.2380249024640861,
          0.28870213421286434,
          -0.0473961174353641,
          0.00267874582487719,
          -0.30267699279123644,
          -0.04558485319323337,
          0.23451139836344456,
          -0.14652363518250575,
          -0.20294840357785038,
          0.10186516882309923,
          -0.20331156864172814,
          -0.11383958020635167,
          -0.10295869409035732,
          0.1304072534958529,
          -0.06719618703733776,
          0.06272998177650027,
          0.124462817143775,
          -0.03027436146475846,
          0.2435319495605729,
          -0.1288406964823331,
          0.007997061452292956,
          0.3100381420902456,
          0.2886257291741763,
          0.2200646731205977,
          -0.16432746113140834,
          0.21722649736853034,
          0.033487553365411316,
          -0.28286650636853433,
          -0.035227657203955244,
          -0.09126769915961351
        ],
        [
          -0.13647896634878845,
          0.3865724786012324,
          0.5173771524813622,
          -0.11074206736691991,
          0.14671561910075628,
          -0.04774422820161951,
          -0.22944880092560815,
          -0.1050114513541133,
          0.3016178625959554,
          -0.023833451240441107,
          -0.1815367035717914,
          -0.3052128816709368,
          -0.3299666125651979,
          0.5677804434301078,
          0.48354832942403264,
          0.17452269590222494,
          0.04264928889026386,
          0.2937086243360776,
          -0.15753554572833567,
          -0.05384474023839227,
          -0.4619299215575351,
          -0.00845553006711197,
          -0.053775909511271085,
          0.3942021082322238,
          -0.07274149433211297,
          0.4916168004120711,
          0.37144456550860555,
          -0.6838652357115298,
          0.2701111447376679,
          -0.025956199443964375
        ],
        [
          0.4298205720242992,
          -0.08273361606287302,
          -0.3385938098634117,
          0.36656006026105975,
          0.610798613129807,
          1.0860917352220665,
          0.01858011240898337,
          0.1684892199858205,
          -0.4254024561200315,
          0.47674640833474174,
          0.8329283409079902,
          0.09468248324046558,
          0.08975673823100366,
          -0.3194355996215938,
          -0.0698742163605307,
          -0.012738775277680546,
          -0.07637535174283108,
          -0.1404229531538267,
          0.1409333696196655,
          0.0020234909947267616,
          0.18719730331336906,
          -0.09028442317572805,
          -0.03905775467061297,
          -0.311315064310538,
          0.15692175515457704,
          -0.2386176113777287,
          -0.20205220284772762,
          0.4648901321693521,
          -0.15062853091677217,
          -0.011004788384887465
        ],
        [
          0.3324507181208796,
          -0.05042404764524981,
          -0.03647473269882044,
          -0.12583194404759135,
          0.16966384738806178,
          0.06058394099135804,
          0.021883213067890463,
          0.12054695128256548,
          -0.45663351233605826,
          0.05931988416637053,
          -0.2866955621258883,
          1.5746590030481853,
          0.009237111509673046,
          0.5366215336946288,
          0.04363248728735696,
          0.10283424461503188,
          0.2180580559135524,
          1.122583927138932,
          -0.1976581965593369,
          -0.11733597468535589,
          0.3380558300692426,
          0.44720288565428773,
          0.10034583547148468,
          -0.4861185122605164,
          0.045718786014006745,
          -0.109323515454341,
          -0.24011915080836618,
          0.45845150302266025,
          -0.010489543900161073,
          -0.21967965715921786
        ],
        [
          -0.8742785868907734,
          0.2653906125329389,
          0.18114141058357328,
          -0.13068736656078409,
          -0.36976875470857606,
          -0.8058837840467729,
          0.06802435874945974,
          -0.14057673331180534,
          0.19209782471084258,
          -0.3410182588446767,
          -1.1480135433037593,
          0.09185914395537928,
          0.09864637017705923,
          0.1627412878116607,
          -0.4506296959477776,
          -0.16302255354516462,
          0.10962960697907874,
          -0.40738942252323856,
          -0.5512644692982529,
          -0.029404183599323258,
          0.214980906297585,
          0.21964267515623442,
          0.05250966063728948,
          0.023034425198655523,
          -0.03355865241287014,
          0.09467838353562541,
          -0.8023621766288417,
          0.8262751141191108,
          -0.11039689594858945,
          0.2851105986836117
        ],
        [
          0.09772635058253898,
          -0.0006493474349726773,
          0.12497785244649767,
          0.17002295171888068,
          0.29195184980523764,
          0.3512513120532835,
          0.19736198923349166,
          0.11729833359616036,
          0.1422500718073956,
          0.9374193587879173,
          0.9554293199350533,
          -0.07313549883069614,
          -0.10987192690835862,
          -0.19931669653863415,
          -0.28883681770044506,
          0.22177067269091083,
          0.12986610794571343,
          -0.078083899710265,
          -0.8598586678088999,
          -0.039788179786832606,
          0.10356674845722608,
          0.27506143018515045,
          0.008012511800597996,
          -0.19651739098197882,
          0.17838800207710265,
          0.21529531173133257,
          -0.15305092494449854,
          1.0299908883101416,
          -0.08164002032727657,
          0.09578674296707186
        ],
        [
          -0.15849551073538481,
          0.24603011522593063,
          -0.6054069940625249,
          -0.10945996477405491,
          0.06566304294418383,
          -0.7650685232748135,
          -0.01620514032978641,
          -0.591817057706323,
          0.1560313832315909,
          -0.7357361598508732,
          -1.0770431959563187,
          0.19686156568001728,
          -0.20555702144212434,
          -0.1432563503535092,
          0.21266038958067257,
          0.1631183191499555,
          -0.12250635356183533,
          0.6265694034745054,
          -0.030175623217201374,
          0.07420059966876781,
          -0.5625580421890825,
          0.36534537217521895,
          -0.03989180971012627,
          0.37298487948895126,
          -0.11805446821069272,
          0.24300867307563806,
          0.5643269768545176,
          -0.6391971308282717,
          0.13025958318766984,
          -0.02969139829667874
        ],
        [
          -0.22400444217735777,
          -0.2003240585419757,
          -0.24988794188637548,
          -1.2530731423799748,
          0.021463473971894693,
          1.205938244263202,
          -0.22763780874732156,
          -0.07758953335615446,
          0.07643012889178678,
          -0.18160921176401928,
          0.08058813075824539,
          0.13363153419572638,
          0.09014941189859829,
          -0.17014675334962234,
          -0.08838602079658614,
          -0.1499133843233556,
          0.19729020851284584,
          -0.3896135770901627,
          0.08683760365358105,
          -0.1102084301598135,
          0.5975028726982767,
          1.208761934997552,
          -0.1468636851159114,
          -0.4469849387042431,
          0.32540784520304317,
          0.08677349218195922,
          -0.007675354861527359,
          -0.2958318936705601,
          -0.18348853882067248,
          0.3533936472734003
        ],
        [
          -0.14029271855282469,
          0.06279199329486537,
          -0.3036051574745991,
          -0.04353104167885176,
          -0.1344512138226003,
          -0.19469757040650718,
          -0.1613617896283175,
          0.27449571732305145,
          0.3139182732738491,
          0.23516010167444765,
          0.2376865538088266,
          0.33036219181512194,
          0.21782442984013314,
          0.19594338454736104,
          0.2227148807596564,
          -0.11266517181200014,
          0.08849334375037257,
          -0.08362446857646089,
          -0.0012998408972572553,
          0.0105926172643066,
          0.08594426001782644,
          0.06479847846713407,
          -0.38870176998602163,
          -0.0736134157961897,
          -0.17134816917671858,
          -0.2334023392232553,
          0.2211656825203675,
          0.2853650123731695,
          -0.21505029528499978,
          0.02166261844556995
        ],
        [
          -0.06070679767767956,
          0.28835273419881985,
          0.26369523618565444,
          -0.17137600434928627,
          0.09022298306966325,
          0.3068413528051741,
          -0.11669879274799237,
          0.26341140890887305,
          -0.15394399216282814,
          0.30291784847581993,
          0.30965401196514186,
          0.26709666796790243,
          0.1448733610149706,
          -0.009676289126058264,
          -0.2597553908722361,
          0.07637384457465093,
          -0.178579276617021,
          0.24109645663811316,
          -0.2882302075704017,
          0.26502133439025966,
          0.3152297110210809,
          -0.23123468912950354,
          -0.05736260512331048,
          -0.2563347175674894,
          0.19071113467198997,
          -0.06949481343051271,
          0.30282537348309363,
          -0.2026747574374761,
          0.05436926357741109,
          -0.2148559519339989
        ],
        [
          0.023136565707650606,
          -0.2326851692453993,
          -0.003622654116733773,
          -0.09683966362147792,
          0.3041571670429555,
          0.38595715165297795,
          -0.2647390569821886,
          -0.6213670137158411,
          -0.6294434579223238,
          -0.1274076971665668,
          0.5126993862104685,
          0.480355070061317,
          -1.0751792493659758,
          -0.20958066953341292,
          0.08265444989904973,
          -0.6248618420510894,
          -0.035424095722125085,
          -0.41741445111597286,
          0.1256610865295816,
          0.20955433651909045,
          0.4170104456330301,
          0.03377992054178245,
          0.34649286034252896,
          -0.09227257779011028,
          0.246525202627655,
          0.7414753627686662,
          0.7012021535457313,
          0.858829475259213,
          -0.4374970196150816,
          0.8575046661721294
        ],
        [
          0.24167775750064951,
          -0.11093380372074424,
          0.2734169760579921,
          0.08056278354977393,
          0.5619191574728173,
          0.5126257900249133,
          0.07969535461061097,
          0.26837221929564503,
          0.30358334027754846,
          0.3678084668725878,
          0.716050455782671,
          -0.2002577300829587,
          0.08643773200666158,
          -1.1072354080855948,
          -0.39348721467478837,
          -0.00376199559736571,
          0.2797145162201646,
          0.03875540601747045,
          -0.23215444472478508,
          -0.26372538639002713,
          0.09761104996131426,
          0.036037001087225115,
          -0.03822601530215385,
          0.40942042637184084,
          1.7836314629894803,
          0.04129869467782491,
          0.5287245012684956,
          0.5207856290986188,
          -0.28406876171601747,
          -0.34799482958689526
        ],
        [
          0.43728031407792567,
          -0.0054015494425063175,
          0.010804566070047691,
          0.25473586905954715,
          -0.40194258422118045,
          -0.42702646349301115,
          0.37096543385472897,
          -0.20138779944135182,
          0.18099059724436922,
          -0.0671017133912585,
          0.41093906474531594,
          -0.5923824700847363,
          0.4367624739139731,
          -0.09590229546094883,
          0.0947541644373057,
          0.45026828498281624,
          0.016227801072451777,
          -0.47254831430576427,
          0.1094330653331995,
          0.10566312854132381,
          0.017045329633598606,
          0.8935561230879842,
          -0.49241160702656833,
          0.2341482815114293,
          0.5824963307072873,
          -1.1873000250990589,
          0.5522615637881724,
          -0.22434861458058875,
          -0.1065642233476186,
          -0.8235808290155928
        ],
        [
          0.049104348444766605,
          -0.06629330618546472,
          -0.5520207450250092,
          0.03643029620595297,
          -0.3435694896845432,
          -0.43957367966211125,
          0.08486608686240218,
          -0.269352057639909,
          -0.019167846418005785,
          -1.2975926419972845,
          -0.3678474036882381,
          0.2127316290452647,
          0.391228187262709,
          -0.406865993058585,
          -0.6793470276182741,
          -0.21292276301649518,
          0.2880990103443025,
          -0.6110045801063231,
          0.6029427720121352,
          0.0006482859677887495,
          0.43926946864134514,
          -0.018372513196429383,
          0.24972065667128934,
          -0.516270059932744,
          -0.28783304931333853,
          -0.5067139024422778,
          -0.05148965778580683,
