{
  "layers": [
    {
      "activation": 1,
      "biases": [
        -0.03546590666456346,
        1.9026515809007125,
        0.13714761007409212,
        -1.1549294549771993,
        2.1229572705241386,
        -0.08602127728410337,
        0.02271991645975362,
        -0.09319399000213462
      ],
      "cols": 8,
      "rows": 2,
      "weights": [
        [
          -0.31546865905270005,
          -2.125655852188694,
          1.2464314585392056,
          1.8190888732238515,
          -3.1365335058915194,
          -1.5390020656952086,
          -0.07986552721325521,
          -0.9174316636567882
        ],
        [
          0.9903592497284878,
          -0.38865978258611666,
          0.9799244728041419,
          -1.0823397850090688,
          3.7425746613540247,
          0.7387939283508232,
          -0.9152614563198516,
          -1.0609433894459572
        ]
      ]
    },
    {
      "activation": 1,
      "biases": [
        -0.389819693322783,
        0.47513710671652815,
        -0.3127000166229847,
        0.1175584216310821,
        0.17340643114790083,
        0.10590331073032494,
        0.06210854423743391,
        0.5246785029739919,
        0.019436882239741785,
        0.37458681182953163
      ],
      "cols": 10,
      "rows": 8,
      "weights": [
        [
          0.3812585761976606,
          -0.08112082280885922,
          0.22135579782690895,
          -0.21889604251962913,
          -0.4191057530408851,
          -0.2708681756580262,
          -0.5072485745690306,
          0.05357063750712515,
          -0.1693489772610617,
          -0.33460099660171344
        ],
        [
          -0.012127632127427271,
          -0.29487809004253956,
          -0.3422994715699945,
          -1.8180302279259561,
          -0.36914488702664633,
          -1.1643043892311833,
          0.3296529311562912,
          1.919580186841029,
          0.5678270885422775,
          0.5690706332119269
        ],
        [
          0.7488171151524725,
          0.7529017710925894,
          -0.23171848005284112,
          0.936098953936299,
          -0.34307062093389684,
          -0.020236812845050925,
          0.15370304204207025,
          0.6473245782350432,
          0.3572963260462367,
          0.7289038491880099
        ],
        [
          -0.03775391382436642,
          1.049752116502687,
          -0.14756955493470097,
          2.282490718675082,
          -0.10213119502933858,
          0.3148307387506423,
          -0.1438404466754045,
          0.2717033052621125,
          -0.39126615567634115,
          0.5367710811421326
        ],
        [
          -1.2684122624858674,
          0.2833422914117562,
          -0.28066912207663347,
          0.5914718221449612,
          0.31710469069364106,
          2.2942179417001536,
          0.2411513915750242,
          -2.7162418560000376,
          0.4460823071262603,
          -0.21929489033999033
        ],
        [
          0.29176521139551037,
          -0.25772298728481297,
          0.3817590238730126,
          -1.005372028865028,
          0.20621236085291406,
          -0.701018224025016,
          -0.19867937214132497,
          0.9775870232735001,
          -0.28389077931331996,
          0.18244662359193237
        ],
        [
          -1.213037809513675,
          -0.31321673308984155,
          0.25743184066518016,
          0.18772422367486766,
          0.3411264230551605,
          0.32421901813568255,
          -0.23636205518806147,
          0.001344767524084453,
          0.5040207461852515,
          0.10806170429187682
        ],
        [
          -1.0615939651790531,
          0.27308330677402193,
          0.09188001508452517,
          -0.9545397602064104,
          0.12293338112036513,
          -0.01948176087686112,
          0.573765610935814,
          -0.40590925488381696,
          -0.19488190615241907,
          -0.15819600613916726
        ]
      ]
    }
  ]
}
