{
  "labels": {
    "labels": [
      "distorted_noise",
      "high_squeal",
      "low_impulses",
      "sus_noise_quiet"
    ],
    "rows": 4
  },
  "mlp": {
    "layers": [
      {
        "activation": 1,
        "biases": [
          1.6472685870546255,
          0.05751473355933577,
          -1.9958176396124767,
          0.9233642568105128,
          -0.5536187080311846,
          -0.15346773537956623,
          0.28347551693334316,
          -3.3296715832408403
        ],
        "cols": 8,
        "rows": 13,
        "weights": [
          [
            0.22790712307136768,
            -0.3456920923843014,
            0.0862006548819917,
            -0.07032692754024392,
            0.15552073671614958,
            -0.5668804834861333,
            -0.1133475822957963,
            -0.03702936988386076
          ],
          [
            -0.039786414056814996,
            -0.5440732390860202,
            0.39153752536838277,
            0.031302048137828074,
            0.46311578934224357,
            0.062485312255869514,
            -0.5537371539406309,
            0.06490015746106026
          ],
          [
            0.19364582880821712,
            -0.21761005384520227,
            -0.20060655882320463,
            -0.5316444458249346,
            -0.4379144619711462,
            0.6200713593411948,
            0.4662932933571877,
            -0.20356374336574942
          ],
          [
            0.5732820033115734,
            -0.14978419916209132,
            0.1553130168783448,
            0.43251743274516097,
            -0.2179271958121068,
            -0.26931287791329983,
            0.13729828998010657,
            0.25972774783406766
          ],
          [
            -0.9572417552542316,
            0.19943829956245115,
            -0.7352020043739801,
            -0.8176691661025836,
            -0.47843864631671795,
            -0.2443842525317427,
            0.6676896437032552,
            -0.40963674902969843
          ],
          [
            0.351034949795301,
            -0.14878423706043375,
            0.510934189377821,
            0.17035867357382192,
            0.20579217032160727,
            0.444109854511572,
            -0.4337411738565062,
            0.09867293701609488
          ],
          [
            0.2784950457387347,
            -0.17435556573278357,
            0.0026077836609070633,
            -0.5760533001324136,
            -0.37907990578968287,
            -0.8026049187348187,
            -0.08214163297990314,
            -0.22354887764543416
          ],
          [
            -0.2793984638802345,
            -0.16288826150507357,
            0.20834325455226996,
            0.43632526614281275,
            0.25933773065540294,
            -0.024780967648115302,
            0.21888485980598507,
            0.20534902704514618
          ],
          [
            0.3445838024659019,
            -0.11268973192654487,
            0.08647914828994843,
            -0.2149311828001363,
            0.7830891942577433,
            0.6331747181323528,
            -0.1621507580339467,
            -0.03735126919597696
          ],
          [
            0.12102836617708282,
            -0.08290871521727326,
            0.29674174087371896,
            -0.5089489862983961,
            0.34509142689190064,
            0.24686521619443103,
            -0.0927753363308603,
            0.021868355567201108
          ],
          [
            -0.458377705622253,
            0.09352489903770016,
            0.16231850535891046,
            0.3713234855284841,
            0.6263238714171073,
            -0.155633282907965,
            -0.9268149800099226,
            0.006034074612313264
          ],
          [
            0.6257865003466261,
            0.5087305340258225,
            -0.43631604325166917,
            0.08410253986751126,
            -0.05923733300153729,
            -0.1942958395606771,
            -0.08020969214673915,
            -0.1335172353464758
          ],
          [
            -0.07469676188995508,
            0.3998139233245706,
            -0.16813526783992894,
            -0.2050237972786083,
            0.7336825113262724,
            -0.4716135491395385,
            -0.5130635133746732,
            0.013499962586774241
          ]
        ]
      },
      {
        "activation": 1,
        "biases": [
          -0.12148099690379685,
          -5.422614476699981,
          -1.3080562310899273,
          -0.2746153520976022
        ],
        "cols": 4,
        "rows": 8,
        "weights": [
          [
            3.9271191407513255,
            -2.0877410813334047,
            0.9388853301706084,
            -3.6503190153515375
          ],
          [
            -0.8104363225437263,
            -0.8583647104316251,
            -1.6526777388365876,
            1.101333528535781
          ],
          [
            -4.737068299234058,
            1.9609013304926874,
            3.1448923395891613,
            -2.4797508533957573
          ],
          [
            4.9328349234008915,
            3.0984360813387775,
            -4.119245297831932,
            -4.587998974351634
          ],
          [
            -2.856505291308297,
            0.19852543131918796,
            1.1817453835261311,
            -1.9191639591509735
          ],
          [
            -4.871511229407937,
            2.0751980881314815,
            -1.1615220893038798,
            3.3332924445100476
          ],
          [
            0.29725104777224837,
            -1.1574062499710123,
            -2.890673966925019,
            1.149049499261391
          ],
          [
            -2.1206905319683593,
            5.509565732649835,
            -1.840330922122833,
            -3.20620457442135
          ]
        ]
      }
    ]
  }
}
