{
  "layers": [
    {
      "activation": 1,
      "biases": [
        -0.09596235751730117,
        -0.21015724386158863,
        0.4863202615958811,
        0.10373366368158582,
        -0.12981892428807798,
        0.13595394094338287,
        0.5977856727751543,
        -0.18191224236577958,
        -0.4296201307571452,
        -0.3572931807763775
      ],
      "cols": 10,
      "rows": 13,
      "weights": [
        [
          0.49702040873112147,
          0.23011299231599974,
          -0.40440843654233044,
          0.2069127280189581,
          -0.21571788662848543,
          -0.18871049945917345,
          -0.469929497172934,
          0.29177577089029094,
          -0.3692475251838201,
          -0.21539963843053425
        ],
        [
          0.14791498932367472,
          -0.03826523677799029,
          0.23040320857501656,
          0.4943219397675976,
          -0.27067120297932346,
          0.5726470128447643,
          0.19299378860287933,
          0.08746456185228277,
          -0.09876186336818482,
          -0.32295292908197487
        ],
        [
          -0.42464969456825286,
          0.5456027219156799,
          -0.1536074744811506,
          -0.06439480877522703,
          -0.05991821547595817,
          -0.21776819729064564,
          0.35488271707315233,
          0.37463958619258,
          -0.2176792822905958,
          0.018020109568466197
        ],
        [
          0.21684786599071448,
          -0.4686634299003738,
          -0.2746684525167489,
          -0.10109389035371633,
          0.2675780497841886,
          -0.5028671057032381,
          -0.07158275022152143,
          0.1563620644431175,
          -0.3400715104323697,
          0.28206863737236126
        ],
        [
          0.4179280691214087,
          -0.3557869205709236,
          0.3460011607924799,
          -0.32455350835466024,
          0.35367762136108594,
          0.10456680905654932,
          0.24631076526639095,
          0.46323653108481233,
          -0.04048297890397538,
          -0.21544840902635776
        ],
        [
          -0.23067471783507246,
          0.40101110910631527,
          -0.12303920879171101,
          -0.315428187702175,
          -0.1239236368744547,
          -0.2594929402739468,
          -0.42508929253286726,
          0.2848885341667464,
          0.3344617257932692,
          0.3405693522161186
        ],
        [
          0.49271399696302526,
          -0.4765562988561981,
          -0.24662449858766575,
          0.058668606588415974,
          0.5460763340183545,
          -0.5320701290423965,
          -0.04939399120515985,
          0.47582339818852326,
          0.20472781681640265,
          0.3905840720768931
        ],
        [
          0.018232561392124935,
          -0.19958091501132186,
          0.5345844732449397,
          -0.3654867065199963,
          -0.5092849922952765,
          -0.28489938753538807,
          0.32187204161290983,
          -0.1661841610685654,
          -0.2567190941400133,
          -0.20422198782005416
        ],
        [
          0.43856493424722065,
          -0.42335895752342806,
          0.5502297875177901,
          0.3115456322115447,
          -0.03571940658211702,
          -0.44159062965749873,
          -0.20281852542220213,
          -0.1465606646884201,
          -0.4771760527724044,
          -0.2904910345033163
        ],
        [
          0.24501356004138355,
          -0.12867076771818997,
          -0.2289448806152693,
          0.0625315729198959,
          0.1789814875188353,
          -0.31841925591671766,
          -0.0009626317638751948,
          0.18503928855769455,
          -0.11895530583453655,
          -0.49824556479212534
        ],
        [
          -0.31594780479049395,
          0.21103448069844058,
          0.2602998313580171,
          -0.21005179724405207,
          0.19160831383545762,
          -0.38894048512177704,
          0.16403682024791494,
          -0.37405702638065774,
          -0.3661043859196565,
          0.3955421677919566
        ],
        [
          -0.432468104206332,
          -0.46614219258038164,
          0.4283063503364803,
          0.31059582911193395,
          -0.19484068833774587,
          -0.43447245580508226,
          -0.08312828553758583,
          -0.48792972753435887,
          -0.02925942197610767,
          -0.2763861490696315
        ],
        [
          -0.4933871268237139,
          -0.15173308534637583,
          0.32207153358258733,
          0.029121702021102598,
          -0.53299585404284,
          0.2022541847114204,
          0.2856772297888914,
          -0.08013055782250963,
          0.17928055657074324,
          -0.3551075223165327
        ]
      ]
    },
    {
      "activation": 1,
      "biases": [
        -0.5847881976144987,
        0.8870217814113932,
        -0.5394667293495063,
        0.2617240496389252,
        -1.015078711700418
      ],
      "cols": 5,
      "rows": 10,
      "weights": [
        [
          0.06171988647622208,
          0.3853121401492287,
          0.12014004644915242,
          0.11995254939581892,
          -0.14080232763160502
        ],
        [
          0.909103557471437,
          0.25630428382881043,
          -0.5794350626985956,
          -0.10272191220427311,
          -0.7363879747633122
        ],
        [
          -1.4575459543620606,
          0.5618654257639165,
          -0.3816586651712173,
          1.1353761607188275,
          -0.6121684921940711
        ],
        [
          1.7959833591854282,
          2.400422040060705,
          -1.1709374957382461,
          -1.5344695714721057,
          -1.9790282751561172
        ],
        [
          -1.7424178403270678,
          -0.8787315149365482,
          0.46922587289879925,
          1.8264783854196416,
          1.2214981956881095
        ],
        [
          0.5568445400825665,
          0.7591546278371212,
          -1.4141594537164281,
          -0.48612087315681946,
          -1.725633668405709
        ],
        [
          -1.0569827665749,
          1.2491929972397093,
          0.12622033211594771,
          1.126784060517969,
          -1.213620606981537
        ],
        [
          -0.6486292069381544,
          -0.004157812483145696,
          -0.4213874070012766,
          -0.3335197788489659,
          0.15323060728494073
        ],
        [
          -1.661163829484086,
          -0.6957715760625495,
          0.8266379909601758,
          0.7136511261493169,
          1.4202071312167055
        ],
        [
          -1.228670486459493,
          -1.521671076367486,
          0.714190736243334,
          1.9234431966242043,
          0.7612229100071888
        ]
      ]
    },
    {
      "activation": 1,
      "biases": [
        0.6606158819151277,
        -0.4637406011361542
      ],
      "cols": 2,
      "rows": 5,
      "weights": [
        [
          2.841952578040612,
          -3.588581633287189
        ],
        [
          2.939799863972377,
          -2.495993274955018
        ],
        [
          -1.3344133560076408,
          1.2255465532380692
        ],
        [
          -2.951369803734153,
          2.3310799148210855
        ],
        [
          -2.6174899508926646,
          3.0541820698866218
        ]
      ]
    }
  ]
}
