{
  "layers": [
    {
      "activation": 1,
      "biases": [
        -2.622101466611709,
        2.38637288347539,
        0.440810469243017,
        -1.3268853809905867,
        0.6334249261840834,
        -2.929070354663128,
        0.15918296869572235,
        -0.6386459881465786
      ],
      "cols": 8,
      "rows": 2,
      "weights": [
        [
          -4.952266277994837,
          -0.7914801347690938,
          -1.6944705682963275,
          -0.4220422660944884,
          -0.9061966571361134,
          3.113650657143244,
          -1.2516353025857283,
          1.9076803127398443
        ],
        [
          4.6743289452145405,
          -2.6324254778035283,
          -0.9723747722405359,
          3.113361545942722,
          -2.383029526493057,
          1.3631570702150142,
          -0.6678120049598446,
          -1.3258107597988649
        ]
      ]
    },
    {
      "activation": 1,
      "biases": [
        -0.5640841569322985,
        -0.1403406661946131,
        0.42715234921349227,
        -0.39955322080852884,
        0.12719181340960722,
        0.08881743939720996,
        0.09049046169771352,
        -0.09050121542422063,
        -0.7107794080423356,
        -0.2891703688634107
      ],
      "cols": 10,
      "rows": 8,
      "weights": [
        [
          -2.5481824795367563,
          -1.9111260213397134,
          1.8544105539021187,
          -1.05911736567566,
          2.1240760999542396,
          0.9558859080944381,
          0.7706152073133528,
          1.580362076300626,
          3.1269230982778056,
          3.1281437741953813
        ],
        [
          0.8639567465851322,
          1.170697014513276,
          -1.5979464777969552,
          0.3434792338694768,
          -1.1832827503635077,
          -0.577366831339779,
          -1.9905999168509425,
          1.7826873060129342,
          0.7260233574613535,
          0.6780210643572899
        ],
        [
          -0.1530421901797451,
          0.855671108967388,
          -1.183419629218132,
          -0.2380258249524197,
          -0.7369725233867268,
          -1.154982743276359,
          -0.638854525078853,
          0.20472045667203506,
          -0.31183644601134214,
          -0.5338337430911638
        ],
        [
          -1.8033561059258942,
          -0.892154308141669,
          0.5965370545195432,
          -0.5315630599730402,
          1.4360103176301282,
          -0.19271334098789314,
          2.638653491427103,
          -1.4137083470307414,
          -0.5968397563379416,
          -0.6409469797063669
        ],
        [
          0.10293469697410633,
          0.9613898848325847,
          -0.4091542702753494,
          0.05422782753551913,
          -0.3140623553881641,
          -0.5703773863351881,
          -1.457705714618796,
          2.0398588224171275,
          -0.1277154374715612,
          -0.6833888587851924
        ],
        [
          -0.6996959940847435,
          -1.9016503500581792,
          2.9785238980612014,
          -0.8908021923794619,
          1.9161196622178214,
          2.740223573175789,
          1.413424108294832,
          -2.1863510098953554,
          -0.18270940689587678,
          -0.21988654671488558
        ],
        [
          -0.41958089965116735,
          0.009949823311258058,
          -0.3889287743267997,
          -0.23445581743219154,
          -0.7328623835607716,
          -1.0669091660232932,
          -0.07360812641001972,
          0.6283974159763123,
          -0.2219456120372556,
          -0.30473655200663563
        ],
        [
          1.1610003721534208,
          -0.13776089914143272,
          1.4222120646848235,
          -1.0208818937235615,
          0.05483253663869933,
          1.5340234396848627,
          -0.7134056053832281,
          0.017400808084452726,
          -0.2491391335712871,
          -0.38879008885621047
        ]
      ]
    }
  ]
}
