{
  "layers": [
    {
      "activation": 1,
      "biases": [
        0.20398892229332838,
        -1.3555558750531775,
        1.2315719915839471,
        -1.3597853782204838,
        -3.936426160656583,
        -0.4552668946428632,
        0.08562555056980568,
        3.9959296433458,
        1.2619098870657315,
        1.2211771533861366
      ],
      "cols": 10,
      "rows": 13,
      "weights": [
        [
          -1.4121001150400387,
          1.3654655676446457,
          -3.4794319150212543,
          -0.7277759021691139,
          2.6609772560471403,
          2.4571545819486316,
          -0.4903232958472727,
          2.618482231344874,
          3.0551618997308148,
          -0.6928384303062493
        ],
        [
          -1.828244620162919,
          -2.588775910943625,
          -0.9039053478485656,
          -0.10992214062419146,
          2.6827863527924696,
          2.1850002638017005,
          -1.002706453952533,
          -3.720051854547298,
          -1.3665345856929674,
          -0.7485044405115531
        ],
        [
          -0.7902713759473505,
          -0.6740973536580533,
          -0.7165828332986344,
          -0.2379416267335615,
          -0.3006397262621276,
          3.0913085790457417,
          -3.8186771433358824,
          -7.747916424732326,
          -1.1518576331715116,
          -0.4687130084379857
        ],
        [
          -0.2853494057885889,
          0.8623620181736535,
          -2.969932803265735,
          5.885856572067638,
          -0.4614455617445516,
          2.7128046103018675,
          -1.488947282990448,
          -3.230608801374235,
          -0.7965864544855987,
          2.269336891058171
        ],
        [
          -1.1097519721320819,
          0.29423704094808767,
          -1.742481473930717,
          -1.874387015772078,
          -0.0037606310345633907,
          2.5054154719751183,
          -1.103512730277006,
          -0.49811591487179335,
          0.01313517384676519,
          -2.86320236472576
        ],
        [
          0.6322071536613275,
          1.9200157066300072,
          3.054972867014221,
          -2.096867049820685,
          -2.240989393729711,
          -2.974896115432038,
          0.3630851180979902,
          -3.5490628655083336,
          -3.476952756949525,
          -0.7392044847736176
        ],
        [
          2.017284936089246,
          -0.7023569555664708,
          2.1062765493815503,
          1.8412256506391718,
          1.2587533546764922,
          -3.7718189990199162,
          0.3808953423304555,
          -1.0278124562364561,
          2.49512475724445,
          5.746150893455452
        ],
        [
          -1.0274107631815608,
          -1.494646391371895,
          0.7963896492927263,
          -0.8612271867419203,
          2.051977339793703,
          -1.228710887188015,
          3.697817950042369,
          0.40136557160051833,
          1.4908508955273985,
          0.26806894863951464
        ],
        [
          -3.7393086721194155,
          0.29402186143018294,
          0.4433323145767027,
          -2.0821086028280913,
          -1.1382987041665593,
          1.4882689374358158,
          -0.3136768663078546,
          -3.6891614821307854,
          0.8889092665214093,
          -0.32182072452804455
        ],
        [
          -4.594174095973135,
          0.10687058618014389,
          1.1987687359745025,
          -2.436202900330187,
          -1.0405701543601498,
          -3.1418537917086393,
          2.0473356813267194,
          -4.179912625572316,
          -2.1584880434261424,
          1.6999070112189227
        ],
        [
          -0.19835173914200083,
          0.8186336129621237,
          1.3438315706189918,
          1.6743234244138476,
          -0.053356713957057676,
          -2.4580603801690937,
          0.3492480647994727,
          0.10445209871757953,
          1.7235921082920935,
          0.8937898747659258
        ],
        [
          1.9766632077781658,
          -1.2709442570021683,
          -1.1460714187160215,
          0.17633643945812286,
          0.12542907428156694,
          0.05212828981625427,
          1.7551566671770258,
          2.2569076123647926,
          2.9461319313427174,
          0.7724589450457351
        ],
        [
          4.027501554315256,
          0.46888156566786543,
          0.7669287796383415,
          -0.18941034375860455,
          -0.47651527732543425,
          1.3751637231796006,
          -3.0497089479961907,
          2.051181701365659,
          1.3467760073515356,
          -1.4098553128293811
        ]
      ]
    },
    {
      "activation": 1,
      "biases": [
        -0.43388612765215967,
        1.1900009707153396,
        0.994807469558642,
        0.8294266595863217,
        0.08523750530766915
      ],
      "cols": 5,
      "rows": 10,
      "weights": [
        [
          -0.271540613635567,
          0.2513761168131718,
          5.986243597936072,
          -0.2323829529988609,
          2.0837787587390895
        ],
        [
          2.489572578130616,
          -1.723897240794057,
          -1.8967191100539633,
          -1.2955599992580957,
          1.2661127554303275
        ],
        [
          1.490397076005422,
          -1.5229917867984137,
          -0.8087780114919305,
          2.690654648373579,
          -4.454652435259396
        ],
        [
          0.7756375863405173,
          -0.6438851885149186,
          -2.078445756362916,
          0.9655334704567795,
          -4.561025285895039
        ],
        [
          1.6356351648786684,
          -2.7108758050837167,
          -3.585909853006819,
          -1.2738854911604247,
          2.5333599359606667
        ],
        [
          1.8239802258141633,
          -0.7795318198786418,
          2.4866368505377605,
          0.17445669274089246,
          -3.0477780971870216
        ],
        [
          1.2270313690128414,
          -1.8476056615713081,
          3.6328701814508855,
          -1.93641762411467,
          -0.8622814987912302
        ],
        [
          4.273615499747929,
          -1.0213787331369768,
          -6.116049672060282,
          5.280824976712251,
          -1.025645344308764
        ],
        [
          1.1520241174966468,
          -0.9092665700768414,
          -4.09954885045234,
          0.2892886708269522,
          3.1955382371118435
        ],
        [
          -4.001444614713394,
          1.509874863527324,
          2.9900701319882144,
          -3.29968508923411,
          2.6152347943912235
        ]
      ]
    },
    {
      "activation": 1,
      "biases": [
        -0.5913800047501443,
        -2.8236702292305984,
        1.0351839518861816
      ],
      "cols": 3,
      "rows": 5,
      "weights": [
        [
          5.591911941377446,
          -4.327637936606794,
          2.6807432335382906
        ],
        [
          -3.5503327806220475,
          2.310757500321374,
          1.4064424496386052
        ],
        [
          3.9553360465163108,
          6.864223144685697,
          -7.745254550877398
        ],
        [
          2.501021711455773,
          -1.675464612896866,
          6.491927004590876
        ],
        [
          -7.726459235395138,
          -1.8624904845492571,
          -0.6604390755696481
        ]
      ]
    }
  ]
}
