{
  "layers": [
    {
      "activation": 1,
      "biases": [
        2.16698857280377,
        -3.9734160711970046,
        0.39070625606407294,
        2.0120358250588932,
        -3.6733152038124666,
        6.406378427650104,
        -0.282294662456256,
        -0.1999958066813159
      ],
      "cols": 8,
      "rows": 13,
      "weights": [
        [
          -3.3977648421376783,
          -0.5445374432306329,
          -0.05991981853315372,
          -4.1243463570884975,
          0.739579635079864,
          -5.298596178134181,
          0.28456137614635824,
          5.9387305970659146
        ],
        [
          -0.06477010869292968,
          1.3043330508030198,
          -1.3644417306441674,
          0.6275288274377951,
          -1.1929517833476735,
          2.3372673117674037,
          5.590593725057205,
          2.7368933301336877
        ],
        [
          0.3665308690145329,
          0.6493499521067067,
          -3.2755798392628,
          1.0779987488770926,
          -3.2252455316651347,
          0.7420254114779307,
          3.362098710160928,
          -3.0738042695403616
        ],
        [
          -1.8954644611902638,
          0.8232783673880089,
          0.6003654219701784,
          1.00264416565339,
          2.3923873733252745,
          -0.2891235608856045,
          -2.4155088181952107,
          -1.6650031463316532
        ],
        [
          -0.8702004068819512,
          -0.33432557783867045,
          -1.777710314262488,
          0.9209514658621385,
          3.3061067868951355,
          0.4729047279334906,
          -2.98365262760962,
          -1.2640037005876803
        ],
        [
          -2.7569459256543682,
          -1.1856938645722883,
          3.212876295925103,
          1.8287206758808152,
          -5.004917966837029,
          -0.5786531492814944,
          -0.7296913508599291,
          1.1274720249628898
        ],
        [
          0.6820987507396096,
          0.8989340278546855,
          2.2296868942603503,
          0.35359965662499954,
          -1.7535283757273792,
          0.1824881930139408,
          -0.28929968857325955,
          -6.467766563821537
        ],
        [
          -1.826147430839108,
          -0.2062835909280451,
          -1.3899973141034405,
          -3.045731777543401,
          -0.12355636059418292,
          -3.252910411076384,
          -1.0100319719881201,
          0.8223684988197717
        ],
        [
          -2.5110239037910316,
          -2.487233181418803,
          1.11873392791235,
          -1.5236909320783487,
          4.520539132039294,
          -1.5138989975083736,
          -1.7077527669811199,
          3.069719599577415
        ],
        [
          0.6325006402468539,
          1.0689338404329272,
          -0.9838920574209596,
          -1.5017743511486021,
          -0.32186750937982184,
          -0.226135224135246,
          1.5048163461330095,
          2.266196466267739
        ],
        [
          5.915228439995874,
          1.1673100759817827,
          -1.6263271890623539,
          -0.8770709155360401,
          -2.844336919965387,
          2.6915133781468907,
          0.20106595777129868,
          -2.920409014146253
        ],
        [
          1.5887253199391485,
          3.1826342435531987,
          -1.7084449910623167,
          -0.5566833994713951,
          2.6143748826386752,
          -0.71261578249725,
          0.41524240885279545,
          0.027124917829209987
        ],
        [
          -2.041761189645884,
          0.6421246758918158,
          0.3922646659963428,
          -0.0019205479167360932,
          -0.2396476075059027,
          -1.9635281217039546,
          -0.8629814551886137,
          -0.20161552005151978
        ]
      ]
    },
    {
      "activation": 1,
      "biases": [
        2.261898819982779,
        0.07143503645254182,
        3.422135186412895
      ],
      "cols": 3,
      "rows": 8,
      "weights": [
        [
          6.120059353180446,
          4.243045949987653,
          -2.078838558809945
        ],
        [
          -4.964855062975435,
          -2.8308769003515937,
          -1.2910936866029912
        ],
        [
          6.301539024094736,
          -1.1789350804731125,
          0.32960196575260076
        ],
        [
          -3.703332502686597,
          3.2854776286300935,
          -0.5656965893528031
        ],
        [
          2.3103881134213538,
          -5.633255350126024,
          6.709205418290386
        ],
        [
          0.9868040343166762,
          -1.013437288818703,
          -6.389539054366311
        ],
        [
          -1.5327279037140022,
          -3.0338308154623683,
          6.067689991144505
        ],
        [
          -4.2633105882243925,
          0.4342656903838555,
          -5.387931207220576
        ]
      ]
    }
  ]
}
