{
  "labels": {
    "labels": [
      "oboe",
      "trombone"
    ],
    "rows": 2
  },
  "mlp": {
    "layers": [
      {
        "activation": 1,
        "biases": [
          0.004144576893148241,
          -4.826789161865159e-09,
          0.003650138328938293
        ],
        "cols": 3,
        "rows": 13,
        "weights": [
          [
            -0.1752111791076796,
            -0.13208348967322345,
            -0.476833177948144
          ],
          [
            -0.31303401656732543,
            0.5443057112313606,
            -0.15655546381591356
          ],
          [
            0.31422048126710705,
            0.5255354194858546,
            -0.2834355891327112
          ],
          [
            0.18281614933019819,
            -0.1875310091798507,
            0.24184407379824174
          ],
          [
            0.1641123622461781,
            -0.5684213823977926,
            -0.30675495943241116
          ],
          [
            0.04596093978970086,
            -0.44863377883177036,
            0.15421024342965967
          ],
          [
            0.28219723382304107,
            0.5651154123204615,
            0.2585706706549642
          ],
          [
            -0.25213474359993937,
            -0.002387400220058256,
            -0.4112368687805831
          ],
          [
            -0.35499147854469515,
            0.290924308121192,
            -0.014508555839856644
          ],
          [
            -0.35558844426309755,
            0.38261566813073294,
            -0.23264778294971178
          ],
          [
            -0.47755811645344465,
            -0.5146115259763777,
            0.43510081393789524
          ],
          [
            0.30084203557430395,
            0.07161316721219826,
            -0.14744110116737982
          ],
          [
            0.07735900094282841,
            -0.3224148369037984,
            0.11036651188556214
          ]
        ]
      },
      {
        "activation": 1,
        "biases": [
          -0.0061488025238929005,
          -1.7161888687498705,
          2.705712818479155
        ],
        "cols": 3,
        "rows": 3,
        "weights": [
          [
            -0.34509802040513704,
            3.7391161987083286,
            -5.371961615998116
          ],
          [
            -0.06991706250681,
            0.9506404072077863,
            -0.03166167791649128
          ],
          [
            0.7588640818119277,
            0.9839009462347176,
            -1.6652635227994084
          ]
        ]
      },
      {
        "activation": 1,
        "biases": [
          0.8428305279537398,
          -0.831077366114119
        ],
        "cols": 2,
        "rows": 3,
        "weights": [
          [
            0.09385808956755598,
            -0.13996587372130828
          ],
          [
            3.8924617916558457,
            -3.87761073370341
          ],
          [
            -6.327057620629492,
            6.334031457565553
          ]
        ]
      }
    ]
  }
}
