{
  "layers": [
    {
      "activation": 1,
      "biases": [
        10.355131366601562,
        2.90492798082193,
        0.34122483494374306,
        6.953469375345888,
        0.3314023276397365,
        -8.017621902691308,
        -3.8378165878388937,
        -2.378508457207766
      ],
      "cols": 8,
      "rows": 2,
      "weights": [
        [
          -14.991416489440365,
          -11.577730766289383,
          13.227611610567854,
          -10.418250491654069,
          -3.7381863553092645,
          4.647335357002903,
          -0.39104192930277787,
          11.166193596602554
        ],
        [
          6.082699978520061,
          -2.5507989747410553,
          -11.785760580300149,
          -10.062656657977492,
          12.693026891443216,
          9.886070813913342,
          6.0271674708865035,
          -11.03957213238322
        ]
      ]
    },
    {
      "activation": 1,
      "biases": [
        1.1515666760246484,
        -5.590819680670482,
        -7.912867254525935,
        -6.921880527891662,
        -5.063440516700408,
        -2.504332765684614,
        -4.19023040157286,
        -2.191503969779233,
        -5.702735810613148,
        -6.800543092103048
      ],
      "cols": 10,
      "rows": 8,
      "weights": [
        [
          4.946841637074717,
          -0.9707134643627777,
          0.3446620135346579,
          1.1029264676039319,
          6.685843009426617,
          3.045208494627455,
          10.863181885430095,
          10.35612423404079,
          -0.4423914483293807,
          3.896067074719303
        ],
        [
          -12.633483675767824,
          2.5011801873108364,
          0.3040838774702569,
          -0.599466106564078,
          -0.3317325360370068,
          -1.6904500793605346,
          -3.6459621580023804,
          -4.329397809988574,
          -4.321161804155167,
          -1.3702091196150883
        ],
        [
          -6.76833022208005,
          6.864884693860189,
          3.100620868206239,
          0.22247305076015012,
          -2.8153866471426516,
          -1.9325668373094174,
          0.058422194237080574,
          -3.0114627539309495,
          -6.885497327283169,
          3.9914899047013175
        ],
        [
          -4.209916677923185,
          2.503065090000647,
          3.2111198067012015,
          7.341738108198646,
          1.4990000303844828,
          5.406155589466558,
          -2.7813700675311774,
          -3.6853740474450927,
          6.445261410165036,
          -3.242240006496578
        ],
        [
          -0.28652728557508417,
          -1.725352161472399,
          3.4432927487159777,
          -1.6906482023900666,
          -2.0669964633335947,
          -5.377518409513193,
          -1.7107556489546372,
          0.5064260035151996,
          8.385278071418215,
          4.781581850070218
        ],
        [
          -1.131624961493632,
          7.7321397265793985,
          2.2369655644576447,
          5.007335078175338,
          2.271923560583486,
          3.4251896567232127,
          -4.066575829660472,
          -4.647174781395055,
          2.5795478894647714,
          -2.542977200674339
        ],
        [
          -1.5854584885342036,
          2.1113525087106897,
          1.4105708569076554,
          3.142364689884656,
          -1.7867208520654323,
          3.0828382290191136,
          0.7071054193128579,
          -2.2953580251830688,
          -1.517101896451306,
          -1.946586119529235
        ],
        [
          6.328726366092591,
          -0.7634732949950906,
          4.000427436703112,
          3.8785079077616453,
          4.633517116645777,
          2.3254502245946713,
          0.043066857034789977,
          0.3981342634748318,
          7.180757685978924,
          -1.0445163530191366
        ]
      ]
    }
  ]
}
