{
  "layers": [
    {
      "activation": 1,
      "biases": [
        1.5019486609354469,
        0.7629121884071206,
        -0.7467123786545791,
        -1.3573025417677476,
        -0.5666861830243103,
        0.06584510461036805,
        -0.08199528559024882,
        0.8484377787469669,
        0.6306332182989511,
        0.13576948799564634
      ],
      "cols": 10,
      "rows": 16,
      "weights": [
        [
          -0.8860645661275618,
          0.546059814163798,
          0.9049248789906155,
          -1.4268540786310866,
          3.1882877420809392,
          0.38433839050049917,
          -0.297773980055667,
          -0.8198803638845629,
          -2.0094299222396446,
          1.5157299596730236
        ],
        [
          -0.47949195038634473,
          0.30453787750847416,
          0.24335339246616708,
          0.04849180073021929,
          -0.18797657292344905,
          0.7733497926125065,
          2.1794745011450583,
          2.86892992220192,
          -2.9921145138830325,
          -0.19380215648985463
        ],
        [
          -2.0580216973022605,
          -0.524976803767995,
          1.6296255036793714,
          -0.05711568154723118,
          -1.8936379420185712,
          1.355659460235333,
          -0.2731704101090392,
          0.8489778386352097,
          -2.474028549924323,
          -0.7432595102035258
        ],
        [
          -3.183735171528,
          -3.9674747794110434,
          -0.19631747103133623,
          5.253811882351316,
          1.232099616478556,
          -0.32591473803469484,
          2.2409396887385964,
          -1.230594685020623,
          -3.0529238137757555,
          0.4918024024021549
        ],
        [
          -0.980223051949242,
          0.2819148282898777,
          1.6756819151380795,
          -1.5097713523401277,
          1.9219578385378544,
          0.041085476460830175,
          -0.09915112916391816,
          -1.7070824056132063,
          -2.455421738125743,
          1.2143755149525144
        ],
        [
          -0.03714363171099689,
          0.7242945219628756,
          2.3036941562659425,
          -0.46795968940788735,
          -0.9264165678901345,
          -0.3241958132419755,
          0.36007816495911127,
          -1.0104677773300346,
          -1.5007207506950773,
          0.27996090849608823
        ],
        [
          -1.0355747968923354,
          -3.203683386137356,
          0.2633341069439496,
          3.3510304087725293,
          2.2979125312873583,
          2.0631918119211483,
          -1.5521024618068484,
          -2.5747085428695966,
          -2.0872151960581404,
          -2.202995761585303
        ],
        [
          0.9098695803120489,
          -0.6644587437169597,
          0.705180417710611,
          0.24571363208864686,
          0.21431052281308252,
          0.5990172220191956,
          -1.0262684513054698,
          -1.9912107977091282,
          -0.6908250744188801,
          0.6600023330221336
        ],
        [
          -1.7487732799512092,
          2.0403484998121013,
          -0.04912345292038222,
          -1.7956944706892959,
          -0.4939225364912497,
          -0.9047690005560656,
          0.9227285239700443,
          0.7761753219529504,
          -1.4272310682232225,
          1.2489867806320725
        ],
        [
          1.6016153352511064,
          0.22948281998437808,
          1.5186140858166524,
          -0.969798844015152,
          -0.6714057925585695,
          -0.3939901968957898,
          -0.9946375228928943,
          -1.5472921902054217,
          -1.0913220529961871,
          -1.2652674756341509
        ],
        [
          -0.2410739484488319,
          1.8506395165988063,
          -2.2264289795486345,
          -0.7129133859451924,
          0.4187320904813735,
          1.7646546928297413,
          -0.43927710513590923,
          0.26872242832727466,
          1.4738506761327426,
          -1.9081808901842727
        ],
        [
          1.15847776529395,
          0.5247823740736521,
          -2.7040497188692294,
          1.2449341111476202,
          0.2605211665137518,
          -0.8398374148564235,
          2.3722958580547,
          -0.31676921803848407,
          1.8141320828268663,
          2.890108017087016
        ],
        [
          1.0949287644982229,
          1.8546439923951763,
          -0.13738452866055842,
          -4.057620609081581,
          -0.5679976557574674,
          0.6461645793046427,
          -2.512666262511411,
          1.9245954136545855,
          -1.6794648150685714,
          1.031695194446961
        ],
        [
          2.5320939940957152,
          0.02551999166638473,
          0.667699966930209,
          -3.945708201446137,
          -0.24512367288053702,
          -3.2563325911367564,
          -0.8207715624848,
          1.0103694717203322,
          1.0408787077990276,
          0.32506823747525915
        ],
        [
          -0.9984232172219367,
          -1.8996765092463148,
          -3.051364608207366,
          2.6991188255915723,
          0.45851713396774313,
          -2.165867084944818,
          3.460504498278258,
          2.0083983424856493,
          1.4311347479977676,
          -0.43424205900397617
        ],
        [
          1.3892184715035076,
          1.0202406391443595,
          -0.3797229446318441,
          -1.3243145605612323,
          -1.5379316414849085,
          0.13192295974447588,
          -2.710737180349505,
          -2.536528978500073,
          4.534808860470598,
          0.9352539019495505
        ]
      ]
    },
    {
      "activation": 1,
      "biases": [
        0.26477726983353433,
        -0.23243673272594398,
        -0.032830921941704866,
        -0.5934474883184753,
        -0.0015648939660383883,
        -0.6865539442160193,
        -1.9690966320217618,
        0.27749464708591537
      ],
      "cols": 8,
      "rows": 10,
      "weights": [
        [
          0.8654026773029777,
          -4.950399855411325,
          1.955020690094589,
          2.155347516149696,
          1.4006441857252219,
          2.359144868479789,
          -0.5621062231203847,
          -1.354721272760302
        ],
        [
          -0.4248434838311578,
          -1.0463297146961001,
          -2.593636085757499,
          4.153119282998904,
          0.1108167589052255,
          1.7480329626265474,
          1.744819444671924,
          0.6671449317266172
        ],
        [
          0.6753845472871487,
          -0.8000764197474456,
          1.587485777406129,
          1.603277584548746,
          0.5540670685994431,
          -0.13834309153796498,
          -2.0653065544099225,
          5.356111353141582
        ],
        [
          -4.019407655089834,
          3.4251231765399432,
          -2.829611689138095,
          -3.1658759370984355,
          3.0869726704252205,
          -3.5022505925542124,
          -4.229916264491964,
          -1.3010428681170838
        ],
        [
          -2.271123773927908,
          0.863200386825823,
          1.5953663974950696,
          -4.334804695920147,
          -2.210709638071673,
          1.1865998445929475,
          -1.0887244623693215,
          -0.3483238833381726
        ],
        [
          0.7045628817000926,
          -0.7538680355183031,
          -3.0557991931448902,
          -1.789664352285564,
          -3.119158117005209,
          -0.08699112101137117,
          -2.504758204674562,
          2.51187149686956
        ],
        [
          -0.30458271603800724,
          3.9886762852269944,
          -1.131204487144567,
          -0.9522102292007336,
          1.5505885138084097,
          -0.6972012487931629,
          -0.5290350097869251,
          -5.110992492321023
        ],
        [
          2.5221457292478218,
          4.167326305624673,
          -0.18166415650461457,
          3.205675389527677,
          -0.8387087401081437,
          0.6471689727334109,
          0.9581729163543661,
          -4.135378989778563
        ],
        [
          1.554148741508733,
          -3.5267057293836888,
          3.923873328695889,
          3.0068696950236395,
          -0.7325429525757773,
          -2.1337477512535052,
          3.432011096624228,
          6.051200756549134
        ],
        [
          -0.38632201612443695,
          0.21589882717872882,
          -0.41682002784163685,
          -1.7554819685208605,
          2.5147474075111895,
          -0.8503487567633283,
          5.146711012648929,
          -0.08949398721574676
        ]
      ]
    }
  ]
}
